-0.8444138831635577
-1.0595642445484637
-0.6344032823971147
-0.29420641408698484
0.2599102806082706
-1.651262617501759
-1.0952197949322675
0.6311303425594256
0.1494074794553768
-1.5007941995747827
0.050611351145181956
-1.9341926534413367
3.4392880683493545
-1.4449060029146232
1.0075634720022457
-0.0044060137325459565
0.8391498856391524
-0.6244172405767515
-0.42397848313874453
-0.250984313588156
0.9987850728841021
-0.47554874997218993
1.1665623509980318
-2.1525555863141665
-1.734841373198433
-0.8751942521545318
1.2220974186162248
-0.46236898614021105
-1.5190409439203885
-0.42822369861080395
0.4724734933668991
-0.8950157719717097
-1.6436288174364464
-1.2628120087460586
0.6536091114092225
-0.7664788807917459
-0.837345308457117
-0.9035922170283198
0.31533832891204205
-0.8791430887289442
0.0798772971797338
-1.6061705392524825
-1.0163292329606248
-1.3328450714629665
-0.17904815821455586
0.3446814550233658
-0.6520770364147878
0.31631587492738417
-0.47631070448179025
-1.7686233539183662
1.4611163217516547
-0.7905268335023895
-1.0075188994118984
-0.8745840101792529
-1.1420803288298405
-0.5337528840914398
-2.022411006458571
-0.4557471068497593
-0.2903666323891488
2.661971835113851
0.24350823583185938
-0.5670771903357621
0.307656084300738
-0.4528156704589369
0.6433602878888756
-0.34997734370696776
-0.4588701912475565
0.5043775396944848
1.4325447734704777
-0.36428850471161156
0.3642387217389838
1.0646925662101157
-0.48852708182276605
-1.152099903513218
-0.984511184581458
-0.26736877199993236
1.4846109709536073
1.108236719356525
0.12948037712866486
0.2727814224263052
-1.3413903703190104
-1.0015783311208193
-0.0542455517075079
0.538037746108593
1.494915729981833
-0.1336667026877704
-1.2099209311925057
0.6526858914248509
1.147004056175404
0.2221123839883582
0.2940093224330256
-1.763521284705221
0.4657136541842419
1.4717899253194273
0.4958170995660762
-1.1966518959780559
0.5031951094614738
-2.01793250804525
0.29314409112669143
1.8621345076258957