0.23282271544686606
0.6571598102290214
0.7649145490569246
-1.488211197906797
0.7556799336201461
-0.4960292057639314
1.9650764570333537
1.3494699801552372
0.3671224602632027
1.927454992575822
-0.21511547949387577
-0.9738082894811446
-1.1337002331917037
1.5911713284771203
-0.1419207491197769
-0.4853543702284464
0.1588720412537158
-0.6944720017151097
-1.1343342625293142
-0.8830703757227554
1.9414649424040862
0.7039514176587249
0.14372623349441974
0.029533344121957027
-0.6268618647378412
-0.10992233159584443
-0.7654504592451777
2.6365775339124315
-0.33421068499885054
-0.18633541895340902
-1.1855889045657135
-0.859202671503471
-1.3153409789604382
0.14752595656146028
0.17961440345076704
-0.48412829434189036
0.797433328805239
-2.215113152989262
0.9642384514103013
-1.5519697985055458
-1.3785059824768247
-0.9694945859237786
0.8556832383866397
0.20993739421290494
-0.5436938987346508
-2.0817471906223495
0.4382485970879687
-1.6620847216768624
0.24639799486805414
1.4420085411409176
0.7978423649844121
-0.4151927024613169
-0.3418756444782483
-0.4736161393200884
0.3107316421203022
-1.448867203229517
-0.5294168760852704
-2.6283894202522666
-0.2023969568584479
-0.950598684995938
0.24929919249857235
-0.5463303569141704
0.9273247919032527
-0.3418849921116417
-0.2243763905130692
0.22789814149859164
-1.1727389796169196
1.126615995541923
-0.25292829543925216
1.4146841195992894
-0.04955926744484889
1.3564986959371141
-0.20835162618119663
-0.38032471954080427
0.2845903675129939
0.5375056480390369
-0.353714491068227
1.1658150305516664
1.1649755580650465
-1.3643312602954
-0.4762502538637924
0.31419366236052265
-1.0329051970663996
-0.8928233746962393
-1.075789935346035
-1.426618090010787
1.101882631247444
0.08525789180594878
-0.6104345231272575
0.4747797276288225
0.2824850783645882
-0.2042829423635113
0.45989483656728863
0.28931298105790065
0.13695827070015962
1.3783143782878011
0.39910701237247803
0.7210689775141446
-0.4109777293612699
0.4712093745637382
-0.33148899576966484
-0.19804168003313838
-0.06660692486379265
1.3414455975215955
-0.42157199071576085
-0.6824953185265906
-0.34565000875932156
1.5265952927746864
-1.3404347720021146
1.7080032208837468
0.06474381495973996
0.9727642948098735
2.1798485257478997
0.12166529679441104
1.044724661554995
-1.71443368885768
0.7193182300336121
-1.534408490404228
-0.4939888730425858
-0.468987641687935
-0.33953573562009975
-1.348926526219969
0.5268558445493488
-0.19639445977690667
0.08983471884877772
-0.5168988699183891
0.49104569238650336
0.041930785921500416
-0.8772591579561111
0.5443056491589771
-0.07208696216583027
-0.95042166401891
-1.1898610170219774
1.526054025430078
1.1470444297878515
1.3797815862856022
-0.3968017097755932
-0.05444147137351271
-0.7589328209408844
0.2681338600941573
-1.472981056544901
-1.2019369895948215
-0.42355536536621197
-0.8833337884525568
-0.6243597438839048
0.5903070384762302
-0.6262773215036932
1.354603476533816
0.2927353027906763
-0.23607525855500514
-1.627007268300242
-1.5263587884728025
-1.773405730152454
1.3863879120683107
-0.35736757161707294
-0.42726648098925096
-0.027101497416408413
-1.5687488300885697
0.4099925473426725
-0.08095837800331628
-0.36082799499490986
-0.9428377011093924
0.3117647591000648
0.0016214265845260222
-1.0733043529943702
0.5894256759322315
-0.16766338799947286
-0.08801057941150345
1.0601205597590029
0.27867166915073804
1.3165693373843985
-0.7454053189950854
-3.1732255872262503
0.26366970126615774
-0.020147667232816607
0.36142088249927073
-1.028814242218959
0.5308135165112329
-0.03789707233320445
-0.5823683081617437
-0.4512170506119809
0.36970866764805954
1.2479389115625121
0.49536023376294835
-0.6023299827852843
2.617418927887718
0.017058996687648077
0.8037225848504447
0.450334744357004
-0.42896569840278354
0.29844932293775406
-0.6718244251304126
2.5659379934117204
0.6022175984874023
-0.12489687997150317
-0.9414680040635262
1.5570183838765645
-0.7621588441820821
-0.30372593378603774
-1.8500274199554687
0.48138035640480903
-1.1330482198582184
-0.1947887887925405
1.2821699988322441
-1.0901564853908923
-0.6796553104534147
-1.6389455467336478
-0.5279170244391624
0.7948116773914635
-0.4244454863487239
0.4141868225459293
1.0143645315985714
1.6479819584161413
-1.2997253932422304
-0.6381069794599898
1.8658550597308476
0.7050805516924529
0.6872278093965299
0.6887198860052821
-1.0005445600339598
-0.5478994446412442
0.7737358794118387
-0.6877156190969662
0.948971247697738
0.4281523772203117
-0.577673295236763
0.8981469861669532
0.46398652467842016
-0.16037015521598047
-0.0631221114005341
-0.11479107741731748
-1.1482127155778536
0.22232967069972595
0.9190427047917928
0.5586268265001556
-0.2193699283610147
-0.6228289631451537
0.6906728281137384
0.9205215837327794
0.7354150185842154
1.8981604840428847
1.1454682394983353
0.6014905087557362
-0.6209270278610997
0.5223871924095147
-0.5085529964089486
0.8806535500984228
-0.6119667145957386
-1.0970333256929696
-0.11509960037528597
-1.2884583449415992
0.3419545013820562
0.8283607257852148
0.8652294462023277
1.2553275424181032
-1.8120361323043055
1.7741164153811828
0.41230021834602
-1.0098132981110644
-1.0961384164994659
0.25038908249693204
-0.8553877584892972
0.2007417395676922
0.17612705101820977
0.12301317520509833
-0.4947388456270111
-0.5901350357668744
0.7826675572407167
0.9388058777669654
0.3582896781509974
-0.6666148814687203
-1.079443878258486
2.222331166560556
0.7345551243379472
-0.7434412709030235
0.5917278438989557
2.3559327843557747
1.3332094938124501
-1.1666626891810739
0.4873600678804421
-0.05949569241686522
-0.15814113438058355
-0.10410910700108605
-2.2127711818936473
1.697680436043926
0.7363529558044306
0.9884448141595044
1.7751525104762378
-0.8247156747004205
2.0135767538342684
-0.29756911255348617
0.5571651583038596
1.1841561417866828
1.3413849816138685
2.2669983271753034
0.9157218802287792
0.04949805524471104
-0.7351402757889078
-1.561653952441358
0.6161490420182854
0.3425897623209581
0.968934532678444
-0.9668461206037432
0.9614289709630054
0.5926069052015055
-0.09456563888091628
0.6003109186973848
-2.4225078751087876
0.3909548494051592
-0.3718731419818531
0.1997515025922859
-1.0648451015810985
0.2788738176363215
-0.46010931430936935
2.5057076398808245
0.6815349999824074
-0.27115998091316623
-0.45055958199746166
-0.6633598478887445
0.029692410763155947
0.803786292833151
-0.19698475830752715
-0.5313723970974711
0.6622078943230324
-1.2524722552024437
-0.4581990787285423
0.24069648375954936
-0.3721929906278874
-1.053633956284302
0.18427106013649186
0.5960864070578524
0.9378768920934764
0.5045567686418835
-0.3468805924987554
1.1765535614081362
1.6194928012159902
-0.6503107718495441
-0.4019825830432298
-0.8237207529011793
-0.9510685162922942
0.4393462917660917
-0.789917366966611
-0.09377700737242657
-1.5126787037427052
-0.9475264800691923
-0.2668660861871167
0.44350251119354095
0.8168919584452272
0.47383593576385596
-0.567128048420897
-1.5683705000618298
-2.5892426878708004
-1.160725405013873
0.05874721789101632
0.8659418800983331
-1.0089316736047482
0.28260638981832387
-0.5166112969656039
-0.5064331689720555
-0.32752761660837115
1.2855395290022873
0.47968194331495506
-0.40378018016624323
-1.5789172261048876
0.69912135228874
4.0408861205105575
2.198032445588556
-0.2693697924816403
0.7680682686292055
1.0055259640052532
-0.14024095927614402
-0.19658013831406682
1.0059743532407763
-1.0092596662625464
2.756256286024476
0.9877547110804357
-0.17423444723506248
-0.1895818810681413
0.09026135098665955
-0.4566179063102697
-0.48766820383441223
-0.8561943993871841
-0.27673852036025065
0.3679341908185045
-1.664244157297746
1.4335958059383966
1.5803050093487483
-2.034831050498539
-0.44786752487946746
-0.38060877271091514
-1.3192563794377596
0.0364747520297044
-0.051716359953863936
1.2877027935693022
-0.8609598822939559
-1.0284246293265606
-0.9819985093128545
-2.2885313970792796
-0.43312383671405047
-0.5692302236565095
-0.9692557527154745
0.3544405334412445
-0.509944280313226
-0.3240534745551609
-1.1572503002755046
1.3930125191269356
0.1810845567705575
-0.5167810557585645
-0.4373489255387459
-0.6333656898226797
-0.3911574173055224
1.3623869949164713
-1.6042242795821264
-1.3886755139883886
0.9652529339562818
-0.25278785322102376
0.8165918345963322
0.9485848095662482
-0.3045562085022492
-0.14390088970414178
0.20324982013131415
-0.8081517413338596
-2.289366559512108
-0.31757416298846664
-0.14857858005267738
0.43327965659907713
-0.04563647270628961
1.0935723346062605
0.35149036074283935
-0.9780014437024958
-0.04374116771238345
-2.656616305529032
-0.05427630298073248
-0.646074645379314
-0.28733687664744745
-0.31353226393361855
1.7175061335656074
-2.2573737749608958
-0.22591900993598094
1.9349240780353887
-0.03045619882121853
-0.2632030748868978
1.3256775757828068
-1.241311288717969
-0.0362376907430022
0.8524045109993406
1.344934687759444
-0.5469663452617374
-0.42352691783885565
-0.4053398895596844
1.2598638340235988
0.22984174212496397
-0.7821272714973376
-0.8610278301239088
0.06822773237338312
-0.6570128063657201
-0.40387241471276686
0.18643393250135162
-0.3182278894225364
0.33146785211506125
-0.4530610171570106
0.5895999778590189
2.828570186390097
-0.49314742360531477
-1.9447173146358239
0.7040609928835164
0.8567523464528718
-0.21252033414795543
1.0309950399036505
-1.7509116937938642
0.46295832649471436
0.12546501491127626
0.2752431481761834
1.4972116948440928
-0.3365600920075088
-0.5860842050090664
0.3269498259600787
-1.0375723849814023
0.12822238238375908
1.4819512370911547
0.10476872969000374
0.6571027721936441
0.12906623903956996
-0.4077033652103907
-0.4120922790524862
-1.0420782295250357
-1.6354928251789325
0.06676896780269215
-0.6725366068515816
0.4892752314455366
1.589056224594927
-0.1535972286652238
1.3759657583324065
-0.7028770048247046
0.5579175839213114
0.37520886279773646
1.1017548492107727
0.06481299222992223
0.9351311799593596
0.12008703290939235
1.0015228208341118
-1.060267734261847
2.1169930152502694
1.0929571807749237
-0.8777141373148176
1.448868804455074
-0.22641399318912217
1.7242777482845821
-0.9308213182779322
-1.6285150128040524
-1.0720324174665599
-0.4703987211844347
0.9148005596761
-2.6590482672128366
-0.7971415450624401
0.816303287885879
-1.4902484032135934
-0.2908327966697157
1.5944058832547394
0.5750895699257752
-1.0768323166966316
0.6820064229304448
-1.872994857625098
-1.9433249580215959
1.213233647756302
0.9131433048188552
-0.07273392856644284
0.9564848930993803
1.0671059977350272
0.5921857464837782
-1.8161097669332407
1.0243218487616788
-0.9169966448568823
-1.0775573534512786
1.3131981777205444
-0.9348196378170254
0.4638760767727816
2.554287341671537
0.11252715257510047
2.170410164477417
-0.8694365655559484
0.41258848891730354
-0.09404655308685174
1.1560931137269095
-0.84645396846728
-1.3252463066844844
-0.22143720967971456
0.2900015312739286
1.9536631318065472
0.2387847624075603
-1.3611688489295832
-0.3046162884127265
0.05297799808185844
-2.46750748315267
-0.5731371629845063
2.3699889627447828
0.030920502444826695
0.10572879226772501
1.9080450981564971
0.20831299769944756
-0.19839575962915243
0.614595810535069
-0.8223084134948383
-0.2534819642824595
0.7832328092855089
-0.6370430081141525
-1.0321186988325666
0.9694277588432365
1.1763777763640777
0.4209419170919432
-0.06270911504723277
0.8449833678996993
1.439748043128297
0.4543852662982419
0.8984129050137261
1.4486044542473782
-0.22099727410963796
-0.3247814390727776
1.7899653613483668
0.905354592020766
-0.7832969324951429
-0.5939973852889402
-0.12551569349436012
-1.3634808303089534
-1.171044011766997
-1.355087028200465
0.2969340506067806
-0.2007371857405715
0.39218113913020136
-0.24039130622231059
0.19386263788306698
-0.6700947891214614
0.5598408148428546
1.4947790041025748
0.03850242103651644
-1.522971381219758
0.7943061585349336
0.24420364640225883
0.34915989952186655
-1.7561237024253422
0.195076633570867
1.1931382976940468
0.2513474041854073
-0.43203833142039744
-2.1761376103523604
0.955667927209955
1.2762722702614453
0.6858107075676527
0.12551159104894663
-0.09783929541698465
0.6102471513299977
0.8175951093947542
-1.6700212368342653
-0.9426222612154076
1.206907828919527
-0.04708235530711066
0.6807961789600298
1.7964400117950483
1.505510732136616
-0.6936780631505242
-0.13739637242177408
-0.0013224939144099086
-0.1707066306609806
0.5391081465914346
0.13412009549082085
1.9281446767772712
-0.9858301290945605
-1.3661487022721068
0.5011860823160789
1.02550661500619
0.01996379410552772
0.3415810786994449
0.1949970605679604
-0.37876402691830546
-0.012473198983128353
-0.5505320099971023
-0.14051396454640994
0.7371226989501104
-0.1103471611909606
-0.6282292715002243
-0.5960643297353643
-1.2551941646476499
0.5008079699190241
-0.2686112566925396
1.2555218274829227
0.34949081705868285
0.8881312121538333
-0.8172171809588397
-1.5398261693018125
-0.8931143340856629
1.362970132139453
0.22156340931936772
-0.18402586142538183
0.8792612488372438
-0.7215832918961534
1.7484630056795505
0.21463681388600378
-1.1570131085714186
1.121487696686546
0.05577445350949865
0.4936452836039925
0.29190459073731556
-0.3129951167232641
-1.334151136339501
-0.6499361199551243
-0.2275114113837036
0.09879363996677919
-0.10654164224780499
1.7270012337209664
-0.8613569354647413
-0.5246042378224143
0.24846489769719463
-1.839991554398528
-0.9961283146501506
0.4823965174952466
0.2677123069199915
-0.32709312690474923
-0.5101791451352611
-1.7483644592182668
1.7866678887219958
0.1247054598487615
-0.10925985235653699
0.42842214905291515
-0.36887712793192834
0.3576800487251791
0.20886508985505944
-0.18222060379399935
-2.1164619741931094
1.9600576587249874
0.8403573605906971
-1.246796717273299
-1.5461292725876437
0.5672625446787435
-0.8317255146778906
-0.530245568184019
-0.3148301561138096
0.8332912151415467
1.8591838009050015
-0.9335634124034752
0.030236461714545654
-0.5926766129402805
0.17723896284860763
0.7822333654540158
-1.193590541410602
-0.018634201561619074
0.7637295928030166
-0.8367540331052356
0.03799033466147445
0.4983379798303632
0.02898637245440402
-0.04159960447114897
-0.948628840589186
-0.5740809911630816
-0.5241324366814181
0.3873675900573019
-0.6386185409032713
-0.3350792327954386
0.34974004301515454
-1.2855009114488836
-0.3094856390255292
-0.1360042152329965
0.7487354404932628
-1.8536211525841957
-0.5179911282054668
0.5641862233678222
0.08880983713075388
-0.891611608245078
-0.582705232959858
-1.2197842331149524
1.396005511331055
-1.9792124103757889
0.7831453177230296
0.19914172547114922
0.2981863913302207
1.2423574095353067
2.051497926310915
0.9677339284370874
-0.4780806057630684
0.0173680545659514
0.37023044079137324
0.15654810741190137
1.4567555099649696
-0.8803558866344093
-0.47889440809296197
-0.05867339320329077
-0.08840798094452215
-0.7297232221604734
1.010836850044644
-1.033444880555774
0.9873564607750326
-1.4083207668002338
0.3726996057582505
0.7140916106291646
0.7351471959530188
-0.43460981205740606
0.2669060907327983
-0.2388489989585268
-0.26719225780647216
-0.23657222854790186
-0.24330261430022196
-0.03795988586092595
-0.7585749428123201
-0.4877306339827653
-1.6649805862778302
0.43444016677917585
-0.3186053738698277
1.6181498858783978
0.8766793973305755
-0.8019378395935972
-0.5351562406852453
-0.9852325028018489
-0.1480917692894752
0.7515352623202426
-2.7772263893814357
-1.5214234695059226
-2.2014323325063185
1.8180056606739694
-0.06470267049601278
0.1660577353541657
-0.2726334566059436
1.0802516213937294
1.1696743570949208
0.31233901440652667
0.20940936774436017
0.9904741171628445
-0.48840862770334187
-0.8775117942792561
-0.0613359757038978
0.37589701429374917
0.08527561537269103
-1.247189839665403
-1.0059468587598877
0.3878924823076361
-0.832193859655073
3.0219888504653905
-0.5096173588246516
-2.0570795664250436
-0.5491808709619863
0.3444994314753285
1.1996549970524306
0.17250180482192579
0.06463695735181645
-0.6056917517424524
-0.6075214148828009
0.1640804309495727
0.25812696492588816
0.8967650872336199
0.3149956378193342
0.11192428808359801
0.98431380416195
-0.7561028042355875
-0.07902905225730569
0.15124091358803282
0.3536326744266854
-1.6658558331706808
-0.5802216858884882
-0.14289640396551584
-1.7685215787311497
-0.4552785075019789
1.216775575282041
0.04736379501563429
0.1469240917401821
-0.42103567372005535
-0.19848137157322654
0.36611219950237833
1.3993031663687499
-1.0861967406900095
-0.819137099810514
-0.49708131720753784
0.3999759505536147
0.092950123916002
-0.8488582113855857
0.572956953123847
-0.023938474253546945
-1.271313959149794
-0.3799074264721403
0.6912841693574827
0.9164972777390018
-0.6021336362043431
-1.088639127364732
0.1939994641506332
0.7054039360770002
0.7374554343873846
-0.3436606117109809
0.9471349558991478
0.5747434336449729
-0.8297348152218451
0.07612187565582706
0.5953934625554543
-0.6909692398683545
1.0037115250551427
-2.4232664427657595
0.5905506192747272
-1.3296607690028779
-0.5866690327143277
0.08474259929128677
0.0004510308125265841
-1.1868961194718834
-2.3661773632355283
-1.8360528125970867
-0.7018595536575082
0.13903769104868619
-1.9078203409713217
0.5267938997911771
1.3125066654875357
1.3997619833508985
0.25561849559037036
-0.47727970603735365
-0.4019124430048415
0.8083508165011526
-2.1930170834531335
-0.5063071804215137
0.8945032864092539
0.702165298786732
1.2053776231788278
-0.867056099051452
-1.5719318483286684
0.5751441616682076
0.44623331259345744
1.5778291822194088
-1.8775816562644483
-0.5401817498929999
0.10952773994704602
-2.0987070396123793
0.6785243297012324
0.2973967402269899
1.4144892669929119
-0.4404028107627439
0.016628174973460915
-0.9998591072842284
0.3404170931399542
0.8858510428096699
1.1336758815403452
0.010909788522903086
-1.059840031903118
-0.5086364211861134
-0.08493200812154639
0.523362766266669
-2.756371317930145
-0.5785739708876275
-0.7396008597135771
-2.712197194502165
0.608199652718899
-0.4860084580439845
-0.9531823872011265
-1.0166730895576024
-1.0986503599978927
-0.18620738779546941
-0.2056278359192927
-0.2852215623432672
1.3637780506658843
-1.265881051061588
-0.058188975093199764
1.3600067965946743
0.24668148651119806
0.47462445238220674
-0.4871323273256232
0.6623546261109546
1.8962866198538184
1.1780686611355546
-0.7610403061219687
0.12330926488303992
2.6256212304577153
-0.033975556669192684
0.19866821000932222
0.5758513013993194
-1.2488904738567557
1.5175332666731869
-0.5161272800106425
1.2668310664902993
-0.4469797520966167
-0.012745603843013781
-0.6045989766840422
-1.992960632141687
-1.0564972864759756
-0.05383160552960236
-0.22722903048215787
-0.7907470183504703
1.2872811111453883
-1.7284877021727958
-2.0651493847102875
-0.39847156309930626
1.9307793810169092
1.9533461112307737
0.33004567270849433
0.9911452355405341
-0.09774431404387075
0.1187049430909911
0.5440302461375294
-0.9052557315814072
1.2731345379757288
1.8620234727098586
-0.15048671253693804
1.7674004702739228
-0.9638469611150534
0.38603909084838967
-0.06929473480560172
1.0577307064664023
-0.5887404646643919
0.1707970212241823
-2.1667782255015595
-0.06410497577125382
0.8133720724012113
0.20884917906877962
-1.0715624062526654
-1.0589157454742844
-0.4392691077779036
0.3668702224712246
-0.23596567138435606
1.3743755345663775
-1.052452007586419
0.6194289472807599
-1.109370060421929
0.9851085785328785
0.7886592782250551
-0.627630223801595
0.7287901795260778
-0.038181378932312465
1.2498069881577927
0.19023084046033353
0.6056764424438714
-1.2910834687164319
-0.6715293281948902
0.1886797535917409
0.7456974152243938
0.48564892962029604
0.19508728761778307
1.3681584041768013
0.5200454722864754
0.07683722232220742
-0.47244493802185034
-1.402571374743027
0.14155927364784404
0.7220109610646418
0.25642774671539825
0.8315965893854883
-0.39556990383554885
0.9650491564433799
1.199012858112245
-0.009414986610317916
0.35581906647774697
-0.9555621646097251
0.6365668095568808
-1.7086785524609671
-1.1486205189091818
-0.6506677100989381
1.2393821864933459
-0.5664790533312647
0.10550170503894236
-0.9458308583186569
-0.3951457705188154
0.6640824752455583
0.3325386743538791
-1.3522357109489997
1.1641666397310428
0.7160468196620572
0.7494305781836109
0.23977144991079713
-0.6967041445282736
1.0251345122795945
0.834712229723191
0.4097481780681309
-0.41881133898976214
-0.8501978011764669
-0.24029364922335156
-1.3587659927462759
0.8738168441111098
0.5249753742044521
0.7424090467897992
-0.130687180386412
-0.9934440246324179
0.8840995616643377
0.10395204675603902
0.5134747229887965
0.7905510097288875
-1.1851610598794007
-1.0438852540508419
-1.4200341175468798
-0.4719049259273357
-0.70165064145982
-1.3701919113513568
0.15860610116272006
-1.7078862652923212
-1.6199194464847857
0.06976146251856737
0.7469143277523769
-0.20110554782122525
-0.2288919072971103
-0.3338243295527005
-0.00892870673634778
-0.16175498224739024
-0.3417755339980098
-0.27746364022450776
-0.9899990515429453
-0.2839649793086175
-0.08224034170464829
-0.9282124536248758
0.34628750220619353
-0.9392361809107365
2.0756934971575234
0.32593933001300507
-0.3652144706052528
-1.1328817389994328
-1.0188335373032538
-1.2226445567017632
-0.11618390500906041
1.6322885560664957
-0.7190951868644988
-1.3195416805639875
-0.19205184351439603
0.6302384274659031
-1.3977999396703087
0.732939406364072
0.017709060422232827
-0.08689854437348453
0.232622002561756
-0.6798010512810223
1.8458985475096812
0.09879159541304165
0.7690165610044456
1.6801951928103398
-1.7092326655506125
1.517436565445905
-1.3633479800346866
0.6471253983185709
0.46262235106362093
1.7908454903092552
0.9998248412637086
0.3190130596822231
0.3822862122815173
1.234695869958095
-0.37626995995631274
-1.636555314813733
2.4303054003446865
-0.3090650186774914
-0.08441382531148832
0.9422633437339595
-0.7230658407354988
-1.9861574350604678
0.14624823075299906
-1.412834207523992
-1.2666521775912527
-2.3149351050762177
1.2357794680662928
1.1305449305721746
-0.22429892236245927
-1.2030971369554158
-0.30151283669863377
-0.2789901545597573
-0.9251800968028451
-1.1601125094868527
-0.1975981100466815
1.1088015353762068
0.37320496094839267
1.5222818529753033
-0.03691480819762382
-0.196999415199533
-0.6781265883012585
0.3167697148534709
-0.7516640876103318
0.41453181001155903
-0.6559564041852466
-0.04370431609442505
-1.6074512808338839
0.6109231472077382
1.0594227292247123
0.48212831892866864
-0.1942074556401876
0.037773825985918656
-0.5462681922669622
1.6576700760203125
0.14052091433712732
-0.6511120247390574
-0.22717519242586146
0.166602131357091
1.498647580718721
1.098000067342786
0.35146425211689014
-0.5590052713106213
-1.0936821642623493
0.11456521780542936
1.659423038757356
-0.435590030826816
0.761849241019874
0.7243992473603472
0.00014133220138120463
0.0937048401997727
0.41783921395516027
-1.3705011977512425
-0.566083639232659
0.2591067849621646
-0.8932182434087262
-0.8676778669540002
-0.2746960437539103
0.007721840853823328
1.9441720788955266
-0.8291543730880052
-1.7671003203886708
0.8415177017743387
-0.5483737309409729
-0.5625932915561545
-1.2877528196065657
1.2379595714461926
1.9311461660814138
0.511802965481184
-0.9673644572759791
0.2868128560418753
0.5975326632201563
0.6971088870509589
-0.7347540614527812
0.32255203547511246
1.0854927784959922
-1.8300408137948267
-0.9427778136181152
0.6399608990799729
0.7275336019226634
-1.161740669723133
-0.3271758659415369
-1.4142334457550176
2.317001151286751
1.1064341842588423
-0.5503767728441071
1.5180529514151635
-1.601557224468836
-0.024051740109379646
-0.6620623614836112
-0.07014231756739932
1.605921139586698
0.3124615140903594
-0.273033164697665
-1.95239269166289
-0.30785564924193304
-0.3999160987836394
2.164174731430178
0.11949104523801023
-0.5461510771174215
-1.0344371563501777
-1.344933321905281
0.14646152571665189
-0.6423938171161981
0.8164249563698148
0.8809259369814613
0.41328067712360367
-0.3782473145683218
0.7468452175540775
-0.3411175351409531
-0.2280912602178599
0.5994373275127723
0.6380734797963081
-0.11053519611613148
-1.828923800372132
1.7984620132327285
1.1525652992295157
0.6796373386817101
-0.52097531363165
0.6902774275373342
0.9291546864389516
-1.3335751185827889
-0.8130763266149413
-0.004819947219203592
-1.2809800889234169
-1.4260196339231692
-1.2121777198652322
-0.07988278186907186
0.9918793467864799
-0.6022552380389766
0.2787680067033134
1.005472618016123
-1.236682427495291
-2.3009452201110836
0.40593802245344807
-0.17521320801311235
-0.7587080173950488
-0.7999041810585461
-1.1549036803418358
-1.2887265796295382
0.7409105810603674
-0.7351143760972151
0.6027261542228909
0.9640564319186496
0.5957868707740623
-0.05505664655719947
-0.8449016524769889
-1.9488315174092177
-0.23799674479644561
1.9408030751737257
0.5205676782715568
-1.2106269865233565
-0.044162451044997914
0.46849443764938653
-0.7223338949103232
-0.33720941873121824
-0.028232696043732724
-0.5312602559391867
0.90321755765425
0.3367857609342857
0.9144925808327419
-0.9078642956271085
0.7764806384128897
-1.1960459364712852
-0.8422694669415948
-0.23020958812022074
-1.014307123971019
1.2493172177950147
1.2297300555354174
0.6318481481698994
-0.3552519949863535
0.5545716685276899
-0.39803471716145666
0.8695694507910189
0.5525205803675023
-0.5697580104938723
0.005838753038809269
1.3044230030817698
-0.10438005386370071
-1.127613040124389
0.24382463563748674
-0.10529842000747384
0.8906430595814891
-0.17313178051769376
-0.8954652642638417
-0.7138261451819911
0.46211088682732127
-0.8999083287974686
1.9374737394238344
-2.048684736283245
-0.2460410216938291
-0.014130919804504547
0.6469447749007775
-0.6925480100938655
1.1612040400899126
-0.17754626709893598
-0.522523811714599
1.2883550530446837
0.06524826508551654
-0.6432290316504854
1.0008063916201995
0.4822022488528297
-0.14152104566158255
-0.8211094210860511
-0.5137106389274323
-0.8995923675183285
0.5081445007457083
0.011748208306290355
0.3018384898651303
-0.6562911939118811
0.5484787347264853
0.41644322593101357
-0.11626428485619802
-0.5593751453102175
0.8152183752392644
0.004913587584605806
-0.19241222175952236
-0.6345038576426267
-1.5348683935993979
1.170747191653909
-1.2429745884532506
-0.6683160054219828
0.27956583437329413
-0.24693215577541092
-1.4015747329328643
0.9847536638718343
0.1657342231601981
-1.565520645095356
-1.2678049447655546
0.9167511132870162
-1.5713420934942226
0.5871485245895829
0.5583225110471104
-0.14603656702534326
0.20142112709868368
-2.415171678870802
-0.5302876968046009
-0.06797904154293419
0.011835229927075624
-1.4933765365490497
0.6228481989231216
0.27760499450828807
-1.0897325371967157
-0.16322305346100868
-0.49740797455417524
-0.8205447560092122
-0.7111799571120289
0.727661021102757
-0.9687254983498097
0.18515492420541602
-0.48004734005582106
-1.339360515290085
-0.21150552696753364
1.0776996095426465
1.6641231081487462
-0.2792426201349151
-2.5307876403207903
-0.7005225908429579
2.7987938604661426
0.17914503895399397
-0.9279325362979676
-0.5544488748761462
-0.016426748660147008
-1.567204997833114
0.4453387619446753
-1.6046668850962642
2.482616398987762
0.3285195617075097
-1.0227045158388688
-0.14845045846607682
-1.0068783604468066
1.6182049226591506
-0.09665029523945984
-0.541338387612148
1.6891005825479986
-0.04651838945815392
0.5135711855508444
-0.07111006174465884
0.6729140268793814
-0.09253904505108698
-1.6877796796046687
0.7309244411654728
-1.492684191850331
0.69365248053533
-0.1324981945478646
1.7360593445711558
0.2821873895197018
-0.3351729477001681
-0.6020028947954899
0.7775622479434258
-0.07794653310298028
-0.07021683380479535
-1.513490026455605
0.6275827852508696
-0.782458658212035
1.3785336764799319
-0.27889621116433644
-0.18864532584887786
-0.2826241720086739
-0.8539448130392976
-2.01124795271523
1.4430211975412885
-0.5475982853763169
-0.14539568902937827
0.27882536692818005
-0.7901870080597196
-0.22671887720377323
0.8764879986110317
-0.10770547704566377
1.9134471678770075
-0.16316233349537337
-0.14040345853071368
-0.028017997818734472
-0.544644209334563
1.0596358886636923
-0.16002569303006428
-1.1680058102973547
-1.5482236389158073
0.15623359460967784
0.2352449554639151
0.09409942675679141
0.11865455280834065
-0.5775489612671354
1.2058164571984962
1.7710773966493825
0.9614158624563284
1.0531901072883403
0.8936502771408301
0.5470660313410162
-1.634781651392883
0.6754310825823941
0.48818156481644653
-0.06951079198011484
0.20959284692391436
0.5577059194528098
-0.840983180966681
0.46010906146625513
1.2991251735425624
-0.6503977407925726
-0.7011472673502589
-0.4785692730721677
-1.2376842521366525
-0.31148364741229745
-0.31614790351063893
-0.44496349846405947
0.8067426310194336
1.1565763792370305
-0.9993749237934879
1.1079676781016565
-1.2455601475151312
-2.060244443901308
1.9572172786651443
-0.8321958557179269
-1.1657215405303758
-0.8085913126381695
0.0613254155955067
-0.055139695425498916
-1.3017616219880463
0.6844834197419266
1.1748753360757909
-0.986207223349328
-1.5863948349634172
0.2571059699621668
-1.9342328622985536
2.2217671036691335
1.5218234104520343
0.08083709496223854
-0.7247188959956895
0.24085904170717143
0.32074871403294164
-1.5814487285069547
1.5666516239522006
1.089472003606024
0.1989745232643305
1.2215986730561375
-0.38729861346706723
-0.5586529316200055
-1.1159582804056665
-0.42118853867146583
2.183045509101996
-0.7427333326626007
-0.21020671536726812
1.6190657723775983
-0.39418874537313986
0.46057387677736833
-0.17691777031578282
0.05564717359266977
-1.5998375009899046
0.936169117911141
0.30415613629211813
-0.16633045503364705
-0.418329738323062
-0.7681592571497123
-0.4607481100147595
0.7778853769643084
0.3438357995748358
-0.6511062523660542
0.8583027369824766
0.6414806115131008
-0.2640554696070809
-0.7246266829854459
-1.8637477035115193
0.05278623416525804
-0.07979983460993165
0.5085277510956419
1.2462974304713685
-1.2502856228374517
-0.4543914055529868
0.3451186803959352
0.2466163337171825
-0.40733624888129777
0.34560556291356925
0.6123895691269183
0.4796734571626052
1.0269488687628352
-1.2007669963151186
-0.6519330994719827
-0.7038115952115638
-2.1911399966148233
0.0791859006072872
0.16068459996991366
-1.0556592078783456
0.0840761464350908
0.2914609611741798
2.2805137974548253
-0.6179061892374011
-0.5682871456583845
0.6985922837867206
-0.21329221124084027
1.0879919414297416
0.3019930915088653
-1.8171748762377464
1.9584277042775018
-0.07075621656944887
1.2954338950246505
-0.1063284863513476
-1.172015768154133
-0.6816280730616533
1.5932971196101102
-0.6003964978082504
0.12091159291720921
0.01957194801463009
0.4452241795127169
0.8865971772346841
-1.9547051210029374
0.6298067217347794
0.4461122579723794
1.3936600918348376
0.7623294872199525
-0.3494731607383663
-1.429055067254609
-1.4726464673429982
0.5956363887383811
-0.2744715222478773
-0.8916051413363458
-0.44661351102347807
0.4251536354167341
0.5264791148166952
0.7391966176418613
-1.0678636832349133
-0.5812550639537347
-0.23057058014862544
2.0122310897041205
-0.7267029225272045
-0.24621847423299392
1.940685574303589
-0.18210796113160818
-0.3585799527370797
-0.6036144281078051
2.0337455409995786
-0.7147322159869682
0.47978488875060094
0.005472567415636838
0.49107100282937294
1.229428856461657
-1.7461414719794164
0.6497300249075273
-1.1720884028479408
-0.8836162196384255
-0.12567343532060676
1.4896045349107259
-0.0037080013104985876
-0.5330960993727615
1.6956840307158956
-0.17818567444211128
-0.4500689360467407
-0.5819973586086999
1.3440707704386239
-0.4284509666635545
0.011983733451834717
-1.1030187193830692
-0.09252767887193435
-0.06501204260576718
-0.37428671107213035
-0.5382709074571143
0.9346208338619539
0.9036961690755502
1.2018056560252257
1.8983484693709027
-0.5736563756471145
1.2842795571301862
-0.5969580953167521
-1.6054623309367213
-0.12906196842060508
1.3058612576765571
0.951871909535053
-2.3224005159914873
1.0063394108075756
1.203617396745828
-0.38608688095612237
0.43633228954933845
-0.04141249717134996
0.3442163101071767
-0.44743416444652007
-0.40822171111873035
-0.2935243898558661
3.171784121937687
0.31817012806140293
-0.7801648424076665
-1.4691700267526568
-0.15559227903828315
1.7041237489703231
0.7653051339622223
1.6060698200882504
-1.3645856297859271
0.3997739979367933
-0.4108614394568088
-2.277391932112581
-0.3913309220453686
-2.070886637640571
0.7524280571511234
-0.19210021105089173
-0.4288511230535974
1.4029802630306076
-0.2732163167975047
0.32857584975969806
1.234991310658153
-2.230225411705253
0.8918590740047591
1.1690585479749345
0.18228650736254293
-0.2658010498716472
0.344356823223109
0.6184269604422695
0.43063700884040945
1.117291455999433
0.5869997099736831
-2.114248548081581
-1.22177068635585
0.2654616277960315
0.6684328127785233
-1.559058435149569
1.406038803669058
-1.5748593181461938
-0.35468277424341205
-0.4532961481851566
0.5930301981517042
0.44525623006684273
0.2741385600801277
1.6181490231691507
1.6406394461242935
-1.6882852685850804
0.468538609892215
-1.3296642732419541
0.2616251346885823
0.6259921035504159
-0.749263795117504
-1.134860292564248
1.3667402201933325
0.4558576071190525
-1.6654563799736113
-2.36012300451446
-0.34010682115093305
0.7637620059119792
1.6344319955666164
1.40021565430291
1.7434479349112617
-0.9905838768482437
0.42457801714163496
1.48949286438648
-0.31099788669112133
-1.8683974438523703
0.034765276825638694
-0.046164596744691755
0.7945037463146748
0.23563862165468707
-0.8466376715185481
-0.7345165147933638
0.7911014218898164
-0.0896099967568894
0.1040671253600882
0.0734990998605092
1.431886821414265
-1.8498471886382746
0.36988594250341045
-1.167575591393445
-0.09756605086359561
-1.025947842411817
-0.7084704223603162
-0.9554852009533867
0.8332263467942098
-0.372678437951943
-0.04147326807202607
-0.1763235420426612
0.29141487410640265
-1.6567469604870437
0.8762685327999719
-0.9018978438306717
2.1387379983116555
2.900932785616813
-1.3428183063074852
0.2762958399625292
0.2873688772264049
0.4646872965656357
-0.7999805478482747
0.17475587967808498
-0.29511463575216157
-0.6920982173105698
0.40132234320496185
1.0099043503454121
0.4748947805831247
1.41207575974336
1.1735449348353868
-1.1024519411663491
-0.3204925428277065
1.215960199607062
0.2781138000018085
1.1194058777333298
0.40800118790400486
0.7691948238919722
-1.384469854778536
1.263380379515167
-1.231545888683021
0.28814118656384846
0.23637492508917082
0.2389701368340759
-1.4023536745541372
-0.3012084988135607
0.5999143770036911
-0.2936023503722077
-0.5800591721826325
0.41807706112016985
-0.7192233848335492
0.9817605631745334
1.3697721792011657
-1.1260041090930257
-0.2913361990908087
1.7978775421349797
0.6870068442441674
0.36387431909959317
-1.9425760138655417
-0.8161522959075307
1.7753186306262967
-0.6698028687177118
0.3219609783248737
1.2241587540725114
1.2807624612338826
0.49524561700561626
-0.8598413543097001
-0.034576254161410344
-0.6240174172388954
0.6899018851821079
0.3912812346280899
-0.2161883821928419
-0.19232866045338257
-0.04566952026464885
0.08623960089766455
-0.5644969666810749
0.5105380878849411
1.1527116178017436
-0.47281856251275023
0.29693966475295086
-0.009288667408082107
-0.5714018047387486
0.47922216159756287
0.19415843765956883
-1.6357216738809037
-1.1336509377206294
0.3639512982465614
1.1425810280874682
0.13391713908351904
0.014095724143529319
0.44370311398451723
0.8231677537219891
-1.643480961350455
0.8839795552227151
-0.01860594576794031
0.1630381118555634
-0.14255391168077008
-0.5062349379825751
1.096968987199
-0.08241198992849934
0.6851654493524331
1.1027914603016555
0.19897997825571118
-0.09137223515861788
-0.7179445014704413
0.8094003497320565
0.3034980981351253
1.0363289377287865
-0.2797313804396647
1.2530064509924093
0.29107002156151585
-0.9262666383568168
1.1572539666587758
-1.5230137053932553
0.9009665180452181
-0.13745958857151075
-0.7001026529004291
-0.2542973597004141
-1.1459642489027955
0.9478985232765109
1.661572794177673
1.5170624203938723
-1.7725304234562949
-0.47998325341813664
-1.1063345631715846
-1.1328897429529952
-0.1939829459905885
1.6262501209722136
-1.2653160411587805
-0.27771793436154396
0.5220123741510898
-0.5881235014407422
0.08667560110409553
0.5569443056775895
-0.8324020140583434
-0.5166208031593368
-0.03870991698587482
0.4116254038083944
-0.7349305288809325
1.6819710466531708
1.2239286576228392
-0.4834572730640282
0.12175068245222967
0.42881939399692615
-0.09643046585780482
-2.678445318702736
-1.3996011497524998
0.0482594291879128
-0.5351020979949019
-0.19265758468102911
-1.6482928796062153
-0.22249141519388593
-0.28792661853184986
0.12341976390688071
-1.3669764504451611
1.198724713532946
0.14990952707149494
0.2864511564197725
0.14735563555728923
-2.298047419487529
0.900660993471991
-1.9504986942564102
-0.08073581921575164
0.6427576575544777
-0.5750835829516153
0.6567934588883937
1.2163300158015768
0.07465765933149315
1.6219358205790821
1.4833389518768787
-0.30336316482895
-0.2763596635123232
-0.8472597417422556
-1.5198108279581073
0.8128992556502096
-1.3041880195592872
0.3891915013967436
-0.6841646206885659
0.8152926908530832
-0.1378055777847756
-0.09100080674088729
1.1906841647773043
-0.6888219560315679
1.504049886629278
-0.9559502723052061
-0.05634910624326382
1.304865835606312
-0.050700982433304495
0.19396254008008135
-0.9241754963456548
0.31261305847358606
0.1449817634534884
0.6489973187975709
-0.3738397966166318
-0.26742062489700885
-0.5326320163547439
0.6992163218307458
2.192318798353457
0.5562280889565354
-0.7688490347347169
0.503653386788119
0.11975862309497665
-0.42616764503754534
0.9361032119981779
0.3491173807601459
1.6277565305494839
-1.222939985534383
1.7295777617950119
2.287974838811564
-0.1418641631662108
1.1682123754206446
2.1912612321320744
-0.3262188718704544
0.024687703430649202
-1.2450242660645212
0.017857901643285913
0.3573688887542801
1.029045885836825
1.5479577051014992
0.3363013692800242
-0.3996511708238297
-0.5501340292786455
-0.29050688225603477
0.3528746139515027
1.1989748953068575
0.6839872685020499
0.8319438156780189
1.3378809184885132
-0.8534373684623027
-1.68348555079925
-0.03136018949797967
-1.416119118098203
-0.6394685370449993
-0.6206714736111958
0.32120798868577677
-0.8274171011236813
2.2851413581655278
-0.0687712199629372
1.4727195739162202
-0.19878456824063728
-1.6111295167106605
-0.16693667271647217
-0.2422188022435152
1.4761430530676452
0.42634827302857403
1.2855027357062874
0.49322203980970974
-0.8828647617956057
-2.136249167298505
-0.5509363225688616
0.319919391279499
0.11109756567859116
-1.3127474964319008
1.7188385682040743
-1.0606933440822153
-0.5613604725574883
-1.5871290675695342
-1.0011171441735525
-0.7829677866817866
0.11093784143650078
-2.2949358139727476
0.2973632673483103
-0.20030683035348104
-1.5884734219883248
-0.33488403841329234
0.39080687844786377
-0.09681396741970777
-0.7947352919351389
0.8055407167913428
-0.31215866339256504
0.527794407421135
-0.5550950208061163
-0.4364251701957141
-0.21288053734300283
-1.4318181792771119
-0.23157166835982382
1.568574174014118
0.2804252175561439
-0.22484954133024665
-1.0714819199883048
-0.13543252652821836
-0.9128946117809785
-0.03830563129543765
1.4157572170201997
0.5962427640208321
-0.07163146506265092
-1.1200608952937283
-0.4065911321308583
1.3768275566602266
1.1174906328802143
-0.01823998310303166
0.15369486459008846
-1.4331281726839091
0.47683936831697643
1.335231392119482
-0.26958208149243035
-1.424450000819341
1.4491075965193052
-1.437022427501345
-0.27592606973077777
-0.3373423710794156
0.6809436374913238
2.133835591411143
-0.083855026467433
-0.5756318699369182
1.2406152130529693
-0.5093106201218343
-1.453177079788076
0.9641402771759482
1.427430248217334
0.6185249200961116
-1.4791824410609484
0.19278345144495965
1.1646364160628966
0.7750915180694613
1.5452637401140266
-0.03965267976263174
1.6907748193579726
-0.2248232550031614
1.8976388343068178
0.34253581525044347
0.2058087786888966
-0.8348437775455912
-1.9894063059131017
0.9837456843017346
-0.2926244992393611
0.6935409138252076
-0.03470208339210792
0.20684646081033284
-0.7756411988377416
-0.40802478611288
-3.4446162236714106
0.7331712070222083
0.123144473189339
-0.5885067669617042
-1.52487849273237
-0.5169335813454763
-0.8385556447836293
2.3251794906826
0.2107033172937609
0.37497839970915275
-1.700196521949094
-0.06001573229244512
-0.8116218695437633
0.17541255050670776
-0.5095496985895022
0.6303339972208879
0.5103981435656498
-0.8877140196929184
-0.3843644996374617
-1.0944034804809928
0.3939030030078932
-0.40260981208255303
-0.565061020527777
-0.7944437127351601
0.440515560949852
0.6135826989721394
2.0820347654483062
1.5980562468956574
1.0316363757955729
0.14679669824454672
1.4277920477426995
-0.3745483819468491
1.0751013849481836
0.719947916294594
0.02175370120559292
0.9408918021732332
0.3074501141397836
-0.9013305128417731
1.61204811031027
0.196795319092505
0.4345800754446826
-0.03752030009579828
0.6401126760724252
-0.9266436417782072
0.30803088227314673
-1.3393749895128952
1.0780794271493312
-0.5563335616566658
0.16029544239421586
-0.7272066863949475
-0.5546461305831355
-0.12761736563735834
-0.13207341056812852
2.3074008228634324
1.7517613491952884
-1.842395315149136
-0.9910767020232326
-0.584858226106805
-0.7111862380848315
-0.689734774341259
-0.11330540970701672
-0.2932696784738872
0.2891644495483563
-1.900787422303364
-1.0467581737456648
0.9962186230181672
0.5780588762695545
0.30111630160428277
0.6654069991172914
-0.11580411968445754
0.44786869491373554
0.6693154035588814
0.23471617115464635
1.4638549754149695
1.790208755427153
0.09638684124515931
-1.2171823342853936
1.1388128750603417
-1.0172945085333436
-1.292300710276077
-0.6677744864124109
1.6297168268173379
-0.8392694295887194
-0.7282930346566603
0.7657526553060442
0.026451107875065202
0.31389043647721754
1.3811241624944182
1.3849379705772529
-0.13248746360272357
1.821691364904209
0.14041656517624226
-3.029946749364501
-0.9247508327539709
-1.9024946360041521
1.08964180937479
-1.2675231034556569
0.6103004474604419
-1.3556678901993513
-0.17990170781446416
1.1554688625597722
-0.09571795694826227
0.37759867840291805
-1.8595194874054275
-0.10912127701586535
-0.6663577337623705
-1.8034564326698177
-0.029962974063308653
0.3785201399591657
0.49814840507569286
-0.9736931383450638
-0.023685771229895108
1.254096739106826
0.07217867421051949
0.09518987337865369
0.9100256480935485
0.8639285779667459
1.128732469995117
1.7775796482804629
0.060871261249667255
-1.284223686907186
-2.1368231249348235
1.2321013822622127
0.11852731832108857
0.8121672401539529
-0.037461078277165875
-0.17092606622507428
-1.0115952863138964
-0.15046554079345906
0.13530105165778114
1.2708357163028305
0.742189659852475
0.8460786978389305
-0.3938820461746733
-0.43727603397419657
0.8557493367003093
1.1287020383681523
0.31194019337806106
0.5720275207882323
0.0207173538954558
-1.3054380388450104
-0.715951865183149
2.401488318162532
-1.4683490207601768
1.0566873397213596
1.5150016443200904
0.5406846177142954
-0.14358252489872256
1.944192482431058
-0.8385216491951077
0.6727596885350685
-1.1036464772747925
0.9272595996986897
0.7860030026805573
0.6808161670883102
0.5672106813560646
-0.2635383112197141
0.6439483761177771
-0.9299779209882846
-0.5105048959478388
0.7940681509257954
-0.20753057092141175
0.1598933552645757
0.2337204114601841
-0.5836102507721672
-0.1921786588266486
0.9449993051811009
-0.43871155556515073
-1.2235997621249561
-1.215747455567406
0.8374572169659785
-0.5144789404758638
-0.19981211138392518
0.6472512936102591
-0.016838509177497855
-1.0400880208347005
-0.580740636618794
0.8226083722460461
-1.7514414926400073
-0.6670124289239908
-0.5892679971321736
1.1888857419242382
-0.6567089946536979
-0.11394741654962698
1.0655660507152296
0.012471520710469513
-0.47321155205879956
0.2829400092779658
0.42697994173306497
-0.05803223647173601
-0.8969351821599592
-0.29419880157362
-0.898355524542967
0.41772479365044046
0.37471659679478037
-1.4012057638317588
0.601709053583083
-0.9450016375164775
-2.1181010344045315
-0.07220165579991428
2.367742374787651
1.4201898217877402
0.33809514441580374
0.8469060053457298
0.6758247003451003
-0.8748556100007558
-0.7792204267866705
-0.19003192803882757
0.743880287117669
1.3284804511040698
-0.17437949288913004
0.791602725922724
-0.14234339012867045
1.3290507339077882
0.6510341434546896
-1.1156896266106848
-1.88596467612489
0.43725196213560813
-0.6045973215030992
0.6308618092427104
-0.3183771502971571
-0.5400814169664533
-0.6293815133966557
1.1044632361189146
-0.25341365393058884
1.3774702387917241
0.45995023868860635
0.8267531066453191
0.2835926790556251
1.200702253843023
0.4163970152680185
0.3979521709528014
1.4539765131597595
1.2980734100081213
-0.18665642071385424
-0.4126127142408796
0.34788356957388156
-0.32395823518124656
-0.7194262677420404
-0.44557772252775
0.32163933833531727
2.2702469638741727
0.8403415133423933
-0.5699178816740119
-0.4798163706624328
0.21231419992726813
1.0861217778769148
1.543875586525445
-0.18851660474048612
2.3829760629982866e-05
-1.2019286702712864
-0.4048380342912689
0.28775085329660055
-0.12342897257632371
0.7566578450647149
-0.9642387929221633
-1.4406991761881345
-1.259465328554855
-0.42219342430469875
-2.855126902921412
0.5598582228575157
-0.7195495580106843
-0.5992598756645553
1.6339125890513326
-1.0079474981727992
1.7568124606710112
1.1228420363591571
0.2611406607182163
-1.1907949948307235
-1.766598398649141
1.2941886394422373
0.3449101351669631
0.641077032414623
-0.8142881986995419
0.1409498967029344
0.2838024204793324
-0.5915232149543889
-0.3337844421482655
1.8876006383775763
1.1852793623629347
0.12640627024375012
0.41243177340521087
-0.7007919445785818
-0.3166575717836292
-0.15025506722603557
-0.23192590543885272
-0.5800913392977872
1.8527363865129656
-1.6685956089404315
-0.34516436538006073
-1.7202192842188855
0.32782341404546333
-1.01776549472634
1.1355041031117825
0.3803799814111542
0.38111696982604065
1.7500055699118011
-1.3336312844627596
-0.09499392141850045
1.6664296547630038
0.007461685708595385
-1.0300357585316535
-0.10324081790633402
-1.6241128646615983
-0.13775044196821806
0.7754187139948845
1.3728549797945049
0.28819234672813443
-1.440138365837443
-0.6843735400091029
0.8138916969247479
0.2736173876470858
0.6958215397663783
-0.376282577287079
-0.5212841908146983
1.600093538563183
0.21704488313820658
0.1683576546133111
1.4251877041787917
-0.626423254850454
-1.7952650924176672
-1.1358711246735953
-1.8141242952812724
-0.9365678827223131
0.009684615521656448
0.4423829873427592
-0.08687598942130859
-1.2866092346437892
0.6208299763587523
-0.49451164364573413
-0.679460876818812
-1.1083788339319733
1.1236641546659487
0.41262886250488295
-0.00289096617350155
1.8712901744944337
1.4855372824283684
-1.606668035397145
-0.8932968326243247
2.1256659311714428
-1.5045877647308077
0.5334998319704267
0.445738259764012
0.6853218936066251
-0.06723608379944468
0.22648031975423955
0.2952881607652922
0.7728158514512287
-0.707434420818476
0.3380801964725645
-0.8570089286677595
1.049947857254882
0.33257497056533847
-1.6522199906922177
-0.05364349305051593
0.11008544937790132
0.3814418034428046
0.7887515224579131
1.7911310479816505
1.1135132816970401
0.7718467525901495
0.5253790660185002
-0.9225191513366975
0.12110069268113502
2.073053315379255
0.12060162184781432
-0.2639054140511135
2.076437721506608
-1.5077815968975357
-0.43356971041194325
-0.39138514038351585
-0.597320583115394
-0.4104734469587743
-0.19079563219892456
-0.2766761380419895
-1.7123538987674987
0.4985198960536961
0.9632185825199882
-0.6868195173610407
-1.6849138004552555
0.2481886492302294
0.16266916653843236
-0.14672984978316436
-0.0778605907483017
-1.657890653981685
-0.8764312210995492
-0.737519433900992
-0.3159666922148802
-0.1412401052252196
0.529488618511057
0.9314459028171397
-0.5823477283320074
0.0010049898685234285
-1.1487213637562363
0.1882769365525074
-0.733315971093054
0.9150680213683349
-0.8956697899075056
-0.24625512195804783
-0.4102323237445043
-0.5736159037236672
-1.2893302327452967
2.077591563398805
-0.7386723150754839
-1.473366226108003
1.9592247836019752
-0.9758016820013458
0.0820154522685425
1.0015733376636327
-0.15541070431862264
-0.08511393604333134
1.258659380849162
-1.4038349023339434
1.1748290854456986
-0.3585027412736492
0.9389183544139904
0.6820792426013713
-0.8066375041628389
-1.4925364542476085
0.7573223842510498
-0.15797214635382947
1.7417950962270332
0.9733187667495078
0.05753298507365674
1.1699287407758185
-0.09969635083857165
0.31139050859970907
-0.010378647728187838
0.350922347138379
1.3194456957579452
-0.9269191338953026
0.22814893068654601
-0.724488293490621
0.9270560151354474
-1.2060398986174452
-0.06972125754729355
0.5033890218291148
-2.2837165262589934
0.3142815153498524
1.5361740379335291
1.8484652866899398
-0.6768961805043625
0.6536727041382978
-0.15325409696165151
0.39181116181259046
0.5215811340549281
-1.226163746627713
1.1966146000783286
-1.2472709021483113
-1.9402839042891422
0.4749404535694737
-1.1620628328862126
-0.9361092080245046
1.1543536617000918
0.14151066762540698
-1.495138767704053
1.209048074262661
-0.9339145673623295
1.3872471110075488
0.9461183360291033
0.4222521030446174
-0.10493049580246995
1.7048494340881626
0.0054535092618136684
-1.8510482818812528
0.9169713468804288
-0.8547364634778947
0.62622553551398
2.045687141483218
-0.19434994780825968
-0.16564883373751677
-1.063415486433449
1.4006336156930326
-0.5425340101872688
0.35026963447261056
1.5268269090301076
-1.514446086383363
-0.7139430347420608
-0.30061459761747533
0.1440358968662704
0.9891553307478854
0.7686397356890515
0.5651127005562168
0.8393300597501178
1.6428166916580476
-0.9803620414076442
2.043982218653944
-0.7212995164747745
-0.1790489987742334
0.75731548931729
1.514671906867942
0.7918233398739971
0.3320261376302124
0.2788136854813617
1.5818428903757211
-1.844767437097606
-0.4321747255435517
-1.8165416515223176
-2.2992427289655373
0.19007660552282465
-0.8074110349143017
0.09820947567764668
-2.1226768275581427
-0.709269429016359
0.3715274695572877
-0.9110570105576309
-1.1269281762599819
1.0772210246664662
-0.7577648453254654
0.4159006897350919
0.351558449655544
-2.541343687023388
-0.07272949147724346
2.466101572650984
1.0355804379349003
-0.4466506424172308
-1.3579737571274815
2.1533806680611853
1.227981956603014
-0.278529033687747
-0.30169996926958337
1.507700708817447
1.1075786388450544
-1.010300038925642
-1.1703266970763218
-1.0190250236549478
1.566000640485503
-0.23191408260617322
-1.5094845689806413
-0.1187350891263128
-1.2696951816059845
0.32589113772416894
-0.2909435561422518
-0.9253007959226417
0.044979060718196164
-0.8278472101078024
-0.13718637035568976
-0.1868670566266558
-0.8409267722528833
-0.7512831380692119
-0.3846656210205058
2.1380039002620146
-1.6119901875603126
-1.3933621525875284
1.2819740105093262
0.20865632170545234
-1.4841084579146497
0.05579644063429262
0.055090522989545004
-1.1955196103734769
0.482263882445021
0.4513706956248946
0.12348858640334169
-0.09922909148455761
0.054605510381245476
0.387855528934452
-1.5522430576011068
0.30491123481637816
0.24257478855914832
2.15076312986142
-0.13773660587705736
1.01919919898235
-0.6778813941652477
-1.315226817397139
1.3489688048588537
0.7453138652468694
-0.3363846096137112
-0.41002438269668
-1.341400879631306
-1.9119464173799403
-1.0367879023274769
0.48221977738453153
-0.25454718916887115
0.33800695455193325
-0.23964031016454804
0.4734614887284821
-1.0124888097119948
-0.48508417549530103
-0.8047812328798523
-0.3497517921614266
0.2834282904923312
1.5688711704242737
1.1397768153001846
-1.2120741704958748
0.17307932130663625
0.17855139028686484
0.21763097929876118
1.8608560531490383
-1.4956636439508446
-0.1837526464326477
-0.8996962533864574
-0.5061260050500893
1.6628495063888007
1.1269354466498855
-2.925363517526329
1.2098363379721764
1.5875008665868227
-2.3984480397349293
-0.4365066100304705
-0.22213339704466648
-0.15835834691881082
1.038316131418162
-0.25736926624027956
0.9078233208167941
0.4736218197552734
-0.6549331151900546
3.006829137377385
1.9462306707390675
0.8934145283713762
-0.4882733111326706
-0.17863180241364415
-0.08961013858730715
0.26802585967237325
0.7383564499862707
0.37516800565737857
2.049248394949627
-1.1968797185625042
-0.4082851870617222
1.04346838976887
-0.44458832932448517
0.3594269059760638
1.3775760524768519
-0.27972585434485414
0.18761448443985734
0.7106740029487502
1.0802822829806646
-1.7587471991800052
-0.13189984811305475
-1.8455695487211496
0.9139666853356851
0.609089294687553
0.7643375737097475
1.3901840847306424
-1.0709376021488595
-1.2831770150337052
-0.4747137117198719
0.752185076098172
-0.1107660914210646
-0.11635003771389509
1.2612115123657
-0.3090886439611932
0.2193121400574271
-0.2303622121079514
0.16431391196796113
0.3020949412903839
-0.35571961856473555
0.3457972019612389
0.08622455512474501
-1.8056106319735261
-0.7912030791824366
-0.8295520418561991
1.0300700604057218
0.24578596407995296
0.7049116898257817
-0.0836105912821448
-2.3364144612806967
0.12408873835079536
0.6416930680354975
0.5341723316645819
-1.790422396981065
-0.816537345510469
1.031422175952144
-1.5735802475931076
1.289590863692049
-0.8159484103342273
1.0101466303547333
-1.4155090973391866
-0.7314552719152158
-0.4044368042289702
-0.044470438467787005
-0.5892683509778864
0.7974736488530904
-2.524063292863025
-0.583821871815823
1.1549790556987038
0.7509997996950571
1.2279007667166542
-2.1858754190172816
-0.09480684183526703
0.4303775196111526
-1.9879149051427223
-0.19971339070308672
0.2177620619731358
0.7433314539949522
0.055968752474914556
-0.9451662433407388
-1.0369258065148017
1.2279549734934365
-0.14313967081025666
0.130396474702507
-1.3123328253393645
0.46360428871213816
-0.1221425978447677
1.092885234069436
1.6606451084103289
0.9602536387524097
1.2534438632177116
-0.42720901586452575
-0.0796475143318893
0.14351684492576455
-1.3485536755123864
-1.8471503909493308
-0.5037849777738103
0.4481154541287093
0.26090906474535025
-0.5409904115709988
1.587977270825448
-1.2945624957453339
-0.6556416380328621
0.08981437127924011
-0.10786341272395333
0.8108290230964448
0.4735324971660979
0.9405759722955266
-0.7402542857877932
0.12791395291550423
0.1977898075279381
0.595913013365411
-0.0895666687709356
0.7156219137431559
-0.969119660750021
-0.6481907596022052
0.37609661621651536
-0.2910526661198705
1.4697804706307929
-0.5168237117214566
-0.643156677801367
0.07223214476446908
-0.45754400985119204
0.33844968291219907
1.0789098373385773
-0.4028892672995261
0.1299285345743807
0.9443532771610708
0.6589696530324343
1.0598065134398864
-1.051512543869393
-0.1490363810582684
-1.2285005636262256
-0.27282940578702236
0.10006395024250267
0.24262572447677117
1.247828927585081
-1.0202010932214232
-0.12497738446707794
-0.6815605639104014
-0.29161709256022117
1.673966395868256
0.6285440462496229
1.2034096257956273
0.2575380074282958
-0.4675630070980717
0.3739086232391178
-0.7888507941749092
-1.4083494297220136
0.17049380357860613
0.11218583450439316
0.3518248063403533
-0.7898208415532886
-2.4165500062379768
0.40372960615666625
0.2738596448771088
0.7647645505595554
-0.7070130389765796
-0.02995794839568931
0.599279953655179
1.1727206177245346
1.2041987480469967
1.909752257776144
1.4605525691870282
0.9627282102316129
-0.3179971154493741
0.6122191865543521
-0.9541065870262614
0.5123133570853241
1.0001312432038125
-1.1427439108678212
-0.7667228417529091
0.7148631833385897
0.08762554045084457
0.4850804333086265
-1.0599948173871596
1.187177588872157
-0.5071087987870353
0.7679289974185408
-1.3327971937208558
-0.4964442438020327
0.6029087669707354
0.4236681123478745
-1.3398532023609324
0.17394277571896333
-0.9751839907250079
-0.05641495111791803
0.0734896867280501
0.7674760600064802
0.24145437092975355
-0.1868391636377082
0.1304327594921856
-0.31470040518902653
1.8732200101859289
0.8732532402600734
0.023500812901020973
-0.914584341911377
-1.1345383383388328
0.7627653006191918
0.24415152149167133
-0.20268617426508323
0.09759220413090042
-1.5774758867227885
2.082694173000655
-2.295591329310279
-0.33669001144243116
-1.7449866976204365
-0.4567697352467349
-1.303952139415137
0.3554416034415193
-2.1229061318641667
0.3907289332534731
0.7449476418477886
1.2747814194034477
-1.3638224615139543
-0.24395826495419903
0.7874308947543736
-0.6478496726416758
-1.1381585120316484
-1.390125863286499
-0.5590508929991013
-1.47002667938578
0.6097750591525231
-0.07216614644092012
0.9791325272272537
-1.5390996675560347
0.05971479106745157
0.7185185756865071
-0.5715376043603082
0.17928875608023712
0.48820110296958014
-1.0409719862092177
-0.02864756402056931
-0.6780971538167315
-0.2098461484018831
-0.17177442628733525
-0.8583409035996148
0.35140837478313314
1.020956700028599
2.317521668687917
-0.6701620034345104
-0.3518282054702144
1.0314080520016635
0.5049376147590777
-0.5366231971833276
0.05884651951133665
-0.6000405515819632
0.7880875043689382
-1.2750595773814324
0.44717041980853417
-0.4642603110598493
-0.8099642057237201
0.13100843849663715
0.5050255674284819
0.14357980052394548
-0.337186350580165
2.311358947422101
0.8419163742005954
0.8366498318683452
-0.1862966915897698
0.2809671376627654
0.47575931487809753
-1.0883681371193679
1.4299619378617983
-0.19284724001023668
-0.8200956512759774
1.7300962723787034
0.8428836861683858
0.8201341302790461
-0.114041367009133
-0.34555238502315905
-1.0216241343626926
1.694745734870488
1.5640881585839206
0.7768116240827381
-1.044739227076925
-0.13654786503228794
-0.6366419504172585
-0.30655695707555614
-0.4154586003377181
0.3757779241363868
1.5613438616819393
-2.2101101248097508
0.2910314796548118
-0.7602592996910899
-1.374173199015461
0.7612692925038681
-1.1280544808615978
0.23857392527671967
-0.4932082556651757
-1.3295642391561526
-0.34731714018239557
-0.35632571183247275
-0.0581201308884555
-1.0619999528187505
1.558131979733182
0.14277162033955526
0.31435889751276996
1.2912101121463717
-0.6070093983737368
-2.558579532470554
-0.1835927970611287
0.34139013101912946
1.4323904654138726
-0.25813499042864513
-0.09115875992193037
-0.803579191300638
0.8177672589031091
0.2835298498161374
0.24044812865699752
-0.024190237017576218
1.1444781283407315
1.014102591082011
0.43942928863209896
-1.5558099076473555
1.3869369874427113
-0.32173693893564664
0.2757799498839863
-0.8556723552853799
1.1686327791296864
0.2935957822476499
-1.3608277433781508
-0.17310021695094407
-2.278544076475288
1.2619732298078323
-0.558213032077508
1.0628550379615853
-0.3046630697945991
0.7854376268905209
-0.4935980491336826
0.8498283871894812
0.2045826457185011
0.8777952545162726
-2.025096200717679
-0.2721145046838222
0.8398328799672763
0.845153420891782
-1.1157678956747799
1.1706822163932271
1.8457517061831248
1.2908822674402889
0.49343878343890085
-1.2177023988511388
0.4361628708822673
0.08106085170741645
0.09912202874759589
1.4878930790082816
-1.8948087799898778
0.5748581793483718
-0.5825073343598135
-1.5290414375064727
-0.1472671918452105
0.8328721299456687
-1.4735818419148698
-0.9326905365237964
1.121248314864348
0.06555010644226171
1.4428998477981965
-0.7706776612748928
-0.6019852104578371
-1.8283677988203983
-0.2244606824874615
0.47495122686033747
1.4246453281561953
-1.1360290787536562
-1.443732628934393
-0.7868998523670045
-0.06099301884534369
0.9854404883471531
-0.03978858092808898
0.8666382491462131
0.45568816364486076
-0.47387560210956897
-1.57869340314726
-1.4407473035691056
-0.3375022804785006
-0.8719667644823702
0.01827232685669622
-0.1448245227941802
0.07708245249360193
0.2775859142496143
0.41625923718270835
-0.6993214573912729
0.21683370666939908
-0.24986209146643446
0.12070173566696693
0.36297709022608854
-1.232558076361169
1.6576790547278142
0.6910312690295927
-1.1073620942875924
1.957985501386264
-1.0125146894519903
-0.6249968268550763
1.1441467235515592
-0.32667739643953897
0.3240626547871334
-0.6725683538543242
1.7709042700253552
-0.33943989671456165
-0.49728482111078254
0.19061173164717768
1.499459031023619
-1.1250801139761752
-0.002026675217223668
0.5224446993347148
-1.065759340435532
0.08872170372281368
1.6526049074637519
-2.196069423301102
-0.7094617479673944
0.9606489694452908
1.122824714232001
-0.17949822864508977
-0.38217879751189776
0.4625338328508371
-0.8519693899135538
-1.5786938619883903
0.3901284278906439
0.5793908726737899
-0.854447516807927
-0.7225037148295522
0.41421680648241244
-0.31387096993114144
1.6695076569873788
-0.08092990272161402
-1.160531514208049
0.6083670751121434
-1.3240359012332594
0.44579011698137805
1.0045416893981824
-2.057203140629974
0.47592517966010756
0.10792024531514299
0.7114149253979212
0.4690731950896184
-0.367001681811213
-0.6377173237775422
0.7287579997523196
-0.6680298869498015
-0.682738602462502
-0.37667963916604164
-0.24405601893278892
-0.46216580294973847
0.9877058535844138
-0.25263090924036313
1.596644416806595
0.5814650444915787
1.253799862722573
0.5294950873950776
-0.18695787618730844
0.5871070061863397
0.6855977842261384
-0.1372948156185321
1.7120258962560664
-0.0030611668421258098
0.4903834037868105
-0.10146625275764884
-1.9046221996910748
0.48459382910791743
0.8168494121225417
0.6809599772130092
2.7037336812789534
-0.2812735450029526
-1.0242634864000666
0.4695021313035155
0.19573448615902336
0.2717847823639048
-0.3408814036746552
0.6646278767467217
1.0447814963109359
0.2824169806544763
0.7443428285877218
-1.4575390239725547
1.0405529704652046
1.2314450183097234
0.0358947715323937
0.4934366712996206
1.0582649555629573
-0.3156289512211562
0.3029097481653399
0.43870911076583247
0.3418086623462571
0.3228236872715047
0.36222902794884915
-0.4722321482066078
1.4645840587276928
0.09872505751298925
0.6888234757149372
0.02401970536697798
0.3100727558621993
1.5213715435377386
-1.079675661229865
1.279025649979564
-0.8028610723316182
0.1340560993861873
-1.4364121891723847
-0.260792547252495
1.7807433094260412
0.4060816996608001
0.9048852869729247
-0.47521978840323015
2.5679795936837277
-1.233517207564455
0.5864541070393755
0.5532586636606828
-0.04483172010206621
0.10065661721674868
0.060785784166051064
-2.155805371840786
-0.9569389696141508
-1.6125777884915007
-1.0603734415008417
-1.0517195007144862
-0.5842524885403719
0.2840934497909273
-0.10159656010836052
0.979200791321743
-1.271642985539826
-1.4753332742368706
-0.30450986809622665
0.5238290155086325
0.64551054653386
-0.8137644568591214
0.27537801974847487
-0.4191489693756332
-0.09572483310335009
-1.4503621384967667
0.8957866474981377
-1.2545335457988844
-2.5009015840342945
-0.4494330100899553
-1.2471982795407857
0.05008273287070943
1.2692444973025656
-0.6082739842408855
0.08380535227935805
-0.3761621399154303
0.9391317853138338
1.80671158644985
0.6570846873448514
-0.8990252609523824
0.19994384570720322
1.638801426034908
-0.23292510114830195
0.17702878774092104
2.058376528307544
-0.2005239680975897
-0.8140495769851827
-0.8669154699112357
0.22159828129162615
-0.3506208141736116
1.8553645818630669
-0.37491436879706486
-0.49165984803766005
0.6518912260118676
0.18202609866309447
0.08992885613717658
-0.8789675969819903
-0.9736843069116927
1.2422028995276007
-0.43931765312155585
-0.4072584272071282
-1.9266116405996736
1.966915387636564
1.801214298288218
0.5168326648457648
-1.6105798184251081
1.4899626926137195
1.3522115160121213
0.5088605617124423
-0.6137896221260848
0.9460414941087546
0.7501244547995842
0.39665645610106914
-0.7951250690974888
-0.534881463688754
-0.19190386371166965
-0.8732214370606335
-0.617043363280311
-0.30186729256264166
-0.22834391038163712
-0.056822781065459786
0.9924212532705564
0.5832195302906853
-0.2442318285463727
-0.1447002672923382
0.5669457222284986
2.137896221467198
1.0710422248687301
0.8805145829167587
0.18971755740973356
-0.8050793211867834
-0.2745015514878357
1.1700556120100867
-0.5977370414499873
1.3885739449630963
0.5118731393481266
-1.860272975121596
-0.0036761064543192586
-0.0340731041087314
-0.919743151082579
-0.7973324663268869
-0.13517682998426728
2.0074430808996424
0.8964179998167686
0.3312971450344949
0.5349819966914336
0.7462930354745994
0.406365254729396
1.0514799799027776
-0.35973860097179905
0.5898753776407932
-1.1765240469405893
-0.7329418173904517
0.17018940635152058
-0.468347923121723
0.259899668933919
0.9233587019005632
-0.44016393181105434
0.7473033859771773
0.3207207348109337
-0.5960543936959691
-0.6792284249778006
0.33847485396827837
-0.3876010136214164
-1.6524333701554383
-0.4287928142128176
0.34220933272980264
0.617639457926159
0.8415455579379597
-3.2196434426862566
-0.9803891169182312
-1.0728126068538437
-0.10206048138993731
1.8290610342461224
0.36429637040200685
0.32549712122576796
-1.0390040548014876
-0.19548783749547077
-0.26267036534945104
0.09740213403164988
-0.8369725704829389
-0.32775730070178016
0.644919718928593
0.15599082278098447
1.0091013382704255
-0.6488361831223917
0.3346879525235747
0.12446720287220188
0.4694817903132837
0.2934841517775714
1.3818033057541255
1.5384530442436581
-0.09745333322213744
-0.7804360226435155
0.05016818928929749
0.15428825553982467
-0.5923628617944623
-0.5640521417317779
-0.9645604207278312
-1.7677605490494528
0.7573777109073457
1.0067363567766243
1.1898438009370371
-1.331630605376029
-0.08020659735287615
-1.2811125049657897
0.3582131713470275
-0.8938382832670735
-0.7653989109940892
0.9979323409978677
-1.8792270950018302
2.178196387077293
1.2525063387359325
1.4525287370938036
-0.003329583264594133
-0.9370210905320802
1.1162035400579902
0.7685679433612653
-0.6048125042158574
0.11091884592130737
-1.101928202037122
-1.7179855813351812
-1.025341162877852
0.4893297732274456
-0.5228622131777089
0.44878045074687006
-0.32692512421593733
-0.7352255525548519
1.116428237431983
0.9314833982311431
0.5089794891939833
0.7615443981982587
-1.740533433268704
-0.031452607946695695
-0.582681749287628
1.615313799117485
-0.5833584714598171
-0.9093044768786813
-0.30930251351646576
1.0789487091283407
-0.04031605509979103
1.0843363658891452
-0.2814888736094433
-0.5190172088423506
1.8323732533454706
-0.5516834057730815
-1.380693753404631
-0.4593031192428538
-0.9905655871091925
-0.08162598912068812
-1.0706535254132807
1.4139441165331135
0.8319090702770949
-1.8355263174617975
-0.3192680233260601
0.9391227237292971
-1.6887841373915005
0.4420168817404242
0.3329519896820002
-2.3064860068817756
1.0309343193976788
-0.1306613251468348
-0.17863469367006313
-0.15856208624744159
0.812637539592817
-1.2499338935663538
0.8937986828729134
0.03338849733457025
2.9539233894454293
1.083563693917538
-0.9981073424104637
0.3030088608933902
-0.9172840115926504
1.156219739571805
-1.9586540614567545
-0.2327250489946028
-0.3961455147444879
-1.2723202606086002
0.7358158903992975
0.25759385411459035
0.7086698961089469
0.447421348451669
-0.12139265465345644
1.4360816187269536
1.4770953267949762
0.9960374449667917
-0.486940128730857
0.6837759184406523
1.2310841845281086
-0.07647994759474032
0.6670605479482917
1.0274435287793404
-0.06773614247543687
1.948946221011296
-0.7618050601795657
0.3671416536372632
1.0248719742545398
1.7005728915310732
-0.7753387446967965
1.0941232923344515
-1.165941284717542
0.7558331027244389
-1.6892836770703465
2.054103848991257
0.06497106070535906
-0.0805930396352197
0.1219386898198396
0.21308517873821523
-0.7212329140790749
-0.5399284705825103
0.5534853822953055
-2.5645467927778527
0.6955750963230122
0.1995367318238259
0.4117931278177029
0.9260398011154783
0.5316654930620576
0.46894953735030753
0.09770102217202974
0.22053638733916095
0.8336888157298247
0.7084676149501441
0.8233293619229989
-0.6430321883109534
-0.918657075317611
0.4832724909217955
0.0832309003840672
-0.7380597722817789
-0.2748570101198001
2.2308817969472865
0.8415805852606669
-0.21579929021680144
-1.8927100626417321
-0.9783776955287181
-1.2057319888132247
-0.021987168537276527
-1.6016625221334815
-0.5088399139400664
0.962243181824547
0.9670503326757955
0.6145712438472412
-0.12153025805263055
-0.7160252271172047
2.3704744926692727
-0.12994766465130844
1.5181751943461037
-1.5656143380330039
-0.898757453954727
-0.16250681305584547
-1.6174644278571142
0.023204914656547844
1.615241934656081
-0.9809658106346979
-1.5214114111040435
2.50869206000695
0.22614919040921302
-0.3577973950738976
0.07537224233805787
-1.3282122963707228
-1.4745378541779197
-0.6033739836302261
0.387522800061317
1.177687375834058
0.2284039361011704
-1.2735964217336062
0.48376788862631154
1.431174646952884
-0.38079710819811036
-0.6561484391564266
-0.3408880755160791
1.84144908161124
0.3055310808289929
-1.5961243874121134
-0.40795158779892277
0.2764383205669291
-0.76293432946861
0.6010753022159675
-0.693677665517248
1.3487959909778608
-0.7386637232135094
-1.2124958008156328
0.9440034624651641
-1.4375696581971396
-0.44365503924020816
-1.2527904316019447
0.8581061970665402
1.8227414434222386
0.914982309569776
-0.4962636940651191
-0.3843218856685573
0.8596289546331587
0.8633945810672327
2.8652595994452197
0.16805273718401303
0.08463210086456499
-0.44616795027891565
0.7814992810068631
-1.145701943926243
-0.5108947678979301
0.5479027691502137
-0.5208140115387774
-0.2306036729424457
-0.8430741680781635
0.3816678010503244
-1.729013014941085
-0.1810630401925033
-1.2524427051522917
0.8535173532313883
0.8730391967570602
-1.2372125454678715
-0.7254673136897529
-0.6270636223542738
-1.4996849753995969
-1.0684821658530936
0.3253993294624602
0.40541240141906243
0.7939933297443805
1.5332333577794195
1.0292710045888158
1.5667322472212726
0.3567325359859973
-0.07804928761978656
0.10696748504746502
0.9821697367111559
0.12998085696417777
0.29355216334979634
-0.5955395306444105
0.4421932249523827
-0.704202368585193
0.14900651338362272
0.6951233994717834
-0.6789841392745632
-0.5250440338512864
-0.9151948410134654
0.8782962475682058
0.4833793129744877
3.439118157593659
-0.9783182251466441
-1.063092530058927
0.3819375134889241
-0.24639997544680267
0.3269077562713552
1.2238376320267939
-0.4952133908979289
1.1928512138038554
-0.738903149611944
0.2860839419310184
1.8163260306886828
-0.28796907697695723
-0.4558625468327459
-0.22748282309390058
-0.6125918303602924
-0.8753078084209721
0.17670275260947088
1.6983007750478427
0.7806595994938123
1.982118053220827
0.407071525666545
-0.13489995345039796
-0.9678310270890358
-1.0876486439417403
-0.2538289082357017
-1.289122408063114
0.30049106023050337
-2.9798931402272153
1.5443318612480172
0.5026972142781488
1.8132831123894195
0.0056368122164038225
0.4584911285976013
-0.6845464478350755
-1.5281047911185162
0.5810667549115319
0.2846036991725044
0.7421641526465699
-0.4460851858047322
-0.4162051388803101
0.24878252282913785
-0.5759152348586742
0.7366172119253677
-0.11528966966489931
-0.6881113098486785
1.147610643559555
2.260062617706152
2.020563917918819
-0.455207285843359
-0.13600136548818928
-1.177663480356632
0.065692855287677
-1.2193485463357367
-1.1124569880369326
-0.04694094975000909
-0.5104837382457124
1.479285260802283
-1.3054018876225444
-1.1364933180105525
2.053894700524505
1.5205528985613166
0.5084015466276198
0.2047075295585071
0.4983674199712631
-0.5983184322268013
-0.8065078872543968
2.3338858323763136
1.4277758962359282
0.7174641564008437
-0.91990354593998
1.2824958455313655
1.214263848459502
-0.28992999784336476
-1.0031311469287862
0.7817534795073928
-0.3246631001034696
-1.5698968722926043
-0.037718827604548075
-2.158672399589767
0.14912907461805663
-0.2047555412894947
-0.24974327393620827
1.0809988178299073
-0.4836515601496373
0.5431515912690728
-1.279549247184626
0.028511174052055523
-2.989237259113962
0.40359245555726314
0.3573650690014862
-0.3345199940399434
1.5223512515502822
0.6373495481076586
-0.3509940067002045
-1.3067921927808008
-2.4782962356277882
1.1905104142233756
0.3715848692936853
-1.1398114572582405
0.02900296344185395
-0.262311248471532
0.014096257734736684
0.2003657369861843
1.5695277922684239
-1.0886921194863493
-0.02470265438308297
0.9248496160939467
-0.08440955391286548
0.08992132085094715
-0.18093472213427517
0.5721393502487766
-0.3340033586513397
0.801912281084802
-0.8025958733716242
-0.5828235283717279
0.003256422925759924
0.6524843364746192
1.9536313538784693
-0.9958665261187714
1.260271436021091
-1.676977511446591
-1.130303310154853
-1.5019115812963348
1.5467121123883338
1.82414298146207
1.3590395711302978
-0.3786125585978941
0.49063492940837106
-1.2351320173814306
0.2542693522237255
-0.33177762125334503
-0.9647149854388515
-2.02036836805401
-0.7046795887236948
1.9400487387602734
-1.057190001383645
-1.7044251715799434
0.9708601660531141
-0.47310223246443367
0.734012509434171
0.7323288204440715
-0.17940583365735177
0.48238255070169866
-1.0043161542428476
0.5909238689140599
0.1762947897631986
-1.116126070921556
-0.518428912350092
-0.7274482439223724
0.07679328257369286
0.26013411701664635
0.6800945221516685
0.41518726311950926
0.673200202376161
-0.8886066095793829
-0.8296681206160578
-0.2957265032541787
-0.002239627754972096
1.2702753307754167
0.6454040202968016
-0.3309603496441141
0.20502559237933213
-0.6914565635805127
0.08238454706360096
0.24618130432031016
-0.0026286034017646794
1.0857249654297982
0.8525409403288838
-0.4074416991579347
-0.015372479773064478
0.2314375144613539
0.7079276804928697
-0.3865126182834224
1.1283168125320566
0.020241069191050644
0.4371150427521915
-0.9432672657748152
-0.7250413492488724
1.0499022355924577
0.5407821461956036
0.8923074517527089
-0.4675938415231701
0.9271664020240072
2.1226925063100635
0.37543881166023796
0.2772123232553722
-0.22586906659281478
0.21245977993302573
-0.9011862844054689
-1.3877869532052585
-1.3438988562637748
-0.9187870454744068
-1.8852592827653747
0.41948080355371814
0.7579410520598714
-0.46787423535779127
0.5069545862495038
0.5736627224433674
-0.5576378152156394
1.1449599857803894
-1.3343273611770277
-0.3586631598546348
-0.5019644881003656
0.9978572218254758
1.9232008939521787
0.904442754281727
-0.03542592554999252
-0.05892717156710211
0.04640260880703672
-0.43802630911175433
-0.30317358894083624
2.6914238513090414
-1.3992367195981101
-0.7834650538292253
-0.00614121933265746
-1.3601143303837662
1.9869745506525331
-0.299478636522216
-0.3225719902100852
1.4570035594013595
0.4218492267315016
1.4682298751331884
0.5119726678791818
-1.3512509545243507
-0.9030454206585944
0.4737969155799311
-0.16567917534384508
-0.7621938903101969
0.07272119179221531
0.20122734256075922
0.4574305925114373
0.2815274335165052
-0.07864536590984353
-0.4240911168691294
-0.5846411366787428
2.095561947401927
-0.2636121747723729
1.0832121530140064
0.4314993033711405
-1.7280049041742331
1.9775460369314084
-1.84734442961569
-0.6573461138063932
0.5104907491901727
1.0639170197906445
-0.19949652399343104
-0.4218995915750323
0.0674557092486709
0.5770832296487561
1.6512937024484249
-2.0242049327467475
-2.736809166641204
1.3399301376815391
-1.3121732780701105
-2.2691925773298136
0.18791034716929889
0.6890007128578904
-0.9364806444184103
-0.5628219594522795
0.03676769743442256
-0.692961677928001
0.16373899918142062
0.9253498350702896
1.4888127955103276
-1.0769735107921625
0.4726819404254438
-0.6095915182647159
-0.9504399399503854
-0.4254203475948562
0.21246339447811216
-0.6519609644636611
0.10194886874762803
0.725936785962531
0.6571098074797791
0.7123668961846009
-0.07751038884051951
0.3652722450102554
1.5887703805912943
0.6407804861916435
-0.9913662359236907
1.3070056056393138
-0.12250542874166549
-1.1279685891287587
2.687278166367643
0.44329242488157566
1.6592114591591054
-1.4516747354140327
-0.9252847207015422
1.265393853520011
0.31466657402142634
-1.1253267684007562
-0.509803870754482
-0.6647222917428758
0.23659054923796263
-0.6938459327766212
0.5221291637063952
1.223859604205325
-0.3504126246142563
1.2449352330556074
0.6057671124745334
0.4833505794768057
0.4547364403150751
-1.647664610269523
0.7583601789501755
1.5795243811196762
-0.9709319511213529
1.408718985454208
0.3142690979982208
-0.41120234646076537
2.2210225829550296
0.9534663629088522
-0.6806414383417675
0.5309151661044003
-1.0549341608936045
0.3427134694348883
0.09495886944423859
-1.1332321578464206
0.44471471642914495
1.837221749752633
-0.4731342401281837
0.23414810284589624
0.058090759727027534
-1.1867378368642865
-0.9346902949597807
-1.8921897542178465
-1.3293357365812402
0.7291852016176265
-1.892498433479305
1.783469020678759
-0.5390196046168633
0.4200226246133421
0.9716466780823827
0.2006169608948578
1.0663150542989477
0.3069960924191724
-1.4745062528818802
-0.13510511806567427
1.683926631055778
-0.3726296425719773
0.5924598507570799
2.7071403309922735
-2.7933590490222975
0.7444360229204434
-0.027564820753482835
-0.4724000587117315
1.009167437101227
-3.403508955912008
-0.685793368193976
-0.29342660659612685
1.7910743419108763
-0.08789458591155752
-1.7004749857934758
0.2887032776752161
-0.7075126340313639
-0.7485636683000569
0.9576808275855154
0.17979076035585184
-0.2998635118630751
0.4147561981175281
0.8951116410823651
-1.2790794166267716
-0.28778941141747233
-0.9729847941860138
-3.079290082992394
0.28730848012437066
0.23454548194627065
-0.710573019235227
-0.348641531309794
-0.6707045621720239
0.7270575770968399
-0.3532728091135478
-1.0608770406957497
-0.25771145718159594
-0.07908215735938787
0.8855756692816257
-1.0150987712307127
1.5467145026473235
0.07326939314356501
1.9057454915141596
-1.777098002757361
-0.3867718899915916
0.9475738696867971
-0.30207281163067823
-1.1845209010826774
-1.0014920623787942
-0.1918171797993585
-0.06650822638062913
0.7093121573088632
1.0571725384694581
0.025640124204508626
0.3962345521282257
-0.5412536219428835
-0.8262618953821956
-0.06465448926696889
-0.8934275812259901
-0.009968016703576216
1.0389957191228827
-0.06609889656749153
-1.4352721546494067
1.7046000985011103
2.4862889595290327
0.3498135686913391
0.007862664318525508
-0.17518622443092902
0.44541973658523315
-1.0173379260023987
1.9314470887577577
0.15146681166280843
0.7914086172376689
-0.6611334085722258
0.7173210379754087
-1.595969099719927
-0.2900674770599835
-0.08878788980497015
0.9481817271432598
1.0201810970188812
1.2896272376406035
0.2692007864792322
-0.28491045093508927
0.4438434493605468
0.9609474007416671
0.44000586393442026
-0.7155844491399809
1.8129493714345346
-1.664900392037012
-2.1922244691009487
0.7281006982753495
0.032267005357767956
-0.0843301438843784
0.4495078065018242
0.842764904900372
1.3843761484584636
-1.3017490320665885
0.9655984410333311
-0.5513694347532128
0.4366600506724638
-0.42674504432574967
-1.1227522316618164
0.49010142336236423
2.2808886703234883
-0.613250424586549
1.2427395224481292
-0.06332680466554848
-0.5286845411651475
0.4397427076200345
0.6930908079253516
1.5438206799589214
-0.39488204876631944
1.3116175164389368
-1.308816195313016
-0.14374087677741737
0.0280983329704314
-0.25420060230849084
1.3756175445704726
-0.0763783829468593
-0.5403459527439132
1.0000859099182213
-0.4347152358953626
0.06666048074407438
-0.5996597752033492
-1.3378124186882945
1.0555808354727794
-0.5884708872321546
1.5315508501141206
2.4246863079518945
-1.5357010287805828
0.7412871542249447
2.4061411582009513
-0.755759952688017
0.8076030496572782
-0.819372717298098
-0.16783222802547798
1.4388764996344208
1.189285285581029
0.9813049126515156
0.6270946117006001
0.978070448198631
-0.6606510467934014
1.922915278063014
0.7996123003328225
-0.05894198911827668
-0.2993033452195342
0.17039013944582507
-0.6141512261920329
-0.960351131282869
-0.38657271099710067
-0.8730516172218244
1.252949819094975
-1.7710323193169974
0.5211826390396679
1.0087837879721175
0.01164125795073159
1.282508015490346
-1.3867245855238934
-1.0175756856751503
-1.0652579702046392
-1.8639517043292848
0.76267036094608
0.9236421049625516
-0.15470317450771742
1.3811725224856284
-1.612422960747932
1.28993834006229
0.2189254654256189
1.1647879980605838
0.8356174269043175
1.6800396158424775
-1.3157383433013228
-0.5513104521037164
-1.695472973101298
0.45225824550532834
-0.06773193038885156
-1.4326360359162682
1.0537302177699557
-0.9344335778889904
-1.0996367736893686
-0.18374775355734152
0.9908635290755279
-0.6831459630602399
1.291462123722129
0.9560107679025275
0.07628923518154519
1.071706837120118
-1.849765121141505
-0.6109604534109705
-1.1740731676985574
0.19016935281960828
2.010879637742789
1.213562028254142
2.0422545169423607
-0.1711731303838637
-0.04537626052140967
1.1788114182877212
1.0594882078567884
0.4667668886711415
0.0283712725404413
-1.3808990596227768
-0.29544617561200154
-1.1570695576241292
1.6554819708356525
-0.7949026266893765
0.5647797287525725
1.8221772771676772
-1.3347608905791728
0.711032009829189
-0.5667041170935785
-0.5599105885267346
0.5182026235483442
0.536251501670313
-1.0641990013583407
0.7174246099974633
0.2298757501322889
1.375454776177516
1.2267943306689073
-0.15065574301590168
0.27733479126960753
-0.42712367330342504
0.43395325263919915
-0.1338957575973206
0.5415342109026672
1.122867141708885
-0.04616225226256835
0.7973531426161526
-1.596901956771712
0.4115126350328537
-0.33895923318187565
1.0404638912945416
0.14141052170554466
1.2390229384822853
-0.06402135321269378
-0.21541749016677325
0.0677440009084719
1.3218521130645573
0.03464111182490582
-1.6333884056805403
1.125606088856335
0.3053231850061262
-0.2773340849898948
0.35533013441696526
1.3190731081312088
0.18022151638094244
-0.8334373592896249
-0.20583425604016603
-1.1120963739224963
-2.002688634366663
-0.2172337568428849
-0.34614966993725427
1.5236786545262184
0.3336050757710233
0.6308043922252211
0.13318834323626833
-1.0076860247542052
0.304895594936825
-1.476309134339626
-0.9111619203347083
-0.9220875222477241
-0.983230622329801
-1.270766136609961
-0.7756468397073198
0.0006726807294620248
0.23006585330495383
0.7221460130809518
0.09949796212815958
-0.08057303527321344
-0.8397586312159553
0.1977219233994774
-1.3138612093557056
1.2116181348181714
-0.9304332958493936
0.521725422502136
0.3427698545650835
1.4831218928634744
-0.0251804565674872
2.013106791247674
0.03241842915734616
0.9241407569555858
0.5529702555813089
-0.5075634190762623
-1.4785880099689444
0.564494647574633
0.2382972673443522
-2.023338516674555
0.5687290182340132
-2.279752607646207
0.4310157378560586
-0.9643722757353839
1.059112894268718
-0.06702483204716907
2.0300087527556943
1.8446269682352057
0.5950161911576352
1.2569236571463749
-0.779083099155571
-0.4773775120861308
0.5974013187892303
0.9905236616357216
1.9504192763968877
0.9615699490944901
0.16644318619010648
-0.08367499885791213
-0.7046345030009897
0.8117541438686422
-0.8909406972617331
-1.0158835552209708
0.6077605402420317
1.290013076220149
-0.25489054917675263
2.260726304599204
-1.233081667414228
1.334656126837431
0.3586634591582057
0.3903198314094368
0.9554710818316973
-0.1683534420075454
0.9793630632803713
0.11114112533403146
-1.055866776667975
-1.7062970465215959
-1.5631327198918732
-0.6324262337268407
0.41538332103600223
-0.21110101051121472
0.14120347921186044
-0.6399893573452465
-0.9259451533342766
-0.43765153448107347
0.17760402763563518
0.7672509279778517
1.3956149441493695
2.029470344499101
-0.42576014902365233
-0.16169059966031704
-1.2743326998830604
-0.22281290663027314
-0.5762329624248969
-1.1488749488953807
-1.619190774866228
0.21547729063788412
-0.385429220199932
-0.01362804324712014
-1.2712964979171149
-1.3566202212572358
-0.510958374190916
-0.5375781350586086
2.0480046363194853
-0.13746214636604262
1.1370522291541982
-0.11084978749792197
0.5329517749230698
0.3101279897599623
0.20548877755091735
-0.9954345184381782
-0.2574912274891218
-0.695521571132458
-0.24456748828955802
-2.008830392490136
1.0619414360468573
-0.314365600786126
1.4797152660894266
-0.5672090903936009
0.29460419185250714
0.6508786251883506
1.894688281350816
0.5019462498944506
1.0096931442810968
-0.09294701249630752
0.8327864358039109
0.25718956705412105
0.14989274130963146
0.9908896973739953
1.245537220875292
-1.1695524096311791
-0.49757996368850477
0.801794499866651
-0.15087888601538182
0.7407563268779853
-0.7880872131305241
-0.20427515889178352
-0.47829765538317043
0.24959852614984165
-1.575583163311962
-1.182809619869971
1.2813015946644464
0.8031925748475707
1.1741408850750064
0.9010170944498382
-0.7724468504622151
-0.36329023215421596
0.14648254552044426
0.5879542540682672
-1.8202078591269781
1.197819209230693
-1.2304603290325462
-1.104278620562167
-1.2763596586619739
-1.0632744715028826
0.5858247893460172
-1.9555963391590325
0.7908405607677381
-1.0087937833816367
-0.5967604860451361
-0.5513707020978026
0.6001430751028033
0.7790315018090495
-0.9637324007412693
-1.3925974019118057
0.4157508484004495
-1.398688508686286
-0.4056726507681805
0.480650356955184
0.2070545328335126
-0.3875195708989272
0.39172044451506455
2.3438065675488238
0.10275551138291618
-0.7268681819202072
1.3773800715971452
-0.28386059285494564
-1.593791832729158
1.4548464832603778
0.5939307867779371
-1.6411039473684192
0.7452921650089781
0.10374362283606968
-0.16944278738943158
0.11643965736765352
-0.1845030274561409
-0.08645345906198149
-0.14003957189079802
1.5525002849617537
0.17582393902685073
0.20868588218202883
0.395260685362396
0.5468893104832033
-2.034857167065013
0.04653980977202304
-1.6645291979671484
-0.501089780768917
-0.7589543542116614
1.2950983055133571
-0.26364611257561904
1.883920010563031
-0.2743112171033423
-1.0032229600304539
0.44182260011696295
0.40067828893579005
0.4689780426043534
1.2626927730950308
0.6194756558749345
-1.4109616886385645
-0.6077437271509093
0.21065472309422198
-0.2954330761000392
0.567181199784023
-0.7586655721924567
1.0692410608996157
2.780500470366137
-0.36768434048024345
-0.9876990907251907
0.032234021686703765
0.11323170676508287
-0.8594743051466663
0.47064733058505176
-1.4092188023232586
0.4219175572232522
0.17817248350401918
-0.43065173746458696
0.6734653337977474
0.31769895895287537
-0.48275508647447
1.6856039611247766
-0.5548611900806686
-0.9076120967611268
0.47534779038129366
0.6729130820894597
-2.4645432713882047
-2.477148870890974
0.7092638645748506
-0.4747719117750333
0.0515631270258638
-0.8656303108488369
2.564131289573437
-0.03990191885859264
-0.9683057583710488
1.4435440851422008
-0.5310668702005504
-1.271903215862339
-0.9398651162010601
-0.15522020216529245
-0.9313808834015611
1.5041761315474234
0.3489621150265941
1.4606402311762654
-0.6993407212960047
0.35471873255282577
-1.9300436078730963
-0.5638997569832158
-1.0246680419860899
0.6446653955242972
-0.23809591099479147
0.2943990176957685
1.4904082479936456
-0.5071417885337006
-0.8812077243918063
-0.8443922033466674
-0.4667769728165984
0.7127074841647272
0.22904640352585223
1.1367052961852853
1.8045183386524097
-0.38646467146345403
1.6499682918378031
-0.3801622395664191
-1.634367167190372
0.26321936292359027
0.08392620120723088
1.6133084850492152
-1.2939609351784953
-1.1363296215652932
-0.1017423364223439
3.075699829168766
-0.047654078221517016
-1.707925362921707
-0.9748292328607647
1.1611645080313793
0.9570371303658031
-0.35784147762982305
-0.16755160347117193
0.6310954381429285
0.8939018484536415
0.38772068897591094
-0.266941601760649
-0.5016701022684511
0.278151697475488
0.08347629983377858
0.32591064952990295
0.7399496996761034
0.39368916132511533
-0.0010655394086129689
0.9825511482932591
0.9917279170748795
0.9192830833059487
0.08444039361328451
-1.5098621365571787
-0.3895538416659573
-1.3797917989968056
1.2317788375077787
-1.1098687331215185
0.46952273856606136
1.217749946057408
0.6967734649353079
1.3385114535078475
0.486424087604668
-0.14418937460678927
0.1768086759963805
1.3336310073571613
0.7605128394374788
0.7761805709938178
0.19856784675101383
-0.2858907242963106
0.43179014688125844
0.2929201940449148
0.14287557391887112
-0.4787246836313898
-0.015043445619856688
-0.31666561613408684
-0.4382229925704442
-0.9348073480613276
-1.9207279522343688
0.1320092026087944
0.5268783289998588
0.8514951299154108
1.1712682286399236
0.14862209303186458
0.26097237816946073
1.355062362097203
0.3093337852483748
-0.024398362679734772
-0.30101300772931133
2.0193808335983583
0.5060045553927546
1.4782926038635704
0.19976870251522796
0.09539057830438162
-0.47754981101394445
-0.4686311712489419
-1.3465632802622978
0.26965031992373556
-1.2122348121748165
-0.6928668905629253
-1.5519102342513686
-0.9928954112738284
0.8553443803843681
-0.7949206020230022
-1.3133610643156695
0.4977752411696154
1.9617303623642215
0.9700416422597955
-0.37270840368429087
-0.7048519292432351
1.49878429850684
1.132442810219129
1.3334115825077613
2.0239473991594292
0.22448470657208067
1.005521433413952
-0.44619889351297654
-0.2920764151716243
-1.6174760989725185
-0.22194454110568568
-1.8918042306223013
-1.1942169246286203
0.9374123666386134
-1.0864918857003878
0.4897481141089294
-0.404441134950294
-0.8544651789826526
0.9800666806708015
0.200360368336721
-0.17031509941377904
0.687625820896556
0.8203863005598753
0.4617375656771984
-1.1283308281017284
1.2748060200599811
-0.21647450579682062
-0.40850596190226224
1.7192052585447557
1.3089679904812235
-1.0861125741239204
-0.6306250589877017
0.24678659461622107
1.451954990174364
0.3622849228054761
1.9203560238632018
-0.019342360517986074
-0.6998029667250693
-0.4116672843206645
-1.4380503393690867
0.4755089980490207
0.6044325684982266
-1.4220444533196008
0.6754559197330777
-1.071403354192229
-0.9635369491490857
-0.0986717910764507
0.3714824411830592
0.9405934836654815
1.4549782753440463
-0.23120095240304714
-1.0688588247189938
0.3190145388906031
0.19017336968414658
-0.617883786321693
-0.393412685337694
-1.0908694797096803
-1.6045018693062616
-0.09920327522760078
-0.5789071728508874
-1.1371927351022397
0.40871300350678463
0.6341603613122632
0.5738061558082386
-1.1847701723280666
-1.510297043036528
-1.7095203785237065
0.981396486776911
-0.569018833328034
1.3198919353379186
1.4231587486263997
0.4396307678866611
-2.243179257245317
-0.11823594343616449
0.019198917171287036
0.30289832051920745
1.362581063618898
0.6965336514313035
-1.0302541674302268
1.1608438829902639
-0.5448992019465504
-0.7509360155560154
-1.1306886301623738
0.5303448073178681
-1.4322884296633747
0.6860564890608964
0.3767105321152337
-0.013919830562432664
-0.2085262345562409
-0.37490914411770426
-0.6582033499070417
0.027304492507573858
-1.3375361431214778
-1.164948681514987
0.6011312669114675
0.8190553584446061
-0.24728861076104866
0.7671990671525653
-1.516694838527748
-0.6611114169320378
-0.4764840773078063
-0.744612324196493
-1.9528118328068538
0.15005285559987938
0.4445890882629809
0.6756953574938042
-0.786056763024451
0.13071265043319205
-1.2475864814181674
-2.0412652999939698
-0.21370542272930962
-0.23239302839590545
-0.850203395687623
0.462731941779223
0.26586148317408737
-0.7419188774907216
0.02980290856724625
0.3208163159803754
-1.156209181537951
0.47789419707838465
-1.1971097907784214
1.9537171312920345
-0.6495693108232579
0.07491405524791366
2.9718638354479845
-0.4909023855399075
-0.17511828791881254
-0.6635434268829498
0.42661417579288485
-0.1836290926905171
0.5632949204873978
0.948303934903846
-0.7276408736022543
1.2245920732079782
-1.5828678866956185
0.36866533902156257
0.8022819286332316
-0.8997120027621229
-0.5165708668256105
1.426784595467838
-0.3714345946941038
-0.19653186429734315
-0.029412718377389416
0.6652648532597354
-0.35421218592070836
-0.40658194106812223
-1.4112845532906375
2.936537913537322
0.9467232866524208
-1.641301620874335
-0.14672858621001653
0.08029321588742018
0.12629652105232103
-1.8931373487536363
0.578696205219025
-2.040348646929229
0.2540522318050437
-0.4301043862752944
-0.2594457370866233
0.0720884280790886
-1.103820662100905
1.870366246387665
0.6925279999001152
-1.1078391040619677
-0.04661493164704523
-0.9668984276982047
1.4512224741375856
0.007049579321997133
0.6663233522002159
0.30883301688200265
-0.36631321945680956
0.7304061975706398
-0.0038524948059524638
-1.2087863620309869
-0.13525726402657515
1.072832474276991
1.7078866203269767
0.075848156291301
1.1715461719071019
1.0207514223478193
-1.8455990707430467
0.624722734505395
0.9139681857289002
-0.8212452954603501
0.405634329359263
-0.45433281340159765
-1.1082958221108254
-0.7035219916062829
0.30279151533555215
0.5772729238699781
1.9508667390581085
-0.46576042881186663
0.5860723178917668
2.680417877064357
0.2156541517240585
0.23190391075818878
-1.0404667033419672
1.169287449912982
0.2230243189462118
-0.654886436377717
-0.17329232915295595
-0.7297471258291118
0.7807227430824524
-0.5403608367321272
0.47423325191356486
-0.028628835788910328
-2.0907758532379
1.910603848251706
-0.38029891982554076
-1.5178603094874201
0.3993934778367231
1.1839485441796265
1.5695790654236987
0.7674948254680461
-0.9011441946465963
-0.3539740866462665
-0.36945461005669117
-2.0046956731127645
0.775931543302572
-1.3030759107227419
-0.7637534755176724
-1.3315375423701625
0.25767532400640836
0.9515656628018486
-1.290249017446912
1.2383242170605775
-0.7165400313977647
0.577047159152288
-0.7835601385846895
0.2399456888433563
-0.33638788027115396
0.9486558778214444
0.2560862188899103
0.6315665335214131
-0.3341368761847118
0.08443422690961223
-0.2518169147342242
-0.9493483419443215
-0.6764796649411845
-0.5371994709356948
-1.2912306960599058
-1.075638718219756
0.05218457935652531
1.0956309167511917
1.0892790046176832
0.14457660051286236
-0.6923143784656386
-0.9649761434931529
0.9355615306465822
0.06499577445037649
-2.544483301805217
1.526071574554382
-0.6722845664452236
-1.8699068913383137
-0.5139535935399143
0.7492533029696078
0.5417026437486857
0.2623051507479711
0.364420880626828
0.021330427172272015
1.269752777485285
-0.30727327457151793
-0.590998442257747
-1.4529282739091318
-0.39141820183600784
1.612273062492896
0.718418468646881
-0.9501536394236131
0.28072254814477765
-0.4363017432771542
-0.9062937901674162
-0.7053268117399086
-0.20319352280650382
-0.5743963850681356
0.7318376401374029
-2.1236655899110097
-0.9789035802147913
0.013863897169335223
1.8410180202701232
1.422178450343704
0.6117825281508057
-0.7523825411399696
-1.039258061505381
-0.5990040185654331
0.9465360787532037
1.8801447738680777
1.238016715470973
-0.11893003922479513
-0.8763258312776633
-0.6936699868037934
0.43178349888102313
-1.140843136562251
-0.3711907458260882
0.4044003946078185
-0.5201597443527454
1.9599489364701665
0.2921178210671007
1.999594411401892
-0.38630294336513743
0.9221436126656987
-0.37739000152691665
-0.7726367378572381
-0.5069467723095444
0.6428296000016744
0.39867357408910686
0.09654830383827
0.6250449021730358
0.08888393210367582
0.37274484540346653
0.6796240543469529
-0.6707049786423533
-1.0496169065512946
-1.6515805958648402
-0.7881282668484215
-0.21951478211590605
-0.7301455919930467
-1.2116013047158682
1.341493854016855
0.16560382813894933
1.0120704660438316
1.3437910250084024
-1.484071785124863
-0.7145361562300625
0.07206594758185268
-1.219302892896765
-1.3048898842466872
1.2904704408117802
-1.437162671489442
-0.7513079903927458
-0.2020437499219768
0.2833378338990514
0.790318907421172
0.13860770326517172
1.134402839622981
-1.07834664310675
-0.6857391118094607
2.175086833929488
2.0396782372864113
1.0056626151767525
-1.4584669719844023
-0.12511560049943474
1.085594378857386
0.289806261547089
0.023118184624375634
1.4088605318978717
0.4107132152660105
-0.1529601436952338
-0.26053673306111064
-0.048979861127816965
-0.1588415011316671
0.057472267042811324
0.034247643946186686
0.8691899334293647
0.5887518229208234
0.7332278653619572
-0.24910945222822836
-2.862104621029132
1.1347362288109835
1.0766382470239013
-1.2807701362975272
-0.6621808586054664
-0.2757380716132745
2.1000982076412207
0.845081055255389
0.15356019164620727
0.32673117062997137
0.020635546160257052
2.659927966907935
-0.0030798223771411758
0.2827587731189304
1.4557874351555544
-1.0496486018516293
-0.8633424304041463
-0.7014980959612456
-0.2721403273508645
0.6436252662585628
0.41769833381157456
0.7908804804728198
1.3380053164192005
-0.5379060575880135
0.39569208797052
2.045253223448328
-1.3178074421641366
0.6341865213091267
0.6480769854054562
-1.275576903107446
