-1.2215994578956024
-1.1177385448647326
0.345835781145268
0.2804826080936346
-0.10768247116002204
0.9103774956545048
-0.4598306613248149
-0.14547209237202954
0.8921028388272774
-2.088686606965751
1.7011521358401471
0.752929107403623
0.7543484419696054
-0.5721372237831913
0.24082386671068065
-1.0019127992657622
-0.292794730911569
-2.634030400448263
-0.9824004569266066
-1.174504103098926
-1.0471757139734663
0.7379168112471436
1.0520691039622252
0.7417643953662773
-1.081836769455305
-1.1178595215830909
-0.05304742893364111
-0.33207765486605795
-2.0963236561465757
0.7228403878173731
-0.9195914661900412
0.019199914303473526
-0.2902733455305972
-0.010483637939037295
1.1371092730703338
0.4113634182477976
-2.1272267617131533
-0.1468264410207703
-0.18146525434964075
-0.621764323743118
-1.3417684313723952
-1.208632446335743
-0.32476270608564806
-0.732547625648045
-1.0687686624415302
0.5473776717775116
-0.8598381887622436
0.6577425653104232
-1.7878289631361073
0.9412289501484441
-0.9740244738546883
-0.6573298602513481
-0.23389760202681728
-0.9344962471061408
0.06702227873204068
0.5589757505105422
-0.8010854329466611
0.26418015298243586
-0.12535829105744278
0.23999198080801806
2.1095576931306668
1.5781382796545027
-1.2150779568231398
0.6082676492164248
0.32197894286147266
0.38283008342479574
0.023765181347894574
-1.0474971032354252
-0.23685965599144054
-0.912430033154024
-0.8394633050380141
-0.20670575246570336
-0.19549793898516615
1.3166189706694114
1.5638758574392122
0.6256545816718821
-0.9598123901339851
-0.5836322815499809
-0.4174811187429699
1.8095489128676565
0.7068300635681699
-0.0746225820766515
0.36002548076071533
-0.4953883598862776
1.6955173318305532
2.115429753463442
-1.992261146353696
-0.06811389013613353
-1.93142457626464
-0.7055309998720839
0.3413691469770173
-1.21214462020867
0.663662341060544
-0.4742894620016586
0.7346535332727661
-0.06034899030390962
0.6766848544551815
0.817802730589663
0.4769879952179678
-0.6540880425473534
-1.0528868577189592
1.7324190658999126
-0.11066828174002877
-0.8628433912026798
-0.8861568016861001
-0.13901164379385925
-0.885841683350472
0.28018082848284515
-1.2429810865314954
2.452216376003982
1.241222588235244
0.22328723603294717
-0.260148773413828
0.6365622073946196
1.9313021559109889
-0.4677491912244297
1.5853613326622897
0.9008987915233814
0.32304341483929827
-0.6810851521288223
0.9954741023018163
0.022930222049254743
-1.6393409390041533
-0.9041665118500631
-0.3653395414999617
-2.536699149842698
0.30539913101603705
1.399289026800839
-0.3960374464488935
-0.6084262010537616
-0.7947370849583347
1.254148500465988
-1.5932134518081027
0.7570380891816328
0.026374272907108857
0.5016586848221992
-0.3992178200813067
-0.9729104831431206
-0.4895992762004096
1.47268889576865
-2.022110394489916
0.4341886825002867
0.544427892725785
0.789215989429791
1.0426716231933613
1.5118505613504605
-1.4988862393809121
0.06696022211653987
1.5169812385432735
0.4283441748859734
-0.8919357972541861
0.36601040317609174
-1.394527128108265
-0.2165073663197325
-0.8774561792462415
1.0609719914768811
-0.7972643237607884
-0.1717756136824867
0.006585182354144841
0.06628936465870479
1.4837646994734495
-0.27719574477663655
-0.26088076491221457
-1.2655328957190266
1.5427126833803664
0.21768752838904898
1.4228993557590135
-0.8393579156758673
-0.576125801071658
0.2994402490181779
1.3256131397993136
0.07775078085261818
2.3688060684101733
0.1430474436795303
-0.7709069841459631
-1.8851913146634374
1.1061853374552268
2.082164981919509
0.5063983244345198
-0.3429114245057119
-1.4984376465292686
0.5281944746898937
-1.61269819223279
-0.4758097888751133
0.5952014766832917
-1.9832043191600521
0.8075105415935185
-1.0691927354054878
0.5885565481553247
0.19964765209058577
-0.5988355929211215
1.764331986500198
0.4305878475246096
-0.1596266433325807
-1.3744741359227235
1.6337848924971112
0.8767040690096525
-0.6326663717252865
-0.5044455656815429
0.854565935898467
1.018826352573114
0.347530225277379
-1.4582444552645664
-0.030309174505951966
-0.7215502964243338
-0.8932292728087183
-1.4258196296452497
0.9364443688162988
0.615176121463245
1.6716908958649135
-0.1636061625893027
0.07715436446920508
-0.062204903181238336
-0.11809563634708437
1.052961474566805
-0.8564916461240273
0.5442031654147423
-0.4259859871293859
0.6078558841744288
2.0266251206960884
0.7905787797480521
-2.612056350937236
0.7337768384342991
-1.9416459003055668
0.04152295863953935
0.5885403336122671
-0.7937278155302646
2.9987998157610947
-0.18341944658268763
0.5061781709774276
1.8171100945862946
0.7383803998397173
-1.2862646690034691
-0.15967260283999457
0.7035807630926764
0.2433314371047453
-1.5930856831666282
0.5439103112889905
0.6238456129738644
0.27546351108803563
1.4915425828621478
1.322587567899129
0.863532574880149
0.40639329130306046
-0.0190502343860866
-1.4011998292734917
-0.5333368151561486
0.947439928255813
0.8291489509885953
-0.8977245602963932
-1.8337039416816667
0.06585706496878284
-0.16980570883565294
-0.3597543877875437
0.22238392715614527
-0.40726429459731356
-0.7405558769242289
-1.3267663937390244
-0.7214970031380723
0.028772826084716794
-0.4455738396472865
0.23678685859617007
-1.632972173305467
0.1888850290918873
-0.5532633623123264
0.3957562167715728
-1.0812348942365821
-1.6931882758179513
1.7532344226904923
-1.1211275121199242
-0.06583687901115279
-0.3595716555739965
1.4155031306373855
-1.2007409227970494
-0.22531428712992652
-0.9360830645788245
0.7333042623564395
0.18879225854724035
-0.7421206461260876
-0.32899234434628727
0.9381127756966975
-0.6005035075555607
0.511662320051158
1.3437974808570898
1.0317939228808621
0.5554135139635688
1.9829562499922508
-0.6400821016187601
-0.09419161795463281
-0.036833341189430796
0.07085354586349621
-0.23017183404130115
-0.12476161493569794
-0.22330989747789748
-1.2937542059213702
-0.11009799665985627
3.038758085876312
-0.22433827449281374
1.0594572912476936
0.03807864091019181
0.45899971959144653
-0.5908092927387919
-0.744477634743058
0.517560885054241
0.6347848791103875
-0.5764626001471681
1.1563960510279585
-0.5755729045081788
-0.08038279265075596
1.0302163665239434
0.40516976657290804
-0.43628695260890793
-0.7563101583761859
-0.480257131853487
-1.5903734715121551
-1.051356951230724
-0.4541229714877447
1.7515415817174524
-0.06796688632223882
-0.9338018360963429
0.13756889243060919
-1.768103886656499
-1.4768493936813616
0.5858383619625854
-0.4905457120293321
-1.2183158610017673
0.686196126005733
-1.5189264739647432
-0.6600438194234678
0.2204215346866336
-0.8767866397123509
0.1917515424105502
1.1300106534936583
-0.5734271285189166
-0.685995871582177
-0.7227359695716369
-1.1089945607270877
0.7963672717359644
1.1490154211729078
-2.3492485793909523
1.2612583240451218
0.9631465956455318
0.8770500791556544
-0.2855430587800786
0.9101547112990183
-0.2683751115329664
1.211068486976426
0.2289563895705936
1.2713610571971834
-0.28168102929279165
-0.5255146262487094
0.30603231989894314
0.46976030948582653
0.37212466199011546
-1.754513476279956
-0.5775151662504542
0.6549008686754236
0.6135158595464336
-1.2212471195724142
-0.26921932544914173
-0.46211942780406284
-1.65667147874221
-0.29490520890498967
0.19614067633765944
-1.5458186809613377
-0.8976094127667795
0.03970090816528738
-0.16737997569589902
1.0432654301617654
0.5975281145326832
-1.0663622875671956
1.0732120464039965
0.6216671489948006
0.9429332511518396
0.23341765424500802
-1.1562118414253946
0.28620690569926166
-3.7512825340195723
-0.8030117060416211
0.4026911026487674
0.5478904404423317
-1.3266785812511221
0.7220333462224513
-1.0886552391536022
1.1020454957180057
-0.8542827926273423
-0.6478660121027175
-1.1639858863660484
0.26879657145322466
-1.5663827858392108
-0.2382140503283173
-0.14353718536786877
-0.009769270358936483
-0.8180507600434918
0.8163585671500618
-0.4921047982847239
0.989752313421222
0.08847743118222309
-1.9516025766252019
1.8933184032875936
-0.7997162365847077
0.058385985547828534
-1.5007484553497037
-0.07956721763450698
0.5640520344397907
-2.7791865724550124
0.41399254838294025
0.2741391982739631
-2.1597845616106492
-1.9567725065206674
2.6826877173418433
-0.8039570714106131
-0.4610160367123762
-0.5373640266444787
-1.1361487649206248
-0.047276802115202965
1.0480325123136696
1.6410087188650806
-0.8602431257699209
-0.26201059910322805
-0.010191845289711106
2.5788874163660083
-0.7442181700448642
-0.785555404072401
-1.317335834018161
-0.1979624452772315
-0.4216276953403518
2.2592122193788375
0.8327208835724864
-1.2864349261442332
-0.8277937615106408
0.33204997352419857
-1.8406986506524048
2.2163798519647666
0.17669345567240388
0.556952034498566
0.43108763311018483
0.5821056322397319
-0.3703654798669539
0.04072162261031211
-0.14187087202014145
0.35472071655663656
0.5299942147838865
-1.3718343003403914
0.2833647876086016
-0.6101528673226584
0.34965231974161476
0.44334632282024333
-0.3721055793599283
0.546904680259831
0.3284634684714237
0.5099631499328706
-1.8590092822787743
-0.5819380027374097
-0.3752243032352876
0.8874611587895186
-0.5878998280318499
0.052563310539259694
-0.9531293889059598
-0.15101247832753042
2.4471868083864927
-0.1950726536835483
-0.5624882464188563
-1.3402648773429366
-0.49339057997235575
0.8073489447664062
1.3489358547836048
-1.9981328950477266
1.4927460666663026
-0.6999714490233936
-0.3096942261152544
-0.6822295099690447
0.8964933600152114
-0.9562957819683899
1.9144249795201587
1.2003448924838516
-0.24384675730534464
-0.9712319528122003
0.0031034460881827035
0.11633578503538955
1.7646757856059792
-1.3112753303726545
2.859926212337114
0.41615613110457444
-1.8357451622194891
1.001736369918049
0.7159204667641089
-0.83940476000353
1.0595085348192477
-0.8985042925938684
-0.43155967983066623
0.8072146334948702
-0.15134084302815407
0.7550975413780986
-0.5196916443525924
0.682777130196703
0.4839718604345216
0.11175881119628446
-0.014914688622673008
0.8559070596522144
1.579473632617161
-0.15664514735906226
0.9336426577051716
-1.3794794409021582
-1.7968457997002458
-0.9087175147754638
0.8512294624356471
0.32215074960078915
-0.866500392804249
0.23954292718972858
-0.48072271035378383
0.24051633354643936
0.06419139494803393
0.23351500344942952
-1.9095913717761464
0.685752069989009
-1.164014748561197
-1.0076670918389872
-0.4239613409491445
1.4977329732454008
-0.4212686343185601
-1.0861062732969438
0.7918652336460461
0.3513031778906946
0.7462406897336292
0.0264779470664723
-0.7180719677043145
-0.4020788541254773
-0.5246612664326272
-1.6855506079582925
1.5822763549712782
0.5433600920945442
-0.6576955824020286
1.1292741802811168
2.723767308905979
-0.24221465130036712
0.37016135688612956
1.348920528405087
-0.21207032308241427
-0.39028946283787924
-0.9115672355394775
-0.7054164701849488
1.6959391314757488
-0.8967126491402265
0.813814580828313
-2.6286429167508065
1.2883140597634162
-0.3208742533870985
0.49170918163239996
-1.414413993131839
0.1768557620854075
-0.6706149252836003
1.9735382606119558
-0.06035211588576047
-0.2521532797393202
1.3066597460506655
-0.012135595878894845
0.21823373424861425
-0.07609193141724098
-0.281844387768397
-0.31638323115514516
0.6306441496629112
1.2011915324737485
0.22845775329658813
2.9241247897619287
1.1684835936343188
0.033007588058024374
0.6825853826552675
-1.031044522038066
1.4612550059668639
-0.8005884855794023
-0.6333227501332954
-0.16058908731184682
-0.3851633984031354
-0.2584520548730149
-0.8501602284800697
1.6967296363851256
0.07612986479599469
1.1445409123599228
-0.756117334464683
0.5943893506537825
2.0478935843009665
1.365660026111852
0.21642609854419537
0.8735237394279147
0.20053818236011983
0.6302634600694034
0.10602691917320553
-0.853298874161276
-0.9713907827160683
1.3480000880701737
-0.2820036192484236
0.9838325800122403
-0.8645095267918512
0.5189305646152733
0.01738199937668312
-0.35239198784614517
-1.087238458313493
-0.3705289466573653
-0.060750740646758186
0.05653842971657286
-0.22204321343330072
1.3765440258714092
0.019651701976239035
-1.1945465092591356
0.8475193456541767
-0.1107038779489638
0.23232593418281178
0.9317863912017621
0.09580172886978021
1.3723489677393532
0.1581018299809887
1.2048497508371658
-1.7110244325264554
-1.093386355560881
0.35882952833044124
-1.0892621361235704
-0.09093676117789665
-0.2662226315418368
-0.3181525182902201
-1.151578827272276
-0.3270066617808063
0.2456929795359929
-0.4387046748717537
-0.3803808314244485
1.0695266765189393
0.11446184522326608
0.3037980383824934
0.36015997403601396
0.07671777202983888
-1.6147209161964517
0.5178468455249011
-1.1981150598910055
-0.7908433166645273
0.3851937397974412
-1.1492448999002185
0.022603877107568865
-1.9906962373626371
-0.5859954034211219
0.7287602092397212
-0.2320071358663116
-0.8361212268912871
0.039113258147297436
-0.5908203324872346
0.8635022555027579
-1.1581913885157253
-0.9914909734232398
-1.245912813630452
0.622244732713443
-0.22030647588202545
-0.4919688119240049
0.09105612392894395
1.5005591596515713
1.1927729387232304
-0.22847483657723916
0.9106193238241507
-0.5555178442915081
-0.22398779725744838
1.5933495311306733
-0.1687082395635597
2.1052144080164283
1.5162969342810475
-1.6154857011990988
-3.2722775028334303
1.3414192292488136
-0.36750965232790195
-0.35684136563594626
0.02962936454225452
-1.2511495449978864
0.9996921359866466
1.0343574163644154
0.4024151222191867
1.0633532269836592
0.27505440099413314
0.6217461352306302
0.2621324825256423
-0.7077972940821279
0.09828863411683107
0.24411429846343322
0.16595312743655988
-1.0996849746391724
0.7273227237343444
0.5860800873484197
-0.2119717555169968
-0.021489856576398056
-2.5590302429296545
0.11108401577819652
0.8445207814598015
0.6931750341213985
0.3758719505856889
1.2033028901578378
0.9179803531367257
0.29889450203157003
0.7741961784381373
0.5838518861904769
-0.5607399916212253
0.6428554667820509
0.196396788859345
-0.021435035891228752
0.9017461180227653
-0.9857347772502528
0.5998536688700004
-0.242966462891808
0.27978112850754466
-1.0415817158769207
-0.329573088793382
1.2969441813541396
0.6687900865735193
-1.8260596175646817
-0.444867042811293
-0.20533870834336718
0.8227757292651742
-0.5489480462231633
1.4679897493812575
0.8262531290591673
-0.7355991781219413
-1.165473906745814
-0.37490886136821905
0.6864617197613535
1.0181316056722698
-0.8866128742580214
0.9890119092246542
-1.1329809246023308
0.4786108238098647
-0.6885653721135727
-1.2764947869166783
0.48531734643735586
1.3534023552875305
0.845292549416503
0.3617731072078668
-0.0539822963115798
-1.3460682441716953
0.08117258635044738
0.8272203790825745
2.2375848896972235
-0.8869527538588727
-1.168551369525975
1.1576656600994588
-0.3116165593867259
0.3903523563447542
-0.6632043983757451
-0.3992324130898628
-1.2985798784173386
2.054522964752065
-0.5053273278820435
1.4365088053677961
-1.8510422339496904
1.3745664871805645
0.10733429170914968
-0.5248442502121097
-0.4026580233315231
0.24257530407183775
0.11258290283765908
0.27295212787272316
0.4526964467301326
0.40568949747175453
0.2764156250594071
-0.6660353447491127
0.53525662129502
0.25339446097268326
-0.5494749871484739
-1.8661346546158704
-0.5161085433207796
-0.1599795143837747
1.4533451227070115
-0.8074072924905034
1.561892633981897
0.9828118656930882
0.5393717985313646
0.057428634971240365
1.5113645073526538
-0.9193111578369975
-0.16849289433420703
-0.02744208407239591
2.0337841474844254
-1.3144758590081063
0.05485094848589228
-1.2225225262978445
-0.550154147565564
1.3245349150163228
0.1781263669498633
-1.421547129130982
0.3312458388238549
0.30750257807159187
-0.1504841331678276
-2.0120655400330096
0.21972933483263427
0.7098453345603841
-0.7081751073191731
0.27186953536574787
-3.59508256006062
0.5114610547232924
0.24872707601175417
0.2774561813660974
-0.17110266465944587
-0.24909788926317342
0.047004074215805595
-0.45850224359064273
0.493822352019115
1.2590839372224323
0.3616705871488653
-1.1972707522556436
2.913863033638447
-0.4464307573061597
0.4250985888058529
0.4730784013223687
-0.9369928721172813
-0.6504212529160371
-0.18982059613988375
0.9930443102387032
-1.8230853118494539
0.7028126027122752
-1.0144784668219269
-0.1267761069452755
-1.1132471697862567
0.7777154593974235
-0.7252942046919967
1.1909615276568346
0.6959189829433561
0.39935873613828166
0.5644636395757242
1.1314529806989952
0.9632443688121136
0.5402578092372267
0.19568819178405636
-0.19647595822853012
0.40005736159428595
-0.7478563289820687
0.4315614958670403
0.380840574347597
-0.016124753706547253
-1.4522044106956409
0.7922981892386286
-2.9333303859424906
-0.9296610551390688
-0.46793871801951736
-1.7288915812863617
0.4106770177051739
0.4334919244708279
-1.0091672920192336
-0.6528104573071576
-2.0904723989300673
-1.806274507512715
-0.6560032561424546
0.21887155121098975
0.5596250487842096
-1.72576445191348
-0.4836462233987517
-0.8167052361904692
0.8774569656399855
-0.9988658099453755
0.4426012100301271
2.7819977633534205
-0.3841756299876045
1.0278749574343327
1.0706579523482542
0.10879544109486546
1.6171544838458258
1.4666972471369284
0.7171539929954357
0.5130606073041036
-0.18621337958383868
0.353388287844433
0.10692111182355435
-0.2308132323918114
-0.26192627461601203
-1.304254963733116
1.3187301843972403
-1.1068596209398482
-1.2353148986054914
0.174674177056991
-1.2692561324893357
-0.46676230396706575
-0.7472999395611764
-1.3206981232314166
0.32351764459289906
-0.3310638655161966
-0.5639522488040912
0.8558667534242673
0.4168420298757623
-0.00461803790289438
-2.93644548940127
0.30604952226900894
1.0789891949486792
-1.0802915350339313
0.13507845932640905
1.029086595903801
0.6528236950292589
0.2249790432574043
0.013757877349686896
-0.6191596828414895
0.8627189232482797
-1.0323093473664007
-2.652803225916728
-1.6812438450352971
-0.3061635718380445
1.067781708059427
-1.7435026451937468
0.4374677702075448
-1.1693540835094143
-0.5775698308830547
-0.2530553673542119
-0.6342746022224862
-0.2559192095968482
-1.265277217184273
0.6166405395094537
1.1834155547463943
-0.8395891266952377
-1.4710584419110566
1.9915010757866987
-0.14077048544973966
-0.2867491039995775
2.306662871206046
-0.3319700998027522
0.2266251184543506
0.4317924863574107
0.09519602469203256
-0.5592656929840772
0.026010509879759895
0.615756183947098
-0.753190136463194
-1.035130429458442
0.23162956734302467
0.197956200385246
-0.8697839567556234
-0.45370703983922106
-2.7393705381243385
1.9020165238113156
-1.3216305004826285
-0.724650220672315
-0.48157524107264754
-0.5488115827849388
-0.8300485842848013
2.4772278566040122
-0.9318102335113552
-1.0386068841046898
0.3516542856602945
0.11650486364107446
0.28134011765027117
0.35974197647218914
-0.9364789705980298
-0.9540787297639538
0.7694075599134922
1.4531355788951328
-0.40210059464993214
-1.2214253474084422
1.742377154400144
-0.26451577673155835
1.008916627155324
2.082568274175758
1.0004019434432696
-0.5032467653909383
-1.0138008866837922
0.9309121478538246
0.46051864239717344
0.22886283509454533
0.3402017290557961
0.6790217945291954
1.1350457973331978
0.05940287267897935
1.2526465766734536
-1.8129410596910418
0.3985595297280503
0.27138878145803347
1.7601536628737495
1.074198476654231
1.94329014837222
-2.2498000576850394
-0.11928384879785703
-0.04852700359046016
-0.5941043829397168
-0.02290591747176534
-2.221176647672923
-0.7627211817358786
0.23190815716096386
1.0783184159702017
-0.44365232754299616
-0.011197187642602144
-1.0442030351901497
0.052559229973812016
0.079366194820299
0.13146366840328658
1.3864438570854325
1.5721612783342653
0.6903308403403629
0.798981485033421
-1.0933751653827566
0.15188047435720897
-1.0173446419254437
-0.05785310393261602
-1.57071970869291
-0.05566468368481152
1.6365801198952161
-0.27028611666388686
-1.6367338124972726
0.7429112929416664
1.770325426014686
-1.0129311109172356
0.8964062213575638
-0.4511013566921798
-0.3102914528485152
-0.6343536382488181
0.6864010883507623
1.2188281979948805
-1.2427465062307206
1.6829957533817987
-0.2745007617626685
-0.6429474054227523
-0.7641450682361403
1.7536025551050276
-0.40813263334907485
-0.2678884904808796
0.5570449734057084
0.6375701624648489
1.4063562026278402
-1.0797635936988965
0.36945335967300497
0.11620620159982281
0.9417854071563649
-0.47347152706957046
1.7488576532755231
1.6380817138256865
-0.5636095378956564
-0.5899654721753547
0.4288286335734324
0.6016413766160725
0.8291634625637292
-0.6543617416485576
1.6446371844559617
-0.44665286036188134
1.8235957153419706
2.2568158965517044
0.3703814790202392
-0.3017332705112286
-1.2980351535740922
-2.677314030505212
-0.4811900595909653
-0.3815678001833792
1.5825372437486989
-0.8908547833733084
0.9551746530655263
1.6258748240511234
-1.3028975158270537
0.7529091746196824
1.2856377774115595
-0.9060692234986322
-0.55778484970681
-0.34174219586971705
0.575602210355599
-1.1646527980039059
0.5467997623739346
0.9922706084828394
0.22458966050694187
-0.34845529580755635
-1.3538384878157403
-0.3709969046773551
-1.0596803424719619
-0.16505595254824154
-0.7950408425354739
1.0051011098771565
-0.670379121129634
-0.22355791689059754
-0.7521560265894814
-0.40382858882574907
0.9594093793502076
0.19965601246799908
-0.2930763577888996
-1.4557618817562499
0.41742806867123644
0.9510730318259767
0.2566282881733965
0.2552627674855179
-0.399401132102685
-1.0537106005594583
-0.3336956299917398
0.4418613696872444
0.5222112891867138
-0.9092798134486325
1.2643670653924388
-0.4136395269973824
1.3036505000451586
0.4689942192478865
0.33089182554093977
1.1912779878264241
0.6861911775825243
-0.016481932497294304
1.0294897921052948
1.5683087670178226
0.13258722595441771
1.3978021223063153
-0.08881066297092029
0.9920299105810957
0.8514383942994406
0.7933398616874338
-2.2844694897108972
0.09773332592610882
1.2582853197865358
-0.7129327480639731
-0.3650432623875289
-1.62520573971561
0.7250012578013104
0.7373129651932067
0.3032671114837304
-1.5899321966087625
-0.8601201545398178
-0.0457794251235639
0.6062027827958038
0.4773451792101092
-0.769355409303754
0.021083601155195107
-0.3990882459988222
0.6178256548447312
-1.4587018109740821
0.2754936242422734
-1.2891238947704677
-0.012453474194314341
1.0678724751385347
0.4326906579369479
-1.6449719731954584
0.939315563286205
-1.7247411448469216
-0.3926209090714644
-0.4402917152467397
1.4532298851621064
-1.043825610941631
0.0069516172263989415
0.33454619826564364
-0.7283692086515937
1.344270270095882
-0.08861894687038038
-1.2350031876434766
1.5455710698756007
0.8100793391400762
1.2400263089196255
-1.3648000006249812
-1.4257569432034432
0.8037755581776069
1.5987101839269566
1.3380824435428949
-2.084495550992194
0.7824560863481832
0.6777125959732909
-0.13182505951254186
0.13373934768006684
1.1853759407853095
-0.14175416297020846
-0.9125009791292593
0.67718508316055
1.1056730338133562
0.7421965972907342
-0.4786801635284472
1.0637643662822103
-1.2622951456109681
-0.11659610852657475
0.6888418658474512
1.7964726318547755
-0.7057572090503953
0.13018419929041086
0.39197116659997366
0.4583173321085536
-0.7953996682134047
0.860138215253475
1.3076173253666026
0.8265094793407405
0.45971999556949683
-0.31386858017550107
-0.7215381672459437
0.3341010065650372
0.821275464035097
0.14490881271562578
0.6706332970036722
-0.4914166431175981
-0.43250973419332583
1.5663281808046778
-0.5855213516214349
-0.3889217223884268
-1.1197510966204063
0.21855509512414553
-0.2924813023593119
0.7490998135209975
-0.32629196221270723
0.27931531163618606
0.16616174641685075
-0.03958317427073404
0.5035957069697171
1.8453002016703874
-0.238371226429322
-0.6253783540086574
-1.9349726513694374
-1.0779365223703272
-1.198953864499746
0.04273723652078312
0.27559721865405484
0.7797878976437913
0.8740322293817883
0.9527389365241378
-0.7776673658933481
2.9306408260559054
0.11363815109755805
3.317553145597643
0.6842313677324208
0.3048550583757762
-0.6390035831610199
-1.1977621703354013
-0.24763886654624742
-1.9887216559114067
-1.1869479894114578
-0.2595987790562651
1.3073354078503998
-0.9019340497104523
-0.9801394225432983
-1.1900166442113844
1.4284430229836287
-0.5022716130741406
-1.2398578656541048
-0.7224006358316707
-1.6620918460543312
-0.06945370867382267
-1.5164767373973445
-1.4727801836798713
-0.402628714914426
0.6701848694914566
-0.8404670852726769
-0.9993006993466288
0.1005565744563122
-2.7008578358542317
-0.07844280324188246
-1.1193633825380498
1.970490345229346
1.3747258611775817
-1.2284675096394682
-0.7524576502247035
-0.9826829085862036
-0.9686215301172125
1.0830666798585231
0.11365669601173384
-1.200106152377136
1.6314249611343035
-0.5058101290719246
-0.3317313588883601
0.6741337109953824
-0.9477777532712275
-0.144019570684961
-1.562775755577884
-0.14491027363373887
-1.2615253044922767
0.1845061489296766
1.0177706823751214
-0.1489834932631398
-0.3875213222221678
0.06915811927544198
-0.5040854118630091
-0.026317265010232693
0.7530365664846347
-0.4513466817381234
-0.735443947980286
0.7889243564418321
-0.49866903657869127
0.426042347755362
1.930538702433817
-0.3529048425600725
-0.4352827918570316
0.01946879859393174
-0.4979712255645088
0.720077259211441
0.5442490604437418
0.3636059251718285
-0.24005812371286803
-0.952824090631586
1.7551752668947254
1.6098900423583145
0.8510319448752823
0.42680810453578544
0.5299992478643921
1.2346026789940574
0.06343512969734434
1.327960707698139
0.014542269132373345
-0.3980514726945356
0.8898722634773708
0.935344596372054
-0.5146098788823845
-0.17831343824291382
-0.6758212744185187
1.8915262062595872
0.6077297924233115
-0.49469711998970695
0.4416553064875265
0.37210595390294954
2.0023780033346266
0.6330083027532749
-0.9813085080302434
-0.6836161308677006
0.5475383353155036
0.25953664222134276
-0.24100524654244612
-0.9273362190906989
0.8739549122200607
-1.8450494272443922
-1.7837142585420644
-1.0112448162593801
0.3739376014391239
0.03558422766286659
0.6183860507564686
2.874413859030286
-0.167262766494364
-1.73508909506175
0.25930814122558754
0.3827483293751213
1.045316506433945
-0.7537948710496986
1.1175586313711972
1.8876219099272837
-0.20032445557055686
-1.1080080967590071
-1.227920190607204
2.9628751092525167
0.03388064956607772
0.12640642567569135
0.7025098618187811
-0.5211819294156563
1.1231444451858996
0.1036219008466782
-1.40923306777091
-0.11518798919300235
0.20840873738887963
1.1221021886485274
-0.5468140518878307
-1.5648848699385698
-0.2112563292066361
0.905641171694059
-0.5025406752242256
-2.1912605380764245
-1.7079826818240145
-0.2732946644488014
-1.0109285616104227
1.4080093403355773
-1.3017929971953432
0.785335049325335
-1.5475931523925628
2.6451568207003464
-1.2182676568316413
0.058007247934406626
-0.17249491963924252
-0.35455814397149726
-1.849733182097326
-1.1343007608104287
-1.0135915943702436
0.23311893319803703
-0.17457957692918696
0.09525920739888909
-0.31732260198302925
0.445991092576924
-1.1746463000336085
1.3499596765217134
-0.5881529997208769
0.4725188558579287
-0.0069530806953765935
-0.9066520040273074
0.07655196113515618
-0.6915900409124658
-1.7027708457074568
0.1991219848854606
-2.7921985821798763
0.9293457344426911
0.05899158179928703
1.183444623334752
0.7289975635541194
0.22447219841242347
0.20021313460211934
0.9233271928650101
0.46659790839205967
1.2489414857760732
1.3719056503223215
-0.48290287725497355
1.4585319842603954
-0.5505589797659423
1.1674560807288137
-0.5236092734473252
0.2987244455597883
-1.6230245852273228
0.2655625739799107
3.2262781706465664
0.9056185305520192
0.09415728571386445
-1.1854449795737767
-1.5892632444453965
0.4820795710098755
-0.33276337172851167
0.5192273984847131
1.6241244317790766
0.38150013542284467
0.060203917665945295
0.7879547940164172
-1.6078893060068244
1.173061902148147
-0.7230405271476248
0.12138500828022725
1.0610180202294595
-0.22134051864722498
0.7291910471579803
-0.5327157957852021
-0.09663236692332021
1.0228437855134105
1.4537200751674972
-1.0600599131682364
0.6819015226488735
-0.19392035268672392
0.11847956219964607
-0.2508164980957212
0.14419408920119858
-0.07151158468265956
0.3015257740808231
0.42473367993958666
-1.2827247146165772
-0.16155754386229684
-0.2250668121751447
0.696551308730374
-0.8450410143295968
1.1071129295950484
-0.6159479066233673
0.1791152227369075
2.021158771030058
0.4495571306602963
-0.8624134827193914
1.3266720952807045
0.873064357340314
-0.47341987522541007
1.8379582011294517
3.155160406726587
0.24802259077170233
-0.7026390473173819
-0.5096081156875991
-0.3576606165381475
0.56792024783454
0.7706666948613715
-0.2805048100364154
1.113810517257737
1.1712782542708429
0.24356575339204692
1.4409931245491332
-0.5850327295088809
-0.3739463897167692
1.6186788528824188
-0.3157323886167665
-1.4257019753275284
0.8321075711214172
-0.5464556639679603
2.4322668999016686
-1.2662567088532515
0.47658784255627135
-0.27123150942865926
1.7133006264510164
-1.3473555802206396
-0.015913771664733883
0.8488239432570434
-0.9996253538087836
-0.217347479652156
1.867478409575323
0.17096887435551608
-1.9120266735915985
0.5641105502668409
-0.17284235876135232
-0.3681664379145231
0.9761151085272407
-0.7477291480588094
-1.0438715364176467
1.2355566669132179
0.6199216105582327
1.2122193193113802
-0.7960819819014819
1.0909740098130252
-0.517958865111916
-1.086767366848974
2.7252994801674326
-1.4390377191947918
1.1657431649386991
0.06675268484182655
0.21088208072264075
1.706353494062978
0.5436616989691786
0.2752093016762443
0.40860855334277035
1.1686799376067805
-0.913452227144891
1.188698733712667
-0.2206216923062012
-0.37732353934954904
-1.6699651724125075
-0.90626795667673
-1.935485478419999
-0.004507022312995383
-1.0265452743172738
-0.28520360117150834
-0.1550242578473264
-1.2557185155585686
-0.19257921334477804
0.1584666384255745
-0.6148609443830415
-0.2283614525308885
-1.0388289033276654
0.16199279846470502
-1.191712638430285
-0.6689418613784565
-0.5531949610351322
0.6374069458474599
1.2864495817183532
-0.042625480931110675
1.820787961895778
1.1347280866959866
-0.038519633226868404
0.44833413843709036
-1.2115934029121562
0.3737721464422279
0.9581075944040189
0.41975774564396995
1.63181702731244
-0.05882156169212952
-1.3633310455584058
-2.216463519131441
0.5513610621813186
0.23544918781046142
0.8939197548627807
-0.56843790141746
0.09137343861646538
0.21827402576391342
-0.5091025137676056
1.1619627880493348
-0.6499277708681882
-0.4047801158614517
0.22141713706194677
0.14245933135168526
-1.96308980063315
0.8079381706302428
0.4905000314446152
0.7004477017916917
-0.25092132778142573
-0.23518890133252443
1.3782809369446059
2.0836463946439547
0.025093385860106895
-0.4736573260287354
0.17487751176820143
0.8156533130962109
0.6580241688089197
0.6210196198097743
0.9962382445032973
-1.0086034744524608
1.5582729507800834
0.6773197325569934
0.1951086506816948
-0.6617133008403929
-0.5243995984601307
1.2429452410098432
1.4349066366482262
-0.9481974806605158
0.7534267497517225
-1.3055807882036699
-1.1380645498103832
0.06295360492882013
-0.8984620490796982
-0.7594766897007965
-1.3923462504453075
-0.9982740439345814
0.2577665152723293
1.029026648530493
-1.4113832627015517
1.2572745594391506
-0.28992095826959335
-0.5346149205822303
-0.03975071553140233
0.38671603010843514
-2.2609872584892887
-0.4067357837734958
0.5214730930071759
0.8958357856714674
0.6695721043533635
0.4646458098093286
0.6004719688237518
-0.4480614353033485
0.06759848979023825
0.9842594737357959
0.6554648557554398
0.8745099821665292
0.2220074290325378
0.6841483905321964
-1.36590023625395
0.6517398219687082
0.4291203352117248
0.25745331302132946
1.292607642625315
1.27138864450878
-0.4349257216520566
0.7797081971836524
-0.6887640443730066
-0.14481168568370764
0.13280304426067316
0.5768685578086744
-1.280078904910948
0.1862369530992374
-0.824935152827916
1.6615949604861888
-0.12294822269685683
0.13512806922653917
-0.6380014639945568
-0.1695540425130034
0.6079955866585484
-1.3728793850214387
-0.9295581501740698
1.2115238607646908
-1.0302890815496593
-0.16185634364166682
0.36937235458234147
2.4658091360938434
-1.1902284985193616
-1.3763740299924874
-0.7308772218501007
-0.2539512377226026
-0.4850594851609195
0.3619002494015552
0.6915989851470681
-0.5324801059594446
-0.6437547469925684
-0.22021241684523468
-0.537197230989039
0.7771311955669934
0.8092922365254895
-0.7555491429386723
0.8167565473282998
0.18509733080604435
0.8026657380590035
0.153604230543844
-1.1609842352120967
0.7344051721714275
0.4482935430821394
-1.8309944281338335
-0.7388930335424607
-0.6839734730431709
0.20252718138412332
-1.1428763481013893
-0.6509349690008932
1.5065490978937275
1.1731602069631055
0.31697822443830415
1.7102973028314965
0.8418167208245029
2.030829998452995
0.12219782841878882
-0.9477155531465409
-0.024211651978710443
-0.36701580952684604
0.8102004018584398
2.0709381248897
-0.8551645502456894
0.6383681171371203
0.4106679697809303
0.9054924520253712
-0.6754418985012701
0.5250529952428546
-0.12306098468737786
1.7519280479539532
-0.43014852866723374
-0.8967111978576751
0.6775898264222817
0.5767127134230212
-0.7998496364307078
0.2929047166603005
0.7698469075839233
1.0358553166001998
0.30501813628835855
0.017128045263644885
-1.2994549842594088
-1.5947094623423044
0.614272490270935
1.6983578124630645
1.3737106423790701
1.2665338449585
-0.8091935993427463
-1.1865524128173328
-0.15943861445386312
-0.12967130345388234
-1.0183500368259841
0.029671303765040073
-0.19686066946649852
0.3296621832183485
-1.050212377564741
-1.0188746686131684
-1.0661167274743115
-0.014056873847201327
-1.3088163593197786
1.448590413155971
-0.237793520238647
0.5324585323222145
0.4042183936718658
0.6777270767757718
-1.6207800248433173
1.06028497299661
-0.46584093792682746
-0.8025299112570204
0.4412562298960301
0.2998658928576188
1.327714008926737
0.16678559094162934
2.4245820034355754
0.522057271624113
-0.04762225869784569
2.246852110981885
-1.877682886900184
-2.0159896747765345
-0.9101426469132079
0.17765349090574645
0.7131726216972792
0.376400928165552
0.30427628115697225
1.543285285672159
-0.19865259936632806
0.16125947658876938
0.6253538241398969
-2.278403562847995
-1.9151504847569982
0.7041382333153201
1.3347357675897065
0.4108866128438065
2.079026289317648
0.5939562362041013
1.3241822196653434
-0.2983907986122494
0.8944482583177895
-0.46783569336653325
0.15960130885580243
-0.7051257526802561
1.2357708104084153
0.8568443234054521
-0.8593839594252656
0.015548727796744594
0.3178973951777664
-0.8363435534692055
0.8682338071121702
-0.0740151591280166
-0.7059789742673264
1.6434112729831714
0.21860940859440467
0.833320145659797
-1.7340574053825228
0.6149767352126894
-0.8940783825255537
1.970279249068259
0.7846632149410473
0.12969644275151795
-0.5868115663056354
0.17035999356899723
-1.6450383439156753
-0.5324455886565431
0.9972663806011409
-0.8252466903723293
-2.7204416271205685
-0.4385976960505181
0.5018341488444477
-1.83689491918113
-1.8065821704447402
0.07146872893794645
2.6530297612613744e-05
-1.1925370026528914
-0.09153214250096998
0.6266113161274738
-2.3051507631435766
-0.11528457112739524
-0.5736129813714915
0.20585451564316745
0.43528914278768904
-0.5440775452532154
0.35089467062363794
1.113374298325082
0.8424689528906969
0.8305027616577304
-0.6973047446370538
0.8879202800567987
-0.48203410752486897
1.8514941167772934
2.4344413044056266
0.5774439590869792
0.045452047149985
0.6172563727284761
0.35642724293047
-0.59186975657061
0.767525689328398
-0.19712942436579278
-0.28853928374721016
1.007268543780209
-0.7619234511846579
-0.7618579474582121
1.4365972318289408
1.506578091641235
0.36939733278602654
0.7096074936188941
1.5585117587016715
-0.48931930575026406
-0.9829791589037608
2.496958910308238
-0.25728234476301476
-0.32475671648495796
-0.10540726463632204
-0.4481857778484642
-1.8522317499915582
-0.5846407884746252
-1.072851752885814
0.19406113745938672
-1.2499021922919342
0.14777562886238269
0.15110620791531015
-2.035807356399779
-0.5297006402088943
0.9568577790454271
-0.5424209880394059
2.2699546714217838
1.1037963802674475
-0.23209666172517712
-1.6874055059526583
0.34482561008772555
0.9278629988761877
0.14374453785430927
0.7015349767867809
1.3901374917145035
-1.4039887244739298
-0.1679178193664625
-0.5741644656657288
-0.029752979143164625
-0.0019203743317291115
0.2782637736169773
-1.353430163237174
0.4449978489053549
-0.003639174983470927
-0.10556878186057463
-1.0010864035579325
-0.24643746810070505
0.5694912533840416
-0.40563173555367704
-0.5390582689512116
0.9164547999793734
1.2612020762792424
-0.42460416418840796
-0.961928605159348
-0.19015144979686918
-0.611255371501729
-0.19541785677077667
-0.7312064598659649
0.7822341275696
1.7918851859269533
1.224444550263173
0.9867684599841443
0.115400459248367
-0.6392049366019249
0.5261354085057178
-0.38080746189471876
-1.1327186453973108
0.26162025735736816
-1.2440995606674827
-0.4185904187312841
0.1494555370731812
0.9725444271893456
1.7884476001502176
0.14461844694382028
0.15326213700965596
-0.8888542570339025
-0.8266405826643591
-0.6018569227490519
0.36698683228404777
1.375441189519507
0.8730146115195441
0.7455570025396645
0.37738544150976533
0.6928014353702602
2.2379048703910396
-1.1962880371226823
1.0420033736935637
-1.8322821452473597
0.31596337021278004
-1.5399425531866504
-0.946069771718376
1.5805933054263983
0.12522013108004718
-0.9111392144104845
-1.3698303238990024
-0.1035969604979633
0.10481312642728588
-0.22077856444645194
-0.3334612641253068
-0.1418674713063715
0.09911931208056957
-2.034919298709991
-0.3933382728449681
0.14348278692694813
-0.6587368957371736
-1.4039519001973488
-0.7427256927633112
2.6004843648076506
1.3619941380114904
-1.2303815635721234
0.3746045581414266
1.7331663761583833
-0.3581672310627802
1.0511426720078991
0.6034638410322063
-0.5230643836376251
-0.7522217519576876
-0.9696482805529972
0.4830334365800553
1.0767397282421907
0.6943673768410856
0.4918301165509299
0.6570480565740452
-0.2174031987666394
-0.2339159849147666
-0.5285281794704225
-2.375110438162484
-0.5858495963403482
0.03459117154337962
1.034212776328231
-0.7339597348493387
-0.3346043794592357
0.9906992076377602
-1.064528819246743
-0.6716366116751794
-0.6330194540941426
-0.042729041487649645
2.195426297800068
0.23339039314947016
0.12640124871587174
0.7612329101158681
1.4106237503409136
0.3820451758070447
-1.4864495734421272
-0.07878388436656034
1.457379535447268
0.5905133983896073
-0.3118137518734676
-1.4164012656493778
-0.5079885914510633
0.044226811406400134
0.2433028397518841
1.1328427622085733
-0.9476856828581309
2.0484014199651344
0.7242325478291252
2.46158021485227
1.2800340015075518
0.5225623731257397
0.9457100525893841
0.27724617675938706
0.7900998740171872
-0.03956218562283645
-0.9203892452029135
-0.7325210688028243
-0.6351408733709091
0.8259375770927528
0.07131139267047339
0.42769754884961125
-1.9710975194863298
0.6060628215674649
-1.451628107159454
0.026316383840570383
0.909568761156473
1.5889850548029645
0.22247693753968548
-0.4080169010353936
-1.0217934844996175
-2.0788662538228353
0.6698903677056717
0.3393997788315812
0.5780439254867435
0.209410979350988
0.19168304353704077
1.8495689726919842
-0.9671848848951664
-1.0882322958539778
-0.06258302845835648
-0.22349496116884435
0.019452802312610484
-0.7092020389426752
-0.9711138459840977
-0.1230851149556558
1.0234586766948115
-0.7312209770004754
-1.0985861562876291
-0.9858653262352945
0.3162278688546645
-1.6696361432862972
-1.1582777787703553
-0.7279269687991897
-0.5852501246070749
0.9105739041691755
-0.22131836190483428
1.531523976046001
0.8740521140144348
-1.4787272318007605
1.5077873853283057
-0.5404714856764103
-1.2691651118200487
-0.6518720441235365
0.6687438643137286
-0.1675727752074705
-0.19069452985430788
-0.2346593480553572
2.2273398750096107
-1.8454968682369066
0.0656169178005978
0.8297903039301711
0.12884667763597987
0.28124827051234813
-0.2374587616157932
-0.8364219832307711
0.32462869432221086
-0.25042713245984144
1.1146718408613965
0.038671275080913496
-0.11374986380108455
0.6136737699006507
0.11874784951441923
-2.89574792598039
0.37747547404287196
-1.3910068673902796
0.9618274481012561
0.6499779309492849
1.4845462563700584
-0.8046669299790977
0.3343432767943708
0.1847106340416428
-2.090280963512166
0.7315557814230876
1.4670227817777606
0.926873599022494
1.0030398655773693
-1.4918268487729005
-1.3007699612215047
0.21366389902819205
0.724180838285045
-1.8778946829638539
-1.6168304700175973
-0.7421477715080596
-0.9945216779325144
-0.7828691717426064
-0.33078289634067615
0.27376575856332674
1.955037423656982
0.4828722617912055
0.3257843266597859
-0.3773656380975608
-0.11702525217706868
-0.7695039167463343
0.6939365680563526
-0.49753568049520247
0.014493775196864591
0.6793034409529908
-2.1584304992365717
-1.7466760175858318
1.0724639844887898
-0.7883886281066941
1.4113277227987888
0.4578843950886388
-1.4051070193745314
-0.4411818486565124
0.7849945070766445
-0.8790616400852425
-0.09126358784343318
-1.849605022772761
1.5489895572172563
0.09866430467799028
1.5874589000720225
0.9146904279731899
-0.6088062696862799
0.9831112717503232
-1.2969174083411081
-1.4341659337322543
-0.9585247589057502
0.5151946274984611
0.5315027025804857
1.5065623768665382
-0.5367156417977904
0.8469895369256114
0.23465324140003282
-0.19411150208079478
-0.711324707099434
-0.6051994774504473
2.331913107379654
-0.10931439489316466
-1.2855334275501407
-1.5094612701580739
-1.0281278227566641
-1.1487783830770748
-1.7200364551911842
1.8020875744065876
-1.6899078917652277
1.001882994055309
-0.578958977616085
-0.15534866201150882
-0.737474486865588
0.32360324280454855
0.11550459995564362
-0.603234517716559
-0.95128234296489
0.14558645339531026
1.5094340331070208
-1.6700480763237444
1.658440083143708
-2.0821056977880814
-0.3106648853941325
-0.053586106019802696
-0.8611050200571904
-0.6393084027500359
-0.8956876132253707
1.583863001237537
-0.20780326551676206
1.3597367262576936
-1.1346635743338458
-0.42970262752770466
-0.11814838129354106
1.346701513636239
0.655599785604389
0.5649880936581055
0.7466362019550296
-0.5863274390358434
-0.5640531242008714
0.8432406842449592
1.0127229120265213
0.7615760984621429
3.257021382441719
-1.305316163057793
0.7105053317639755
-0.7441622074174586
0.004347860212814528
-1.1640386659509572
-1.2732371324107983
-0.49643548648195784
-1.5686170310862206
1.0220065232908486
2.045816668583747
-1.6678206190689797
0.10590017189425865
0.4364667389239849
-0.8883691795739381
-2.8102991080981474
-0.39660376888258997
-0.5403054822778343
-1.6000110838756914
1.7541635443099863
-1.1618277428613764
0.2605962509813955
0.36632143150595653
-0.6105934544219657
0.5584139819628047
-0.6278742963768242
0.6018026016531826
0.29535719103739105
-0.6374769638479141
0.7379078863255029
-0.37609083474902694
0.11371529178911004
0.9272326399498696
0.8359580044918772
0.23624430397812318
-0.15840522473900193
-0.8957302179657876
-1.2279980823767858
-0.6206500064599392
-0.045147359863261
-0.0031233877895379277
0.37874818590182446
-1.2932466518281773
1.8862543027375565
-0.30436234597777856
-1.2568020502374153
-0.4682110618021458
0.3764332163912692
0.8473974701429529
0.6942152583856386
-1.116154745813093
0.27752183646708667
-0.19645367202370337
-0.987280720572915
0.05625689247199389
-0.6689509244464589
-0.39522282065954717
1.6796432347111874
-0.25319637805191814
0.3490877172918167
-0.28507614247508783
0.04520420966454874
0.9334305454384196
-0.5936173596234157
0.15336557292625178
-0.6764743676937022
-0.12070067831106691
0.3700457968862654
0.48160744212535195
0.4521786119590111
-0.8581345215629651
0.709259683068902
-1.0699868785392894
2.2296711331441976
-1.8188688716754078
0.1018308223445248
1.6540013170215262
0.30190691815375964
-0.4167873683854145
2.9927409476522215
0.05267055124643063
-0.044149412679340055
0.7960844112773081
-0.4948462429482763
-0.15550760761288832
-0.44528709873885747
-1.9485286792313485
-1.8147793296709922
1.525691163927048
-0.8988053225364611
-0.5739084510853633
-1.3057444439611712
1.2816568915076956
-0.9602260365060833
-0.3571978835896231
-3.0889475785072613
-0.7925626944518137
-0.36978270292221743
-1.0576469187459143
-0.2385662120925496
-0.10878190485902271
0.3945423553210542
0.1375695171265341
0.32030744425870694
-0.17452645131380404
-0.8115733828541037
0.012699609287601648
-0.5063637983748288
-0.17319021366717757
1.0396198949698567
0.37038587647965465
-0.1502130582685438
1.293241061604397
0.21326325128545592
0.5998398544573613
-1.4537790003800626
-0.7279017092463718
1.4011579048369012
-0.6483681457960838
1.7709884687839166
-3.498391162204012
0.823623390385999
-0.012702087973619706
0.6170845936572852
0.45908240992817206
-0.7709439235305682
0.476372029332243
-0.28223068581643374
0.8744328606883139
0.22426875307106123
0.1789431203086055
-0.06636710374659346
0.14978269661853258
1.4612756612414302
2.0036148334678767
0.8866256897015585
-0.27378307583568645
-1.3852503572231447
-0.6595629528842086
-0.6076850592373629
0.5680320027646656
0.028387446662382666
-0.09615683961594293
0.7171402475496738
0.351975083178473
-0.596767245690915
-0.2243908120403945
-0.1346616557280048
-1.4365063400900804
-1.3276028090298562
-1.409552726245967
-1.503584500534167
0.1987537242682825
-2.976483340096469
1.9144609849685645
1.6547863094348025
-2.1212894492148093
0.14130948649969152
0.058185614894026585
-0.9768122965362864
-0.760706129088396
-0.5849910866406464
-1.317823689259725
-0.5374508132707828
0.2534755212046262
0.49478122748810516
-0.8975819510620742
-0.5162594629309497
0.133346171650018
0.17897532732706903
0.02494686346722992
-1.4420219073249054
0.8480290429859952
0.5260148127896588
-1.3658692303340623
1.0472766244562979
-0.30435363656751646
1.3158585461985002
-0.9135643022885989
1.3020690765822143
0.2247292342191049
0.44957168320139357
-0.607234071152499
1.6104498797836824
1.435793669275663
-0.2315222679067524
-1.7526549343283915
-0.47131394988588077
0.5889410848323403
0.5499225949593566
0.6431918350366354
-0.5100564747771015
1.0559264834835749
-0.5892036431486503
2.3314671035231402
1.201362404907953
-0.5227373031370737
-0.2721432363029818
1.1533979441448596
-0.8094400149716954
-0.10534190004450154
0.3837241759033873
-0.22275366612317127
-0.38434517873741797
-1.1468519280193143
-0.3482997170886279
0.5355608172004667
-2.32672638631526
0.7458824964446249
1.0522594616827887
-0.5286746472929286
1.0465825757691756
1.3176834418559102
-0.3454034424209942
-2.007635789387026
0.5394021475088776
0.7056777969571084
0.39762013248064504
1.0406699267384432
0.7149088172870527
0.812543936114348
-1.7684271626692272
-0.3886600845455391
0.2573078628978999
-0.843015379330499
0.31954701164613486
-1.5721316285556806
-0.012721545916764313
-0.28520645438156006
0.35799229317737485
2.2314448900053576
-0.9008535094502147
0.1043042005078632
0.09378174816328666
-1.1275916483243096
1.1457139551952158
-0.6768208691894836
1.8283688635876902
1.93918434491619
0.18601270236167997
-0.44443875951611195
2.2461543313731838
0.3440950191251568
1.189876371554884
-0.8594569443253696
0.5761701379486908
-0.2333490314787211
-0.8113885340984721
-1.000636290402162
-0.27281227135983105
0.31726934513258553
0.8804467226318784
-1.86501680257676
-0.7572949971427445
-0.8797064065656038
-0.6069150192598094
-0.7455322529690591
-1.7122584035528157
-1.9909131874819943
1.838358792060897
-0.09373167545620815
0.1689048246372947
1.1520718918290904
0.4434619859646528
0.024887395087022823
-0.4466222121237327
-0.3742739672672853
-0.49110455962929545
0.024673468135773334
2.1175849257468493
1.0641014918495117
-1.0597644828770096
-0.8829812912084625
-0.21938276050685987
0.14463897143881962
-0.9573329855444667
0.3390420741193263
-1.0944261707247935
-0.3941989473298289
0.7543364023597202
3.0776346368032654
1.6269714802390545
-1.427792881617209
-1.4999266120312231
1.5791297706289331
-0.9397585010862617
0.07329569352647763
2.2971454804690747
1.03640746935147
-0.04147554190898842
-0.03678560741510509
-0.6121513485238491
0.22324724095738865
0.023088955183391612
-1.0217890543830732
1.004548046499344
1.028776641757206
-2.0889025925529934
0.279351597640679
-0.38261001877891027
-1.4168145262723562
0.5488843944430775
-1.2503139757210138
0.9227708402186232
-1.0708473111289272
-0.8603670680260715
-1.2734363037874243
0.1828486622935129
1.632944134073014
1.862057061329237
0.9572534276588378
0.3330848132412611
0.3367087763038058
0.45731125555400876
-0.9783589402479304
0.015161194200354491
0.005234165293345097
-1.0252621583578696
0.8153882674663235
0.6256163102221954
-1.04516349247531
-0.11722323516917244
-0.10961017094785144
0.3156882330991943
-0.02526444553196449
-0.6052861393936011
-0.6898283686775959
1.4818326674469398
2.1127330610633352
0.5697501823045255
-1.8310166238881687
-2.060957901432228
0.9330963312899283
-0.9172737543847033
-0.9404826669703172
-0.7279448363076803
1.2535907315703094
-0.9541904506733514
0.7353836582048717
0.8026026143640914
-0.3589330976659805
-1.040120865940045
-0.8912980389026913
0.6598444570442337
-0.469696517820571
-0.6003084713274776
-1.1727327683313111
-1.3582257798164317
0.380222889367634
1.0894116778673923
-0.6757885953371094
0.3653124701100326
0.2321067129407372
-0.048946676191030276
1.3843715310176317
-1.650211787730812
0.16265659612677347
-1.1397169606722748
0.7072388593900314
-1.4318002452876772
0.38248880910925265
-0.03732622821566391
-0.17647027614907124
0.03147450545492784
0.3104868108947842
0.062119829801339406
0.6280209494531155
-1.4769875066286378
0.1448072793254348
0.3631043681565738
-0.010543191595231406
-1.1064242910989748
-0.20481321454481355
-0.16635263110226742
-0.020127639213078065
0.11287398491485119
-0.47889529128549296
0.08045775059329345
0.7874098053573193
-0.7147186668056587
-0.8238226029928497
0.08843352398841602
-0.16288877849970132
0.1798466234356725
0.050604388990959225
-2.3031861750856524
0.27283759123432744
1.8973056974716904
0.7277238069091668
-0.4705086472808724
0.8913440029690891
-0.07248124864905253
0.7190212796698359
-2.037537181649122
0.26669457412849495
0.5915497263290549
-0.1626487785990801
0.7350175802314926
-1.1997562031051485
1.6747330558857219
1.600643973208256
-0.8195872793788644
0.28769757440663185
0.12078426468114002
-0.6749614301468917
0.5172920639569742
0.8128082933071149
0.9321170294397747
-0.4857017059979399
0.06373433089046286
-0.8609452427471027
-0.9883873256214836
1.3902478205525235
-0.4652503530487607
-1.6983167644222288
-0.5399294098206878
-1.5049325854804245
1.0901131510462618
-0.7115903209365163
0.17283466803057002
-0.12006878757249576
-0.9590725783528287
0.022527690901103577
-0.486755400236267
-0.8336602272352729
-0.8486058073890711
1.0700197431358938
1.4135507938324563
2.070829459982591
-1.641938852139963
1.166213163775228
-2.7552341977930523
-0.37635999233838885
0.6288288856817709
-0.02088121229629834
-0.9601088784387976
3.1062167537694854
1.1399392187501274
0.7083220475515686
0.5234630014611821
-1.0289167150993765
-0.6489038050419054
2.2184182364097627
0.20809767311131105
0.08244127402523703
-0.9464328986831692
-0.1077887675600111
-0.7228140056295151
0.5020109376693821
-0.48292469356856565
-1.6610362247759511
-1.1457671157627998
-0.544939521546242
0.09072092017621615
0.2634126051398974
-0.8782778481072568
0.5331857212125883
0.139023057370999
0.2816946701430579
2.530746224576861
0.5405479314930153
0.8437727785960727
1.377461011327167
-0.26225938650021413
0.8639892847640026
0.6461259644419051
2.5393783003989703
0.1280207165098681
0.7183916233388088
-0.6093869598515915
1.0161713395614973
-0.546747039956963
0.9698249011138208
-0.14897595774877478
2.276780318297791
2.2810339048694512
-0.4298843817327229
-0.7269061556325476
-0.7709612180426406
-0.6908553551872746
-1.0068443841466233
-0.1296893454400534
1.1230289008124745
0.07102743067813036
1.0914432129987683
1.6002232737311093
1.2056711884084759
0.9361491454478397
0.29885714227688476
0.9018285363231565
-0.08375457646805147
0.5989938653351807
0.6341633566971199
-1.4398482396697083
-0.09018380366193353
0.3280481859118537
-0.05706428781769868
0.5495927257607881
0.5672575342156349
0.8697644230037028
-0.7742369375129389
0.43620415176610733
-0.5076743404180499
0.015896155922245168
-1.3538853227323981
-1.0418203300964872
0.6169429518221136
0.6468320997691793
-1.1029241513399926
-0.49910466063069453
1.3543809160159994
0.6468502963068526
0.0007213115231767119
0.612049449734166
0.2906142133134986
-0.8090118562432754
-0.06097860059219202
0.1908894737108585
1.8651461494012391
0.18169589029939723
1.2830704363256127
-0.057461615187333524
0.4335929259201842
0.3131079067697797
0.011843524256800974
2.005648364413965
-0.13847294063019938
1.6141572948177665
-1.87782693055745
0.27770056097910756
-0.5763947728242949
1.0043875896526633
0.4318181492725974
0.8654525485713251
-0.4680955647333996
0.4199299771499932
-1.1213377003362062
1.6323574807557546
-0.5880425056775789
-0.5971405253878362
-0.1838784717143748
1.0348237736860524
0.7084586979132786
0.8794290132049674
1.4578928205202553
1.0355284347844138
1.6476532471140675
-0.29151059624761017
-0.8049683176692034
-0.8890887515394272
1.4462199206999593
1.30105965891862
-0.5411224117126233
-1.4470038024349972
-0.9523609925483966
0.8178960753958491
-0.33862331527401085
-1.0492695778158614
-0.05608835333509603
-1.0363452436924592
0.7885823892930411
0.7331760662006567
-0.6373509465772824
1.445217133309794
0.4998876181270932
-0.5745070756832182
0.10328759478430945
0.7931423187269973
0.17219217388557106
-0.963683033598017
0.7834515365987945
-0.20684699786316846
-0.7599257035783542
-0.4418702586456385
1.160959565534067
1.4475166334917784
-0.1983099171572051
0.3029355303291835
0.7120996783193659
-0.07001339072045566
-0.2915792786183824
0.8159118241665143
-0.29993620899475193
1.80782735568007
-0.35046564708127675
-0.6230587928269806
-0.6060614965907255
-1.1468601286385927
-0.4160210558274005
0.09362487515203491
-0.1724695755400137
0.344075746527397
-0.34274594183234897
-1.1878740998662507
0.15995591087293745
-0.8074085799989192
-0.8679508575207935
0.32097746844472436
-0.7416014417070946
-1.86943119436176
1.4014332867296155
1.3770392401275502
-1.2627350722956172
0.13614400554812925
-0.8762232025649375
-1.2337581221535363
-0.01201381232827982
0.615741202895268
-1.844586687874819
0.803545760218599
0.24766423384568811
0.43401328922511573
-0.3142928087087486
-0.14326558607029283
-0.022403791829420844
0.4333397687709758
-0.9283142126179006
0.7490842304939004
0.8856512343341963
0.28872131154075054
-0.17710420571570554
-0.940293409007494
-1.4534695215500546
-1.7639045625024312
-0.8776731017365216
0.741028036062134
-0.06736440742993217
0.8846886091428975
0.4907034496518384
-0.14800532894788562
-0.39573381574393257
-1.3513568712534223
-0.7522790179496713
0.38209209796436017
0.3965458790295258
-1.3232856808283513
0.05680632130175935
-1.5539867639313147
0.6098352532834422
-1.0513393788760046
-0.8385635700527917
-1.7020470056902306
0.45607702541366796
0.5015327380648373
-0.6239278694237574
0.1177423612930662
0.8560769033646279
0.6695525027591034
-0.2087920588782776
-0.8079552815474349
1.0327666728759664
-0.5196880551303735
1.709045153670302
0.09447149602491998
-1.0432205244925903
2.0527226746551106
1.4809111650722007
-0.18996191101632473
-0.20919928608296234
0.45871949936155426
0.45519794489366155
0.3825941270326009
-0.14085445023199944
-0.7044262012423258
-0.2651005049453337
-1.6475508751668186
0.44161844523081073
1.6593493906849632
0.8182137743273827
-0.5233573383600503
-1.8192423624849228
0.37693375651635636
0.3536366367104732
0.19104383046265191
-1.659409929131328
-0.02454500853549413
-0.09580003434617683
-0.8755307312479028
1.5157469747113221
-1.4453632066321402
-1.8044184955112912
1.6993484576464148
-0.9220691959118562
0.7330474220087542
0.06430503862351898
-0.421282375465986
0.5463914968242436
-0.6228311215491931
0.2664409393643821
-0.4311640693269524
0.25819910385134753
-0.23487668386032937
0.09385810791524045
0.7743177240058386
-0.9778336465182893
-0.22447664290875155
-0.07393939942517573
0.6304812553324901
1.2118315115344827
-1.0191883870908272
0.9960659478829917
-0.8934240961581873
-0.6929229834404809
0.20106462844354456
0.9797182951429689
-0.6287816427185561
-0.09669449663993922
-1.4539308445677321
1.159339654090851
0.7940784746653033
-1.5715617938044446
0.38850259931838865
-0.3010180126163273
-0.14468107556097126
0.007094627701105122
-0.03329316181632495
-1.025215096680107
-0.34666417085065715
-0.05761077907042628
-0.006823448214008753
0.08338128115588103
0.7412469919861304
-0.7544150680317702
1.1633205352896074
-0.6190194741303625
0.6148704792491811
0.5123556480087599
-0.6650596375493195
-0.7465173031781904
-0.33514460616071584
-1.5895053323049688
0.8864194999888872
0.39518900417792036
-0.9700387344260215
1.167834034688918
0.052444258179422096
2.8770698983729566
-0.2907271393857395
1.4502707075071994
-0.1688604997736545
-1.5215521627817252
-0.9202370719857422
0.5936889391833821
-0.42930764141988237
-0.2534690352930108
0.3109802175184511
-1.7363249941275105
0.06995845964208568
-0.002320925624291755
-0.29093364072302863
-0.052271837276505126
-0.1870909483129078
-0.17849482078213286
0.17188256156127457
-0.4412833393495952
0.4554363149517354
-0.2722485505343572
-0.5651172938859887
0.9046366528827404
0.500812421153435
0.3611276953791949
-1.4023600112958847
0.3873719771391451
-1.3842080527632945
0.7313396214835363
-0.02346366345353091
-0.2024482068979375
0.6788092810167679
-0.7919157966186182
-1.561336371471275
-1.6467218283854606
-0.018765736848699328
-0.9047689101075057
1.1867013778379578
-1.5946168852946923
-0.45078898720774535
-0.5009330299852992
-0.8085827075994505
0.5627155888351787
-0.03261291550767742
1.0133693483846908
-0.1641345813872661
1.3134372062061097
-1.211251957156511
-2.0832422104053867
0.14202502171152173
0.556540343538818
0.5782867871279797
-1.3699849359501086
-0.0598292432264311
-0.29924295366256914
-0.9119783835478417
-0.6707671139075533
0.30072936959946284
0.9858776313894496
-1.3244660923317129
-0.4280821194626212
-1.6787279235594528
-0.3030504282530595
0.674996300404049
-1.0759025425544928
-0.9287047686161851
-0.157176924449934
0.57018014098278
-1.1115935117266957
1.8948945965543254
-1.3366126348189729
1.4637998672379222
0.18221782871014833
0.17215439700428942
-0.8301707503106383
-1.312818263098648
-0.33771301066127635
-0.07237817462898434
1.3479511256759413
-0.5683618364016673
0.17940648624418443
1.1316282004514173
-0.03239392001069255
-0.08863219579206402
-1.7148239576553532
-0.7963555822993802
-0.15780763320130645
0.6000972559055404
0.1504370833382965
0.33585857608384456
1.1134452766581848
0.8445768342688269
0.9628676754587813
1.2242767218371196
-1.5366680216562034
-1.8432831116724577
1.5359103746253255
0.20512713146887582
0.8864940038336282
-0.009012128722837898
-0.5442253030122556
0.24105725402163425
-1.535570858128679
-0.6533893297330448
-0.16065415645251424
-0.9933169236441693
-1.138991505513597
0.8868679070899589
1.2179696848913666
-1.1327970608768698
0.5382723970402393
0.6193721662998979
-0.007368457361044784
0.39251665533780034
-0.7438604748032427
0.24692579862903125
1.179865135538423
0.8094502367471957
-1.727979095030729
-0.42506801890131396
-0.9162041451090259
-0.13418560405605795
-0.5910914427806065
0.513316711908713
-2.083965628953883
-1.1591229398896115
1.8053618644775924
-0.6475369789272831
0.1292129522252091
0.3470319354417028
0.1466727968031121
-0.4539334068113144
0.39525688081304844
-0.18356693783966574
1.2059121559574388
-0.6057980871589879
0.09676091052615052
-0.13775889293365787
-1.05447007332987
1.2481926979021294
-0.26922904698665096
0.09051966527660776
0.7810654064788668
-0.04679414163257768
-0.3560636467933684
0.5192021483441756
0.22870220643267833
0.8658721134547243
0.28362287021781396
1.9044813392086963
1.2009126791516005
-0.7633933099996709
-0.5417547774745132
0.8839834726800259
0.954605320739397
0.8131452911695592
-0.43798974203197266
-0.63658744412642
0.24124828636528692
-1.5810975831836613
0.15291209526684116
0.2445938877623983
-0.5760054840606175
0.1639549940017669
0.9278916167050051
-0.1906398631071774
1.6625009141142213
0.7116420872859889
-0.40736361550793343
1.8110558386963622
1.0737337323969143
1.523958755745394
0.6709474297075331
-0.018150023650918563
-1.0808392438688834
-0.3479669007835905
-1.4301434428272706
-1.3498850224131678
-0.7366028565098174
0.3423874394385727
0.5834624454804729
0.14175163727024997
-0.7664669821962105
-1.417852872155555
0.28733550980042755
0.24026830601958488
0.37733558353624647
-0.024003720382647475
-0.8695756365927647
-1.8051613362569825
0.5856889917405625
-1.1982087177351977
0.23345064222294387
-2.4414650627371555
-0.6753389230890556
-0.2888124367909947
1.4481502702238294
-0.4770454696157891
1.4890473611630681
0.3652514850758077
-0.6480162871714811
0.566492005884999
-0.0525866575209965
-0.47290685527704435
-2.3063784816484687
0.27012717896608324
-0.9815111671190081
0.08066854957425014
-0.9788304746884965
2.039725116850934
0.2732312419085848
0.8583980537935038
0.15327579762210497
1.4281096553207902
0.7555490532556856
-0.08935437849412114
0.010804169837818015
-1.3350972056609645
-0.18172124180658017
0.08906705001229492
-1.9871157496562633
0.2697168375487605
1.0905609168151067
-1.2547306886101284
0.03994556281638774
0.037109023544756016
-0.467357134992377
1.8986186300228975
0.1653635320726895
1.0640442361813702
-0.17856054105423605
-0.6924714262550785
0.03292764276297188
-0.5871194920915931
1.3851959754202199
0.27972494031452944
-0.15693593552524296
2.0481028722440464
-0.8483956166427001
-0.57858282010917
-0.9961492780659965
0.1072110976403826
-0.23803063288090795
0.7797525325289067
-0.5458747031820029
0.8696250543182863
0.12759438505403337
-0.016014768820749054
-0.21317685303790015
0.07725058428890852
1.582640217737781
-0.448343209110143
-0.09098117805687389
-0.2724808101361604
0.24045490091776398
-0.9724633581229452
0.8966784017401332
-1.0095931441284127
0.9615310549179003
0.06935912635941273
1.429217678545938
0.3538373212376326
0.19852119170692584
1.0556037970325547
-1.1157642771981073
-1.461676946222602
-1.10151866132426
-0.41954070034466223
2.515395950649408
1.1176045483552357
-0.6985231042922655
-0.03475568738020442
-1.0514751538943026
-0.7703241560438948
1.4477972109471342
-0.4990416790156
1.2302138264519134
0.31353089119998145
1.2070197466452084
-0.36755102900156683
1.5544786756687492
-0.675313313001562
-0.2503666674168429
-2.2574383404557143
0.21563584561936294
-0.196098217426622
0.2788321276275269
-0.7338661442450752
0.7875759481475577
0.8919710659329256
-0.4921333216596919
0.9262949435920796
0.9629949064945426
-0.4908493163960825
0.5984509799002814
1.0280840690247603
0.11103937166551704
1.318516044142162
-0.7689855527891435
1.0123214219080623
1.1882221263646007
0.4372199063250601
1.0375550282419372
-0.6833461473097434
-1.3432242413701512
-0.9141068830732428
-1.297859431801244
0.5117607524965517
-0.3699997811186357
0.952670371419692
-1.6734567574673227
-2.276213909459635
-1.115285872097368
-0.8407677540695309
-0.9508706914072886
1.6821779971842539
-0.1830510506778828
-0.775985825022959
0.10364865254552517
1.4322296718881125
0.6387557802463407
-1.408446403651293
0.06821540840887919
0.931047009881683
0.22114440361866014
-0.41492507332141687
-0.4301516597951714
-1.6279962224831168
-0.5238157459218737
0.26581097402867404
-0.18278582883917666
0.18701888840251094
-1.3754350617570548
-0.8543084862906514
-0.46453971475849015
-0.5702521392697739
-0.3428469410015054
1.1521149556209023
1.5881250359589991
0.44319841078110445
0.7834646552605088
1.0981152284845974
-0.8143625516824805
0.45581517158188384
-0.4094893060195984
0.12381571803681006
0.4930403323507301
-0.5770184840044085
-0.08444478883165543
1.114971780640136
0.8856335213103319
0.577348101516171
-0.80978138454856
-0.5226995127558258
0.31819641737430454
0.8693990493193028
-0.8482547553959887
-0.1901183526385046
-1.9676802141839629
0.2999385196641227
-0.6777138369235016
-0.5928950773898289
-0.04514753999642558
0.7765304984931765
-0.455375113122471
0.11510735013828526
-2.131371134078955
-0.19416663338830983
0.9977516394107161
-0.4762449511861424
0.25153550295888816
1.7595841290867762
-0.4087095021881199
-0.48161060122810223
1.695737848397727
-0.4824154108570153
0.7380563681771983
0.1725957844213835
-0.48314036627967494
-0.4038207182899961
1.4994836859325447
0.4995576505113703
-2.2963268179347884
1.7767866628979505
-1.3945344726315994
0.6549647292166358
-0.27962331336680746
0.542563430877006
1.5890183147358559
-0.7727360732114686
0.8513134115474166
-1.5924785450859256
0.3973809257012458
1.0206976975125792
-2.1749127366166308
0.18636721600954378
0.42615614459721857
-0.12375390260328688
0.39237064091922813
1.1516275197381842
0.20526662160598533
1.9695055100816146
-0.22125435252485048
1.384284332057533
-1.0281772766718593
-1.598230179815131
-0.3647874632968908
0.21328354818268416
0.5330909014811986
-0.703583759035463
-0.3683823540827345
0.5979713545315233
1.2490079201476243
-0.5011187791190205
-2.0901496783199986
-0.11523989429000546
-1.1628962728399566
-0.047336353402799757
-0.5407557230144587
-1.1713324774733405
0.37721809578121435
-1.0566571392581616
1.9956524509366151
-0.5041733747377444
-1.6503277109142698
0.935260983627438
0.7619898012170475
0.437329239920126
1.5388018082749044
1.4216343758599395
-1.9243297880626797
0.9682909283893715
-0.8137472341351697
-0.5528608098117088
1.7903093264359247
-1.7152373603655922
-0.09801399601288165
0.7749545753859653
0.48710251455879183
0.8182326627591092
-2.3154662183604615
1.294994245940357
-0.8550961459632431
-0.15540465588765548
1.1261076849335414
-1.3220581264180244
0.9754592995596821
-0.34323140167330335
1.7508940953072871
-0.44268120816266743
-1.1715632589148863
0.7528183253309603
0.5523798387185574
0.09563812797548306
-0.6444156762328332
-0.6975054032062556
0.3824392383089433
0.5252853593247941
-1.445536553786612
1.0825907357872457
0.5932661413946987
1.1615034063426517
-1.1039377049649637
1.1790939497102502
0.9063633839387903
0.17688476801319597
-1.3482533908904664
-0.03335358872005258
2.092625989985804
0.8222737509487554
-0.18048202708957545
1.6223116868914027
0.01718023074992911
-1.923633321297774
0.2528310949652493
1.6118770328141139
-2.5671782540032924
-0.8651566083541989
0.2721465267798131
-0.6078781909804577
0.6904724007784971
0.673808852733678
-0.44653985853674855
-1.8603158538951
-0.4399629782977561
-0.6193790530351422
0.8624163094089551
-0.4258369772954987
0.9461240746614505
0.22599416142096365
-0.4938422446030398
0.808215808891801
0.38406157481437364
-2.6658019796528647
-0.47876402376690186
-0.018048408815411445
-2.102949602911853
2.145643248572887
0.019461881504373318
0.15461052913547824
-0.26653341685635445
2.6392727462024084
-0.646748450267644
0.6820691839737167
-0.724789361615189
1.5847113495881777
0.121259495932364
0.1884844799053663
0.6584749492881862
-1.2205828275458843
0.35570394892385926
0.20362270093878868
1.9450667897445337
0.3218360441374138
-0.259198782476467
-0.7585488203906378
1.4123801646785155
1.470198529042241
-1.1344723574551783
1.2331156483191887
-2.6853988056969795
-0.6705162751117649
-1.4679601923609378
-0.14162919789303982
-0.34974709585200836
0.7579872151011332
-0.02774664553932928
-1.1349615585724449
-0.2970301992733721
-0.012272396458527882
1.3513228874354972
1.0370480011989418
0.7435222026004702
-0.9085704933654202
1.5990158280336269
-0.5087990382583569
0.83219411524685
-0.23332914910575547
-0.8969205610376223
-0.2819786093464123
-1.1311919494963916
-1.0862803911875993
0.06471511908593847
-1.6217997374781787
-0.45233916846970923
1.3868808132558301
-0.6342256867298101
-1.6117983730808625
-0.5069368305814117
-0.3962471175086894
-1.551112860203679
0.5498179611185745
-0.8987120298528359
-0.37192501073133993
-0.08687074209600552
1.2287745532811507
-0.06235574302254246
1.2733724024907453
0.5059589065896068
-0.20533165395450856
2.605149849615569
-0.42261754500379317
0.9644676630830554
-1.931323020872203
0.0853492309215224
-0.6041505922150524
0.33847006586691225
-0.0029693935575455764
-1.446980107144485
-1.2586773724372042
0.7597529194463712
1.721327675260442
-0.29014440683852555
1.5599715513238064
1.2682860689531363
0.4475178051326661
-1.663207489923146
1.0501718010813117
0.24922497236264418
1.0366575917350707
0.6453505644939419
-0.13307873306123155
1.1104999769641883
0.30023476171713176
1.9990893196330797
0.706055699096353
-0.9700599460193726
0.057454884661014415
-2.3667384505442985
0.26555411754253705
-0.46435155579007514
-0.13092819679807383
0.4694734487023386
0.7859208211836287
-1.3597033337656876
-2.3492223052352132
1.0890261258814298
-0.058283456968033984
1.17744767054305
0.9613570358649276
0.21766417470112265
0.6649087806077232
0.7066174435054204
-1.7392256143621192
0.5717166061259744
-0.44120340993061147
2.776207054677474
-0.6370221507647675
-0.18460516004615435
0.5374848520390656
0.36213584247438335
-0.2557206136850849
0.16114990901057002
0.9500886413485723
-0.464475061194328
0.6626001623847487
-0.6205317227884594
0.21765191360104594
0.7195896639172439
-1.6500102926598341
0.04400814721074987
-0.1686804413984777
0.8719709346876106
1.2630778889146907
-0.06302184325198322
-1.6636457556716193
0.3147902555366726
-1.4707080092592921
-1.921384371123848
0.5136359533587642
-0.36071267774283533
0.9678761590345636
0.6001135433432548
-0.7408089291926724
0.0047342224615669545
0.24675229209910524
-1.0928794091655707
0.2494965214169038
-1.251341842293107
0.8119598773236218
-1.5375624413043765
0.08816702126263765
-0.36466460844915133
-1.6436052844618385
0.7538209772240675
0.31799043237524666
-0.3136394244831234
0.6739397337933148
-0.23307258758271618
-0.05564788053547072
-1.635732600609311
0.9817833844118087
0.45466140326815324
0.9936900621222317
-0.3003899413561991
-0.42590279172274875
0.3394353991892268
1.2492390358322738
0.5952707233132479
-0.729699897701089
-0.4197320220453667
1.3416446910067583
0.6854846811398322
0.04510563211252749
-0.5578034291050316
-1.355390287639889
-1.1531803487067118
0.5562708580463523
0.20539060696849315
-0.8764607935641934
0.7299984443126342
-0.9213187171763579
-0.7264461877638207
1.7851916068583238
0.38235166446138386
0.5719946017539174
0.7804278032445261
-0.1939270025372542
-0.05589680243427435
1.4661257936332226
1.855013901498637
-0.17610240943710062
-0.1381667035068966
1.1475888363801274
-0.2708627101311321
0.6306833425424734
-1.5831104260009232
0.1021486505173581
-0.5970573177360227
-0.15414064458111543
0.33304044562896873
-1.1857989557249762
0.10222472573478314
-1.7868637053198773
-0.9649159931630865
-0.5537273971867386
-0.7782697499188811
0.7826248576825849
-0.2771641867423769
1.6768502525011586
-1.4548877649848035
0.8059391216235132
0.9902665928274567
-0.6864376158512339
0.3637376336751575
0.3353942226091329
0.08985416636448966
0.47072405659363015
0.010175670918359244
0.5931159064152015
-2.0059674585250256
-0.6257864566376938
1.1205424858624797
0.04335501233104279
-0.16262100776673039
1.1567888154554062
0.7706216156509818
1.2149273122109614
-0.5569061213365142
1.3869795282327502
0.36993138966532185
1.0863525006789103
-0.3617317648531222
0.43417879974482604
0.5667665537447466
-1.2106196766191655
-0.5757987461155641
-0.08795289080725885
0.21961419942650198
1.0862898686559044
0.21265781631535455
-0.9028073619427774
-2.7505992868208864
0.9875002553186553
-0.769018645230611
-0.03923357040013175
1.3292451989800176
-0.1801960260925927
0.3534591129752324
-0.1144916627376664
0.2580807531542868
-0.10266374061476939
-1.6984884635287556
-0.1911124797466706
-0.10981502890619725
0.40693025994715215
-0.9359141109148499
-0.5897766358796606
-2.012436749637492
0.4621623279916604
-0.7255721529170648
0.5213666355392115
-1.1632992272128735
-0.8387773642461724
1.3155202764039635
0.31286386315827547
0.08953991943065384
-0.2263435835835438
0.6234141417789242
0.20976042231424238
0.2113190653982237
-1.8322529341424947
-0.01624015757531283
-0.46078966193941784
-0.00991299404123143
-0.1683134033534288
0.8760896881213829
-0.31763240364038775
1.3629466741218794
-1.217472762867866
-1.085658212831977
1.4359392938772544
-0.09790581839436739
-1.2854248679974296
-0.2832236410852411
0.5435856982145207
-0.8643699718507271
-0.6672568418046233
-0.452796850157017
-0.3136176362538232
-0.15686786805931296
-0.345810987013787
0.8061427722262582
-0.6181419453704485
0.08419641075531249
-1.8791262006046474
-0.08721096666446673
1.0434158235607947
-0.06800604056534612
-1.3333847935025418
-0.7884331863769208
-0.475793706501507
-0.24823949815625404
0.04762654711065634
-1.6522097805667697
1.2165177488845236
0.22330382257984982
-0.005494110146600526
0.43337567826333134
-1.2859477444294183
-1.4284331110165422
0.9502567542982354
-1.0551826564520492
0.28251090229355513
-0.08959031836187163
1.2532586083021038
2.22761751119327
-0.17275040260567578
-0.2686434748333678
0.14510158003709678
1.7878041498737642
0.1337687529296414
-0.598600642572809
0.7918049558266972
-0.5028523374105626
0.5143857116747176
0.23010270032042204
0.924586335190529
0.6789178313828309
0.23970129160602932
-1.4481098307673055
0.5745590177282951
1.720403227384664
-0.00934706172404972
-1.181383882256625
0.1841897051013939
-0.8258357519180035
0.714088259193974
-0.6889672490726078
-0.41018018174774284
0.6605614357874224
0.8524027330166101
0.7846718767869035
-0.5369295606931992
2.3242768231006914
0.48522347877932287
-1.5596437142250896
0.5796186043463519
-1.3918411199277738
0.36275421788493944
0.1965025330756839
0.30979269746275045
0.2945018867554466
0.7032798928532853
0.7251372371631308
0.41904703055793996
-0.5780563580689475
1.0580517615075617
-1.2715452542166235
-0.7478633745101577
-0.5811772535449437
-0.05327106154398072
-0.3779671213992018
0.3368259000900622
0.13999414930293738
-0.14018292968511745
-1.466372579773547
0.34885514457552497
-0.24567697729544952
2.6380615419533595
-0.0804187791489595
0.2839038767343406
0.11828908787113865
1.2254445361571058
0.9115176602152606
-0.6451666859920604
-0.9464718012181034
0.16972773938217806
0.7077047980002634
-0.9205749737585502
-0.036663099285803975
-0.14900466902501242
-0.3558438442468677
-0.012381696471639999
0.6222875621201094
0.4500380690089899
-0.26356206884631717
0.05360257229334979
1.0662161436973596
0.33342603106432717
1.5148658363602499
-2.0028989921874425
-0.9122437634004591
0.15047195638888877
-1.5092800944369225
-1.1493753599388763
-2.9043900129028204
0.7523474758081353
0.1344648884588477
-0.12232311864392029
0.9803730472352844
0.030538970292350004
1.5417516224575911
-1.625553797625487
1.8537175562647303
-0.10697645606145152
0.11237666928095767
0.9728432731978313
-0.05586414768293871
-0.00949783595963528
-0.5873672738973278
2.3948499971491324
0.4232239467728558
-1.4057238668066794
-0.7862027741205287
1.2239510240439522
0.8958886108045042
-1.9682972185357979
-2.021255255700775
-0.8437069398698703
0.2653802479083366
-0.04443662222157356
-0.05117924770723506
0.9085575348843443
-0.1348827791794029
-0.18280955035959456
0.4325466475063708
-1.5860874244201941
0.6014735637750557
-0.20557379276849716
-0.3738624821130311
0.029405692576405008
-1.879043613951532
-0.3521756791445088
-0.08336599241050761
0.8773564895977967
-1.244223004974258
-0.028561258273193304
-0.7564512397020952
0.44885514901178764
0.7257834827719748
-0.25155223314332653
-0.1018853325333923
-0.9468645064274944
0.12292774310766845
0.110605516429316
-1.489283711062515
1.1378836408460327
-0.3914885649636507
0.12473024127672254
1.6677950248483264
-0.30152811892938297
0.4437545936037238
0.2959803680502177
-1.115396817247564
-0.3469928684692881
0.378280565859703
0.8481272459427145
0.3422191521995819
-0.5916768254243373
-1.068046662271037
-0.4592996319894651
-0.17673940207023878
-1.0740733046979238
0.5896034425151727
1.8302664345459505
1.2263377044476775
1.9889111936901702
-1.3412926806992331
-0.14163884066527316
1.6565009061320477
-0.038640421939032256
0.6105318432512564
0.6291100908604095
-0.3304197068845478
-0.4591623281440828
0.17190767272510685
-0.48269212061183586
0.13908385762284514
-0.1646930614582755
1.191406637452966
-1.017447151840966
0.6835092542875854
0.6569184657357492
0.6330538442037468
-0.5404624967355918
-1.1917467947591922
-0.5349612417541232
1.3993603112692223
-0.6561760464012582
1.9625705454044955
-0.15554487679319165
-0.2567137757925139
-1.2419621408442871
0.210326191294694
-1.4855717236570902
-0.30998292561909546
-1.3582138266388992
0.5073381739189777
0.3773162586456824
0.15406599317347747
-0.7468862345365717
1.0367324961850415
0.7791802217965994
-1.120910096381886
-0.7979676458716847
-1.2171055720208508
-1.8841438335342522
-0.4346373924681466
-1.0246309888047747
-0.14276307705787297
-0.5818636320268472
-0.6019744006141929
1.0528425072078742
-0.15098699911129726
-0.876352194997589
1.3386744762908964
1.2459176547571142
-0.6418637022567362
1.3521607145594814
-0.2423671264100723
0.5137377099958742
0.7665345720796818
-1.0022128801154948
-1.2059978306810348
1.6017312908957755
-2.6495622819486058
0.6031993228039452
1.1186682811769488
0.49856119152634437
-1.1926122456913577
3.451332771090486
-0.9033749636639116
-0.6567111511411877
0.03353816383305868
-1.4132194116846954
0.021535959896307588
0.741087294103104
0.9610978667937543
-0.8344778477876332
0.517943920792956
0.26485088469821955
-0.008708900489880492
-2.29747239883333
-0.16689428645553422
0.9597657291329674
0.21233317018283288
-0.13922608836705272
0.5605011989054538
-0.6918037164173807
0.9497115759537693
1.8684171998246624
0.8126578550663207
-1.8368350210903253
-0.05930294365231693
0.1503068960020417
0.6587127590690797
-1.5198864958276157
-2.198140729825981
-3.1783575173783385
0.7085339400103898
-0.35552064685077
-0.20761331374069616
0.5145800233996465
-1.2625313931280515
1.0674447516370622
0.6605582405928287
-1.9110144690364252
-0.3013573781822953
1.2346098449507183
1.2641159812964324
-0.258937179169619
-1.110117593559938
0.41455082501600565
-1.8655384085915687
0.04519547278548691
0.312252730074069
-0.20497968065393124
0.544005247123692
0.7773425110601844
-1.4587705538390185
2.715002031750604
-0.7351309113628769
1.3860122294119253
0.5608146115892566
-0.872665853210954
-0.1986234716356109
-0.8376207986917836
-1.9030648996338382
0.24660548567022597
0.9525213570835793
-0.1874934108884814
-0.7705402258821099
0.9341495942290886
0.9601533255182231
0.44948570139643107
0.10334302189778556
0.41070734917068125
0.7521522230593592
0.9526986078468576
1.9252238751079673
1.1109204662871188
-1.2295390854331434
0.45716512740637466
-1.0882016665479362
-0.5268151151708506
-1.1484617231916703
0.3904088248191713
0.1043919810026425
-1.7262010645542583
1.7585874047451875
-0.43097283304836154
-0.9745226677043562
-0.08235734548279496
1.5251209217682096
-0.09577830872640138
1.3144817794045298
-1.0849228674689044
-0.4437569362292099
1.1061394165715714
0.10858935923190674
1.9850163980890163
1.8998152039210698
2.25247361881685
-1.027325053691411
1.2419152792293893
-0.33391468796866486
-0.509806748536002
-0.002990426741184923
-0.5686890668048401
0.2521627498735858
0.3460812759257311
-0.5336883074215385
-0.5987175980019243
1.0621078171628966
-0.6847834333163108
-0.8768889113638767
-1.7160989389107562
0.8562258932807585
0.5816795426064287
-0.7932382642518532
-0.013672907230905517
-1.052933733817819
1.6428890850115152
0.2869385059422689
0.6726986042839971
-1.0248104350331586
0.34689742680757374
-1.3037449996355313
0.26689110393793075
0.5199062769845637
-0.0016295821818822817
-0.8153270489763155
-2.472700064477638
-1.1619458716279945
-0.8895407867286657
0.26156174943235205
-0.14599462408199385
0.24193438745138396
-0.6271961293043643
0.3799353324111827
-0.44247114113517577
0.37604580821477207
0.6607192532091766
-0.7142905754142234
0.15607241415729112
-1.7144129782702375
1.7902426019850644
-0.6039018878758357
-1.1832248484888954
1.2920343421108673
-0.5150041795077451
-1.17182349312049
-0.2615581330095423
-0.037506556508181556
0.2558533744853942
-1.1190338147251506
-1.140767360080211
-0.4063709575684634
0.828786795018954
-2.189859483480296
0.3233373108645105
-0.6770534043182832
0.1092144067254776
1.0420481655609508
0.008145038316338973
-1.0903457660304388
-0.6020980103622344
0.16359240783274928
-0.8337007693816194
-0.23452536203191943
-1.2090044763041348
-2.6981704572843017
-1.2064847277236963
-0.0487825528137582
1.220951284416591
1.325315461524147
1.167796443206185
-0.8290850296265176
-1.3688330031756122
0.23010327041344278
0.5265616903122134
-0.5081609958549623
-0.5508555966504738
-0.2025169313115141
-0.9075429498405903
-1.1738425914024584
0.4585037391169175
0.5772196271676636
0.4922770249030918
-0.4782482889378879
0.48975826402292816
-0.8068381377436794
1.6020965426202542
1.7751680273605273
-1.865234957074907
-0.3295769296531154
0.35000429826315393
-0.33478932025131186
-1.3864384260387617
1.7674141890297672
0.9062053782914445
0.5200198422068232
1.0251508466575834
0.490769003877675
-0.16293512766610624
-0.5715179767977394
-1.2119649190547548
-0.13582557950377025
0.3333988431993424
0.7128130294918348
-0.3815350864536098
-0.7181029232223798
-0.25038854165660945
0.63069952530647
-0.876715152872129
0.5513661864107872
0.2981989749161416
1.133351229652953
0.04279635113011522
0.25027897616436656
-1.1140529324642694
-0.6862691173416082
-0.49136220303641004
-0.4619249883920899
-0.390561661662362
0.8620958136064878
0.06476269047621727
-1.4472874512072844
-1.5951873406636945
0.29697395884143546
0.497444327973302
-0.12790483431847646
0.289286274273894
1.7493941463754066
0.0677959596998917
0.3189056993945971
-1.510078817024444
0.5369763380216677
-0.24600658384007726
0.2936291685903843
0.30644783714108503
1.1702115973310616
0.7007101283293088
0.07629734669598436
-0.8231207711330593
0.17061811561534865
-0.5889956728640109
0.7526280322868671
-0.5781677282183394
1.0123364532793333
0.4193236745410274
-1.8100940052833228
0.6705024008870925
-1.0063281377343076
0.25134334261334607
0.07169072246275579
-0.5902957812199262
-0.5953831657832551
-0.4194831295106284
1.0130141339753294
0.1348973948352152
-0.3990463037231642
-0.351761277423658
0.3921382872274611
0.2549711842004831
-0.5559218128751827
0.4680496764297333
-0.1770233288921485
0.5396160364118324
0.35659120955614926
-1.371834861320668
1.190180506244576
1.8389289203811163
-0.8540645358883763
0.25600185068159004
-0.4683206971815568
-0.2590581479181565
1.14698745078831
0.7303203038450541
0.6395379500780554
1.5495044277177812
-0.7438987414753994
-1.4605793544965135
-0.6107462411683505
0.5790011930628634
1.1792290619769312
0.1388819429143987
0.1604780395475986
-0.7373791529402617
0.4230300231829328
-0.5516062896709286
-0.7741300800902869
-0.18197550166454798
0.05650602681626704
-1.2791312924115144
-0.26150330387305776
0.13747967903037553
-0.3312930888517068
-1.537944606632175
-0.5559746340870679
0.888774433092241
-0.15221619825703953
-2.167755028320754
1.7623952029324321
1.2089211375984077
0.8267262538066907
-0.05344070172434032
-0.5706771148514234
-2.4760412836268175
0.25281847607577795
0.6333194745594272
-0.33909774570651363
0.712907696162273
1.155409096367845
1.9002530136346252
1.1116556805453848
0.41765488984583254
0.7658212123442282
0.4634470028657826
-0.8347043772534289
2.28161311730204
-0.06370111700393091
-0.6629356962084827
0.10488778537736163
0.6238204834367105
-1.5091254457328507
-0.6806269213161105
-0.9400084169749903
-0.5835561153750108
1.2367249905130828
-0.50729148218581
-0.9173721217668726
0.21312802056115768
0.04274614006563279
-0.9873822030997195
-0.4903504299609146
0.30573040784379646
-1.7588567908259878
-1.1086119400514167
0.08662082589086297
-2.0754512451985034
-1.243689548285104
-0.8794708325814723
1.0199536093934476
-0.7250539789487697
0.057285359088530656
-0.3267021096758379
-0.8181686848831392
-1.9929471359318944
-1.179039593992996
-0.5996860493421194
0.043324960891081114
0.812336347022424
-1.4504823817818417
0.4264523540519706
0.9630000916116188
-1.6468973444983848
1.8186889774390427
0.38972524401986886
-1.421058911713092
1.0134403462932484
-1.889348450223729
-0.19379032065169946
-1.3511736529489107
2.056330950356591
1.06597551752663
0.590101740240839
0.9387275986208592
0.7709977154306136
-0.7855639384116146
0.49931399953492295
2.7900135514829993
-0.9250922507347834
0.5945574090837563
-0.6866707200266621
0.7197860692116813
0.7072329127543012
-0.4167793787496829
0.21150319926334898
0.4534432755944253
0.6241818088135528
1.5176203667501196
-0.6371371160683561
-0.35280337711058074
-0.9856710032734817
1.054720751307321
-1.3140718983782496
0.1417288503050301
-0.08465084851004859
-0.689363751476382
0.285821866805243
0.08761061270951914
-1.2675821419774977
0.03884366104605516
-0.33201301672393013
-0.4610564813990158
0.9689979396416402
-1.4291531363732612
-0.017397956934764224
-0.2868768522540307
0.9643143464310283
-1.7804144662886932
-0.1593136564716828
-0.7019779769507036
0.8654343195865462
1.1830226247048927
0.23172062875829166
1.347760935522074
1.070485106485321
0.04474343455143178
0.8086957067018624
1.3198838801499126
0.9077002840146161
0.9614582561730259
1.708585168918363
-0.4259329321704584
1.208791912858458
-1.003767840368415
-0.6572093423572228
-0.029561263452858626
1.2439429187339115
0.1360790888544478
0.09579301120104153
-0.062332033961443226
0.7266520252636612
1.188945684207267
-1.5865893271535163
0.8710871199299446
-0.32166836132447985
-0.576553701811609
-1.5225782235311853
1.0269078507017526
-0.4117877640066045
0.010439733098041389
-0.583587949247862
-1.7517270389753374
0.21139411517766724
1.133795699230144
-0.6551493324597917
0.49439775914126083
0.9711276441081013
0.60521576926107
-0.3236049080206952
1.165150416110473
-1.0797695427040792
0.7630322205412688
-2.145417176721584
0.7505486832174948
2.0948469263199896
1.3650439545983806
-0.8279903327439471
0.7076484924935958
0.36417895970866265
0.26392907441179614
0.9789171322840041
-0.9233410908319587
0.7064075584061387
-1.2863972506138923
-0.22021555320683242
0.3517029275972487
1.3528445670568012
-0.8586267116888985
0.6640913292033336
-0.16471372531693895
0.4443228763172453
-0.00959786685085797
-1.2068057541805677
1.362703184163383
-0.024410376065549435
-0.5869207859910645
-0.6390634828366536
1.0542973364340749
0.29395337058533366
1.6358723724317892
-3.1850724515808144
0.8656136022085269
-1.9172685820562978
-0.007703745335144078
-0.21516914389416397
-1.2732956274278315
-1.7673756095030968
-0.8999254114573099
0.9387484313270968
2.269228826125526
-1.1902340971881995
-0.9252004403084003
-2.5503567500540596
0.06264257761096467
0.6095111877329982
-0.8428703372149808
-0.6556798006680791
0.6407032507497906
-1.84737774522258
-0.8019467956052275
-0.09704521327156647
-0.3338836293632217
1.4084656525607178
-0.725213326368814
1.7973456404430876
0.8945316389541517
0.2608310974780819
-0.7870645231198283
-0.10300728861903713
0.32940427538279693
0.07985144176205014
0.2350506534695408
0.09697675491957353
-0.0634928173704483
0.4052642312929298
-1.9550189347982985
0.34121682917876967
0.0421370997941896
-0.34147374712929984
1.892040473169354
1.5858693578082166
1.4784450360419554
0.41118914614256147
-1.1181517124399074
-2.3922504378177396
-0.09193138233226458
-1.0130463590391856
-0.2775297430122707
0.9369089859350005
1.3911471168557474
-0.13788879108554478
-0.027757818060960313
0.816635448344947
-0.1368310402881829
0.29433290083736724
0.5209629965472463
-1.001561779806813
0.27672680710331515
0.39778600181584334
0.06234141086334494
-0.6701107697813267
0.32563784148459457
-0.5362362015427246
-0.3178456794867673
-0.3398225201307999
-1.2156138500639546
-0.09897417939258706
-0.20186376996846675
0.9162214494371005
-0.7429091903672467
-1.3849712572151727
-0.6893044774499701
-0.4267022031221564
2.000865448308628
-0.0003736511973123194
0.6431583959569162
-0.8685687923718964
-0.5293145945450979
-0.09246374190043624
0.799113897786231
-0.5870687922356148
-1.1442939082657195
-1.9902419648658944
1.1256861910185927
-1.0668522607578557
-1.407857141790785
0.5676857748850022
-1.3121056728384102
0.24941506866205268
-1.082442460972895
0.8848905733132965
-0.7849299217503368
-0.6885927281864608
-0.00140045593118338
1.2447976771858595
0.7620860381362913
-0.8907521895716773
-0.36477748634362056
-1.1159053590006132
0.16979896882040138
3.012310552874612
0.2632925796955702
0.599957574123373
-0.15567804843958294
1.2491909847413454
1.2823159501057209
-1.4361824541317516
0.18709581289384947
-0.7672276784193041
-1.3148754635000979
-0.250285504999336
-1.39168590881267
0.9959827831769243
-0.5539394296589732
-2.3037555229163127
-0.3471751418887264
-0.7213654252208481
-0.10718850469408485
0.5320487157477745
-0.12567274255668923
1.0556174203733109
0.46095541496919346
-0.9761219464128152
2.250013680495211
-1.94360760941488
-0.45061663590584494
0.1030739226614107
-0.7130581436579779
-0.20297515692961338
-0.5860095632415254
-0.6232414207861682
0.19165711902233465
0.5224205283399095
0.0875005673879972
0.17920263206796821
1.2528807540920714
-0.09026338161432843
0.29032978077856486
0.5890533155641707
0.18403883184737782
0.17310842224760042
0.459536070525048
-1.359569529879805
0.6922293772206849
1.8183697739131772
2.430873723261158
-0.5397420325507664
-0.8118846936690154
-1.014309594702274
-0.12057349500167548
-0.2949479974374583
1.206695317529304
0.7807101093337234
1.4365519219861662
1.301017143188282
1.1951911942653382
-1.89846175622991
0.028641891769895716
1.5869758869251875
-0.2017211222444513
0.1278935010836883
0.7233714930889932
2.4340723842312055
-1.3560987820082042
-0.5551093022480841
-1.0376398696892304
-0.24977167460673
0.2956069529926047
-0.45090106210828157
0.7858682394141321
0.21142202276332228
-0.41303621021094056
0.7829742828345395
1.6832482295544335
-0.9590163507201042
-1.277061665406747
-0.06129838305841221
0.0734826071874591
-1.271252444719577
-1.9790051296009643
-0.7516186720571841
0.22748953919669618
-0.031820302804454
-1.4231525707279344
0.17723210840997217
-0.3684020710868717
1.125577140884483
0.6558071376493305
2.1347681397595855
0.1004043162173564
-1.5758776636714102
-0.8015016568764066
-0.9740868488866842
-0.2064256221172137
0.8019646384611142
-0.7399042155366271
2.903358008493456
1.5943999437864476
-0.007893253798784626
-0.8262934995191374
-0.4328236947800109
-0.5899040257158975
-0.03254889896667168
-0.7388999439724312
0.5971428526108095
0.6795347239062269
0.08926349061196867
0.048649555082929896
0.47216077225087855
0.24726857395293456
-0.13601855948721228
0.016383789985273265
-0.468239043911749
0.3394466271534606
-1.4273818922605304
-1.5660495046154987
0.09358419171291187
-0.1580989023794664
-1.6186633961539927
-1.605960805873173
-0.020697048387800024
-0.11003215905912607
0.4527438621529461
-0.25214203795975754
-0.9641042138704343
2.57883349728774
1.0085199431171368
0.8311038201988907
0.47593896037003286
-0.5667123145277577
1.7801303085006164
0.5988626652107744
-0.0549203727285022
-1.0104299092266638
0.3456476711735591
-1.039097558736382
0.1476843430232442
-0.23540591464535254
0.6955250122619717
0.44900596256116415
-1.2617635972495584
-0.3466690553522717
0.7952903295749255
-0.8730260502550778
0.4260976179103333
0.9077021527155827
0.37289562600972953
-1.4968273362944717
0.2448278653409154
0.34544812952050863
2.4559871629679186
0.32992019001553935
-1.3272593190393924
-0.39346217613188506
-0.7325198598257764
-1.4644299605209088
-0.32427209591420536
-1.4345485135511324
-1.003866617139027
0.010623598316865929
-0.1564528365005939
-0.48911279662255197
-0.5100204210880747
-0.4560709859470455
1.75132939035434
0.024900048736851775
1.173560174590893
2.5417401231454178
0.5294744243935707
-0.3514617797301113
0.9410967135634495
0.6996810038075539
0.24036305098680252
-0.9946900098999559
-0.0119979592773
2.342438083179017
2.4718844674452516
0.4069545707452945
-1.2148095893538922
0.8953024811355885
-1.5493492821374963
-0.08365760678852957
0.5757515385010694
0.6782450321789935
0.3162294845054224
-0.8391859296087061
-0.5086950847768785
-0.3298654710122865
-1.449427807077641
-0.4414084483013752
-1.192113655358255
0.9063369370831184
0.018675475523642345
-0.37288666752399546
-0.9141105008451448
-2.2337910533555783
-1.2540101627874696
-0.026783443801926987
0.9100522211250124
-0.4161371265509706
-0.20116762264760357
0.3060818824382549
0.4573725327622167
-1.1158431636920414
1.4055651556766666
1.5786969280823704
2.039805281321587
-0.0025721909009967037
0.7242454390732131
0.08519405412701793
-0.8524259324030944
-0.5072619707210303
0.12234902897048838
1.4750946539158158
-1.863822216346344
-0.2714418159683451
-1.4926436822989988
0.6727369764569311
-0.3983935144522908
0.04497181157849626
2.2090433048004265
-1.0447946577265639
0.5855717326931661
1.6738481859670837
1.6809306124707404
-1.3041746734905417
0.7768837876936823
-0.21541431965560312
-0.5064991335041691
3.4954901955482782
-1.0611391906423768
0.32756895057770025
-0.007612304900086633
2.2979365109607346
0.3793885241247617
1.2756301924817905
1.0480395990087694
-0.45167682531118664
0.5149092209000123
0.6528447453883177
1.624979110045891
1.381006357262636
-0.41976808236776403
-0.2967955228421353
-1.493917063224466
-0.013616375886672897
0.9006505240897661
-0.3706533607805005
0.6073322677633363
0.13324887791273932
0.7401081767374587
0.21108482835771972
1.024508492322163
1.0256313659692142
0.05883619068967891
0.42628432174523084
0.5974345732046997
-1.4567024084739666
-0.5296391118799809
0.7468368889513327
-1.7783185037361642
-0.1841521337692071
0.9060095644643615
-0.09274537831401232
-0.9344105337201221
-1.2128968745235298
0.7660758951945159
-1.0203872126646372
1.2669911844184056
0.015563570972665246
1.2164003733935638
-1.619838101576364
-0.3219185141888338
-1.075692059934946
-0.4895421378200387
1.330480953607992
1.2343966707933391
-1.1248011397687885
-1.2096794670696942
2.458566916807948
1.4170209720489144
0.08957103452562082
0.9472353402037119
-2.044133083789616
1.3677990174661798
-0.03197997596159181
0.11015561915080102
1.22878578459418
0.36816170570661577
-0.865269454024773
0.4500674471406747
-0.5280709622957457
-1.2870524447354765
0.4852385385473666
-0.05590663281085857
-0.24254047449617183
-0.6312072479134383
1.6930942321563334
1.0975180415843013
0.6417224457694897
-0.00892975861141205
-0.22136387157806592
-0.2775730806067765
-0.6137372850346472
1.1039503305038112
-0.1677884151599478
-0.11632686967381416
-0.6205711035800086
0.010068996855238571
0.2656907960777484
1.1697358357674879
0.18606519780460243
1.484031175173657
0.3702413665000635
0.7713582332162678
0.45294328353323243
-0.9547579195623697
0.14968067049960732
-1.7334189775423305
0.4870267382559275
1.2270813258622186
-0.31965753798579744
-1.660199162511337
0.3407001784359983
0.08440601671919425
0.41041324429421566
-0.43645705121611933
-1.4193054641561245
-0.7743002982976093
-0.2936366141904129
-0.13312582317194957
0.7538093972665455
0.2981822197005606
0.8001539429319802
0.07770836208624098
-0.8487552147479727
-0.4207610117443186
0.6098424355297637
-0.11689545496774878
0.07466839035560045
-1.8597080167624669
-0.6075197314927946
-0.871632066700586
-0.20251145221740904
0.14022130271650574
-1.7579119895699402
0.10805779296129742
0.6908831711263852
0.43732212665723225
-0.7619270718596318
-1.1967263442036877
-0.12414400309544786
0.787784810370849
-0.26589536735951974
-1.557561974359231
-0.4988181672803246
-1.619096973117819
0.7374400225430073
2.617642018402434
-0.1502528446674811
0.6437914520533398
1.0826166838802602
-0.4585893118712961
0.5584166533860477
1.5887903723356867
1.7024333913630176
-0.45885710645946476
0.245739707057378
0.6589303232490555
-0.9123719592946107
-1.3653685065721257
1.4697828775963329
-0.7625164211398802
-1.4720678342538631
0.5031197059468117
-1.038095861923461
0.18174522425702888
1.0007751418185487
0.9590298120086215
-0.05392645306729131
0.6487075541242873
0.450374360652209
0.690221257451808
-0.11717105229476962
1.159337553231836
1.6498796984462727
0.9487348454357277
1.3146037786414262
-1.6428611800881505
-0.3007846421416646
-1.0673985100823409
0.7731804252120775
0.16902628975714526
-0.45786247365950355
1.0097593486246041
-0.8271765115864981
0.5410221020360996
-0.03515586299801853
1.97822206338749
0.3383358991172362
