-1.021374242737245
-0.1744707881121196
0.1552516557635719
0.6030568735043217
1.0745212895749054
0.17262723919047002
-1.7342362167645369
0.543175219110644
0.2011919356763617
-0.8105017226723494
0.2850729645431381
0.32265088559247135
-0.5689137083734336
-1.2246877153515774
2.1227502574000563
0.8116331701256898
0.0455036678757358
-0.6209492233744882
-0.23229118427390852
1.206798229365031
2.075528924954723
0.5361100711586342
0.2151014189516892
-0.27685869847507993
-0.2828996995159858
0.5072703670054982
0.10602880215347979
0.9131291178072636
-0.5304786546408276
0.7299652313650986
1.7380243745411876
0.023277161424698094
0.46008092758211766
0.8897935967470253
0.09200981855161225
-0.8153887449679544
0.6818545963877437
0.15047726406425638
1.7380938820513716
0.4760871956981469
-0.037434486147936215
-0.5616013538513936
0.735057232257823
0.04292830909600429
-0.9127237996617618
-0.4477030081547251
-2.5741169370696557
-0.22748022081820304
-0.7174793283977248
-0.14866561396792377
0.8184203654853051
2.1260725086975993
-0.5306140611638998
-0.30792452430438444
-0.46851961920396445
-1.7057038765965145
-0.9404519357354031
-0.25131893797504595
-0.0029288093747755362
0.5558947257450412
0.28292003739684146
-0.9357738742719072
0.26287886317466364
-0.9484022736815294
0.6424906266058129
0.038234894453146644
-0.962366596015434
-0.9715657212191969
-0.6146864918046775
-0.13788822017193367
-0.1873715989285119
-0.695619233125606
1.1661826999026517
-0.03969995437012065
0.24036183121847482
-1.4884855646006816
-0.1632396458854414
-0.21201123515437093
0.19465040987369514
-0.5739418811766942
0.09161516591775412
-1.1014242336158366
-0.5760321396733765
-0.7321947318269241
1.5687421092580365
-0.7932805491964124
-0.14646349347642332
0.3831345336327162
0.09198779327790312
0.4240227577822188
-0.05243051896151462
0.44487083119556986
0.427541825913295
0.4833161173554749
-0.5242314443887574
1.133834988230613
0.279047639439315
0.3108793621475329
-1.240859843611092
0.012153297206976995