-0.09723736958524679
0.6288704712006408
0.49005854674257815
1.2747434907960615
-1.0016948311608105
0.6068245053470817
1.5954245228033987
-0.018175508489465773
-0.5475706779024131
0.06943547674831026
-1.8320768199221082
-1.7435221849256475
-0.257883258935221
1.704962009837991
-0.07513106034229323
1.2096734916431222
-1.7952322003271173
-1.4511910222004318
-0.7585765124636544
0.1710397770648274
0.4896579810978878
0.06180896221612309
-0.12862675335389942
-1.1176036094109179
0.6090412988070417
-2.25243830696306
-0.9099178877256358
-3.496937351571442
0.6541298084682426
-0.2951468769399995
-1.1933884226648432
0.08621166101749426
-0.6376582789642264
1.29621488506473
-0.9456483191752947
0.019825258212713685
-0.11107488853139516
-0.44946147763656263
-1.3789370291211351
2.069317294472556
-0.2774816921940861
0.44050018545991604
-0.2630359307695141
0.7028506990635156
-0.8070564107677167
1.5027851315723313
-1.1839311449318708
-0.44709120383098383
-0.9422329820077087
-1.1525193645345597
-0.16399173259967256
-1.1007286157440581
-1.0629334457663688
1.847766756001722
-1.0208245629145487
1.3608503936789487
1.1607320632821463
0.1871745183367887
0.4614364908712904
0.5065049818983524
-0.5679547187236119
0.6265849810982893
-1.3560404923923026
-1.4450935767121464
0.6366513138204769
0.6959205506320648
-0.5237372483203517
0.0420908368945442
-0.19890611979036227
0.24945439892901367
0.3747363407331197
-0.9578226504686498
0.6639591912410169
-0.5231730896179643
-0.08407162362907221
0.412659650626985
0.39661689209332723
0.5725592296124818
0.6625093755707568
-0.4810526522404075
-0.5838913121154141
2.087451959709323
0.3565558911282572
-0.7619725785313177
0.6576232793198874
-1.1417867081182818
-2.8243295339742884
0.35945164386099254
0.2985213658570067
1.0044643545260106
1.0299269251686438
0.07260468909643748
0.09181822778463837
-0.5773386517369883
0.6683086810856302
-0.31820950488792926
0.8976068770055183
-1.3043030644250675
-0.1729035678338203
0.09372249660840613
0.6330136245068845
1.4702448628496094
-1.0488168074181687
-0.6812668095216816
1.7022721123676494
0.8643230083078175
0.2924940470513353
-0.1945620973558434
-1.0607358678729748
1.0863775858530547
1.415216007984837
0.811331475150646
0.17200814228264033
1.048410542869879
-0.5440630187933723
0.18305614115487123
0.01271132700891538
0.3884006409961278
1.3988134936448777
0.1730248270818955
-0.28866257279710555
0.7786135665656558
-1.0429220488127278
0.052328086030983156
-0.15896773432858533
1.4167844453693423
-1.6603498875653264
-0.7453194433596656
-0.4986859160442181
0.5376313725612325
-0.16590770350558434
0.9204763767254149
0.38009622285842704
0.7892996928454433
1.4665814369178571
0.14120230358154967
0.23465127436602717
-0.20098278993233182
-0.6070654774545817
0.13629771247178393
3.0564964097642613
-0.11300249278186969
-0.6128195396064791
-1.664670614045232
2.3686829410283976
0.702737747397611
-0.8613364596191345
-0.0881861870448742
1.0636762055119644
0.7081242858477813
-0.5017259657213202
-0.5600363130614525
-0.05119218828344898
0.8992313016906288
0.07228850661163654
-0.13504260767967013
0.2840843791661509
0.42236073696980836
-0.07693104968938892
-0.2841801075366321
-0.6953878518285559
-0.17152038365493325
-1.0517301422008787
0.9676071720932878
1.186394758501823
0.3907139538113563
-0.4963177364488169
-0.42056227530847984
-0.21272933462190816
-0.13979980911323606
-0.4426923025803533
0.6062305464648667
1.2947591326706387
0.35512860120565715
1.1337460470647944
1.2214340194307458
0.3210696901694288
0.19099508275080995
0.6320355758732795
-0.7558497761812033
1.3618848841518214
0.01297899961429349
1.1026079606998744
0.23003550671956086
1.600802626630999
-0.8938160072240666
0.38347478642757704
2.03858353146546
-0.13639890240068256
0.4754198890355557
-0.8468422102885055
-0.4868448757917959
-1.4147823585814685
-0.23460258179632046
0.7334625043484369
1.348992907981462
-1.9079238795268245
1.0136613745325325
0.9038850645758487
-0.3090013722584123
0.7877103841957195
0.8116316697491834
-2.002291652775109
0.7696675148891983
0.8896930079104121
1.0513846043233368
-0.37434696833273307
-0.8464340213818908
-2.0065263922711787
-1.3035685878009933
-0.035551627611774765
-1.6675796235301155
-1.0873720014244133
0.767128262147449
-0.9062894350241978
-0.06768610550728815
2.4193304479525617
-0.3967780032825298
0.5143423321187635
1.3114974225474905
-0.002478039049248217
-0.7471584965723322
-2.2697760577943353
0.275510473313975
-1.1485006862033205
-1.5949643926522314
-0.5807246120501619
1.0440674306224815
-1.8952065144619679
0.6438864414656713
0.13416933351300547
0.4500837787593422
0.7864725612576611
0.8456691329817577
0.1582553937440206
-0.051414986170337726
0.2908003602777184
-2.1186701044954326
-2.271578485155006
0.6642525906779809
-0.48905108933724967
-1.5366074605077369
1.747242337651535
-1.3106853409505028
1.226046602278175
0.19731433930942036
2.577277851088451
-1.214900829871581
0.7853749615590615
-0.027998174319596718
2.3417463309699653
-2.232223315363981
-0.7693774638569048
0.8198661292912189
0.9009403529306661
1.0776398076532605
-0.9338946546778122
-1.1838472744227793
-2.092697034067232
-0.192860631520207
-1.4828282788364302
-0.6715975904917576
0.4167681471929662
-0.77142817305983
0.7355770028406122
-0.47502512041014266
1.0774849363427863
1.4348036915912366
-0.09380245648713541
-0.1064821526497639
2.3249123976999813
-0.7177394864372723
-0.25693864627583507
-0.7026421179086859
0.3166913140599974
-0.36436378161138155
-1.5704900768178385
1.2316275859801
-0.27612656291899135
0.38285191702493204
1.4767458983125963
-1.0486895085212706
-1.416621131442089
-0.5744741405703434
-0.20527169761161543
0.6652748393459319
0.9101812631776165
0.5688537876686893
-0.9193111509098598
-1.843370940619491
-1.497461753034512
0.31217592878623956
-2.997093296417234
-0.19630880716382582
0.23662360395747592
0.735452337957948
1.0261254419121044
-0.4438240632130826
1.1837334396194312
0.33988307881594676
0.42016022269456466
-1.1648618368986037
0.4395586523864591
1.6735633938109837
-0.4005011168389298
1.0733481961878029
-0.25142752813299185
-0.26166469451054786
0.41547733053142794
1.3538297751431188
0.2791981979060853
0.11147412819096554
0.5991137767801255
-0.2347840376230312
-1.6629622318673343
0.4126717879804613
-0.1542795703513567
0.7540456707668582
-1.050141762239595
1.2289484743209071
-0.9278040026306164
-0.3767378800274269
0.21167575855948426
0.7575854329723325
0.2447816257018667
0.23205608351389032
0.49607378277257785
0.31503756211900086
0.036681193294399325
-0.6214185668673898
0.4452324219938183
-0.21988479370879774
1.0943741615146687
-1.6628189186190658
0.8048223685357537
-0.6783719865166258
-1.090777161219284
-0.3928578311194915
0.11049121722109859
1.4717285647963911
-2.0358486647945955
0.26721522562998695
0.34646219800095807
0.41296107163363616
1.3914183791604802
-0.20574530323801052
-0.36582275906709855
-0.3771232431251717
-0.033935806499856835
-1.5877646639188452
0.08904191721293579
-0.47660524863825887
1.1228705239163637
-0.7145850574097133
-0.24059174428075616
-1.0365783006757503
-1.2652605334188405
-0.1759427411692936
0.6522821989157566
0.541591216854993
0.08494147062286056
0.5944133104841776
0.6383120344451498
-0.3970187183299557
0.051656093638083905
1.8727567899920776
2.136272544626376
-0.21800938484409918
0.5927498376248911
0.6832676961451177
-0.8285091857994783
0.3621429384075795
-1.4511553966090758
-1.3366617942492023
0.9394686073999722
0.05988617773902317
-0.5481383996656503
-1.795066188448576
-0.16644671109881073
-1.2629228039820601
0.6521967023853812
-1.623552032654535
-1.3388699088325509
-0.6988662687866324
0.8857452517194164
0.4305178587942063
1.0098373632441102
-0.22944530339967648
-0.031553291996129045
0.9871178668395036
-0.24108701280781786
-0.04570651816459366
0.2599164084565526
0.8761173195267549
0.06192023429781638
0.5650169838663667
0.03189842266627145
-0.22691219683629502
0.9834487895159527
-0.5987633799085229
-0.44308712595499006
1.3679495127180505
-0.6596867748863263
0.635151536918006
-0.3735669615752529
-0.6629759609322969
-1.007050897235801
0.21134630208826993
-1.7528118852717331
-1.7283115842464902
0.32441003957141307
-0.29350330456332174
0.6535420150550167
1.0495660127146371
1.3101281968999763
-1.728640591301412
0.30617289834532585
0.7031686245244637
0.4763063110555061
-0.11362033312666887
-1.989633081535067
1.121015066574523
1.2742138300684522
0.023810617916629834
0.8887719274352733
1.2563199635060232
-1.6106752551745669
0.3797846209511737
-0.3347868739005145
-1.0172453707471163
0.39866957015056603
1.4347639773078318
0.6759347845596227
0.7842876645884443
-1.522129225865434
-0.4373025930575171
1.9352216480638669
0.8712539656412183
-0.2359079238537267
-0.6940715010318909
-0.008096833513808084
0.30895750339773875
0.6567460286219842
0.9816776520182875
0.4655042734086816
0.26623610674218795
0.8646699082047995
-1.0002785214063736
-0.8217539898886925
1.1062044370201338
-0.1372894081728001
1.1853865422862389
1.4093796055608339
-1.7059963603823556
-0.9269192331790927
-0.07534953219212072
-1.149105310892059
1.9663839310426188
-1.385089446272756
0.6721521527886044
-0.08735068444584201
0.31325965702396796
-1.7796959284040024
1.972199474898106
0.7151264448110797
-0.31428705910118154
-0.9415627846508955
0.22414322791309163
-0.8719322148639025
-3.0063552457372182
-1.1932448597063696
-0.30039082251719285
-0.534499003761543
0.45940205468017675
1.5776116348979108
-0.550190381066638
0.7284842302958873
1.1276086251406134
-0.9496932382962593
-0.5685691030849035
-0.6007817054585497
-0.4943131774645603
-0.9636828634765608
-1.337134687262852
0.9287714675291739
-1.1597187512477798
-0.565392689534887
-1.5712604482298902
-0.012078908699940891
-0.03366655459385334
0.34122317571257105
-0.390437042035444
-1.043719945040195
-0.2240085406834809
0.6426793383302652
1.8873266666311281
-0.5844852216139395
-1.8826722465382144
1.284328843180838
0.21283778163811146
-0.23884253318587922
-0.1319844596428305
0.7178490077801007
0.24276424591765672
-0.262866440033462
-0.4357669215381877
1.1702142272789828
-0.3138539276097756
0.7252630207202372
0.803838282165553
-1.6885890766717389
-0.8948834528051558
1.2993748796631197
0.8096022916759649
-0.07111345644623382
-0.3209126246142794
-0.64811919007675
-0.19613806431460332
-0.12512288809400712
-1.2145752097656184
-1.513222820710702
-0.3870304019471022
-0.24481192244195574
-0.32203698243446155
-0.8970490144660659
0.20489615479239384
0.014422091807003413
0.9939366537788907
-1.1620174105209706
-0.6308491701123087
1.215489186894586
1.0419642171582026
1.501604399202456
-0.08208253514545197
0.3561610627253482
0.032340664055067095
-1.70320727721016
-0.5946532252356674
-1.2195352926656133
-0.048048657301636315
-0.9608037264879865
0.34266717843661787
-0.5132410604268854
-1.2557557932267327
-0.5901037263102265
0.04903430280058581
-0.16251069399595033
-0.5203821412741911
-1.7784313560272782
-0.07245883080638245
0.5834181077060759
-1.0342688463453769
-0.10670015649849184
-0.4264318596149319
-0.22392609042758663
-0.8043684904798618
-1.4461447697233514
1.0540654409450265
0.5795051703408939
-1.1674782991140236
2.2566409818876627
1.0440265664045572
-0.4512133777258644
0.45820981357374496
0.06925226173419172
1.0206014202847895
1.0225935136501783
1.0515425970963574
-0.026271402042059043
-0.18881601235479845
-0.1772571830199104
0.2376299158993996
0.35299162941865825
1.6108328340139002
1.4255985045599244
-2.287232934348668
1.1368984247735252
-0.22463027419641204
0.12326208215252601
-0.9141350695798491
0.4049440879852326
1.3009646962714607
0.7913473337916128
-0.5750334472875865
0.5744824655153007
1.8567831538993187
-0.6877821581900025
0.3731250005938759
1.6973977111331022
0.5020154264588925
-0.2426922617515197
0.7394670033035874
0.7130542696791228
1.8933992247462423
0.7745522486380148
-0.21004381845942807
-1.1583020484195752
0.600833379545013
0.7311174441943411
1.4762874840974256
-1.0472502863879154
2.2587253602334987
-0.9606123944946756
-1.4988511139460061
0.332127689228369
-1.0736343595455071
-0.31495239802004993
-1.0833198078298634
0.339437637087136
-0.7901832399562587
0.8205032256966573
0.711504209142942
-0.8647411480496022
-0.692635936837415
0.591110720223981
2.2983210652092114
-0.18241050239210602
1.3599639826385754
-0.10358624631863356
1.3551832441594316
-0.22392982818806384
1.1362791207429068
1.625126506797172
-0.7180024495231184
-0.2664673038667655
-0.5021417418450093
-1.4028230540531483
-0.4119823582942619
-1.4431931141366554
-2.674483956801884
-0.1824309810521711
-1.2740335540652636
-0.47411020454954267
-2.6262459700125738
-0.4911934463877202
0.8253294543355645
0.5033974480800028
-0.6812855539727876
-0.2683397693942327
1.0293157277910536
-0.3706058767740047
0.47290866923568786
1.3017728900307421
-0.14369071919271856
0.42581532891831825
1.6494472329828145
0.6542071052061482
-1.403886079881594
0.2700976399465616
-2.0425875689887985
0.4313653994617723
-1.9613416289647132
1.2433895758404447
-0.3535884391748144
-2.4413639885168137
-0.35449769430669104
0.7836080358453136
-1.0899692990133503
1.1068147047368535
1.1751158752304698
1.1172317882909393
-0.5989504086363526
1.2051053666563232
-0.5700797775129636
0.3852156321430962
0.48943471732146054
-0.38824276303679894
0.7918920365628138
-1.1053117315522232
-0.5910876074274877
0.19696179935216132
0.9468411457064924
-0.6449822381657396
0.9216550338652637
-0.37493292595811883
0.5971447833615757
-0.12161413302111754
0.12055343670614632
-1.739566728553773
-1.3784679753840652
1.9006051324812243
-1.1282327673579242
-0.7025547423702794
1.849217328737418
-0.9815737853815962
-0.6076102791341147
-1.1567883800091343
0.7397693543779735
-2.1122424331341567
-0.8269540727749274
-0.607203821832612
0.9430391015824879
-1.6488661848273978
1.337077048962946
-1.642431149669704
-1.222686298981986
-0.9827562274166244
1.0043164268843512
-1.331953466689186
-0.4937790496844139
0.3189717928857423
1.7407029669092868
0.3575192928245215
-1.9271787159703622
0.822677613316917
-0.548134221417642
-0.21170015783652313
-0.34557707244130187
-0.3546669919709632
-0.8951137655131062
1.1058814884568056
-1.3358298683844958
-1.172935230245984
0.25469952280139163
0.9129692326395169
0.7379075985762795
-2.235157723013449
0.5699890149040081
-0.9326037834638332
0.04315085738096222
-3.37026450741045
-0.30790650385360824
-0.5948010040099985
-0.3535191722261249
-1.2771025838492605
-0.1070236688318461
0.8518773251696862
-0.8402061209063255
0.024646933523813627
-0.17594496215534405
0.06472544885681436
-0.8277535230063678
-0.16426155272260692
0.060889188338154016
-0.21356891545418122
0.1405951655426213
0.5210539750420538
1.6893403471596122
0.34832650190216674
-0.1252134714492295
-2.092510561339526
-1.3621003780632346
0.31335589302310196
-0.7952210014746968
-1.2565454795764168
0.6087676165038423
-0.3901778807526378
-1.8450697679561603
0.9097087534269322
-0.6832079081194964
-0.8164347249971667
0.8757241812441982
2.095974408953706
0.9912185238509137
-1.7751256097797308
0.027142803191528144
0.6542301294431369
0.6240318959624023
-1.3346412647832306
0.43860136328410154
-0.5305470363538343
0.3637206973691953
-0.48959559397341323
0.7638630637583175
-0.9268910672630928
-0.4132557584773036
0.119387903083358
-0.205272643801277
0.1965815771784524
-0.34166949703624416
-0.6194259477015015
0.640732185969876
1.6220444532388283
-0.8557703428605996
-0.39311003414757556
2.396999719131404
-1.5021485873344622
-1.3061397779947383
-0.22087674264332377
0.4070810052667701
1.0183989996030496
0.06927153759152051
1.0319190491232846
-1.1122652821907375
-0.06969862511815887
-0.03163304232329215
-1.0498084500510523
-0.9947630247737231
0.2804810266113954
1.863805994893294
0.6034577800950853
-0.42803894086039473
0.29118530028635753
-0.9046196748664415
-1.600782936891602
0.82382977899198
1.2449711320633905
-0.38092983648841994
-0.5769089961664321
-0.03565423615822056
-0.9236166591348745
-0.1271132288826304
-2.7056243009559147
0.8417495114590686
-1.3245999427092363
-0.7767613198527731
0.6318998812101377
-0.1108360376051516
0.7393541644316902
0.07917088027493122
-1.157993296077606
-0.18685185311601352
0.7826351001527625
-1.0872371177196356
0.31840546055940494
0.283449262901366
-0.664790028088205
0.509680080190515
-1.2815399864029173
-2.398161173749898
1.5157233436491557
-0.07893989959674336
-0.5425472750102631
-0.41864281022660793
-0.26621643587331784
0.9598096065002842
1.1552123167691672
-0.9866817982206775
-0.6406819713256997
-0.40542752296121526
0.408130804692625
-0.17993101572565887
-0.47663337463098887
-0.9735084443892629
1.6349760284796582
0.7489252218039281
-0.48742670911811864
-0.8844449533389691
0.5870695995122501
-1.711863751741449
0.5995060418777507
0.025112314105407697
-0.9876996884401761
-2.5111983627714247
1.4536107043448485
0.8203003568031255
0.3352548727899508
0.21529965058980652
-1.520462751512165
0.7734590577519374
0.25220858357600234
-1.4402387661075515
2.3275604675097834
-0.05504701830429043
0.15775716793657074
-0.3490644231067823
0.286426503227207
0.46886900548063626
1.4491785592368778
0.22949392090504733
0.5369720856941859
0.06614891790726694
0.25799579176675114
1.8676615247270851
0.0010606108056872736
0.15855650488552567
0.2060517354446295
0.02979335888471547
0.13171227780314804
1.0758391229426083
-1.4203285473578549
-0.054692270073950555
-0.007904395583540145
0.7322604611012105
-1.052500941908615
1.4977336756946396
1.2699958199798351
-0.4538054743531141
0.3456311461499212
0.02171064933970952
-1.5071201373525325
-1.863385245538445
0.5640766040331293
0.7780738070495643
-1.0582665793569728
1.865403062576675
0.4777583790407751
-0.4119125756973106
-0.5748595767502777
0.8603396332020863
3.250429342413233
0.7767167146698432
0.6542445027947598
-0.3996950067567136
-0.09672463898546896
-0.6585532370217234
-0.924587577301966
-0.4803635970716437
-0.2997432832893271
0.641958793473874
-0.692285914168143
-0.7738026307231208
1.1672444706090424
0.9876209019455011
-0.04488631359583205
0.7188252885750741
1.1350399016752672
-0.014714149292106413
-0.11219757509124788
1.026328128377343
0.27153558859927107
0.3158449500183137
-0.8498096031228952
-0.021116082775984014
-0.3978034152674375
-0.07759367397151581
0.09666168802713987
-1.3333144714654803
-0.291592555922442
-0.5456735799147338
0.46551928244414853
-0.09837069204018037
1.0443407976919312
1.7534947692254907
-0.40031411375659487
-0.19923404151946747
-1.157366172722695
0.17959960230119432
-1.295188346611218
-1.6918519047805047
1.9021306220555583
-0.1920906289601835
-0.9930009854494494
-0.520181648064908
-0.4280456974821108
-0.6120906209102402
-2.0882033719699025
-1.8493245600506611
0.37338451099779146
0.6891831884620943
-0.47818452954565893
0.7186591879704444
-0.5345737986822536
-0.4978586340219847
0.42407027784706197
-0.17591571497681555
0.876543729590012
-1.4902224992740136
-1.2001157265450992
-0.11978090224689429
0.3734434361950674
-0.8242993389397697
2.4308438310571154
-0.7728009398333698
-0.5786527913815623
-2.3284274777311067
0.9446547999580189
-1.4814957236868036
0.13908552782805772
-0.06261729704319727
-0.010192165192006998
0.8330509875158812
0.964400094407115
-0.4494580089098249
-0.49895209130800017
0.178274251669607
-0.6310503149716601
-0.5556161051719788
-0.6587662239358605
-0.2510931337783317
-0.33628003472749834
-0.5768173700678372
-0.9218998325588208
0.22841400417696126
0.01280235273493579
1.2983598926839575
-0.37202421861148277
0.14692043945827932
-0.4690061135776734
0.8300757185950557
1.0853131887169465
-0.5032843200678504
-0.33071086640499014
0.5434304333596699
-0.8583760424540156
0.5779022658859583
0.49510643279610944
0.7499030876305806
1.6037895301636622
1.143397706808076
-0.30703917128134306
-0.38313000466732466
-1.100237372915619
0.06233962454533429
0.403851671540092
-2.6094921135876104
0.5655559089321466
-0.311026093270348
-0.7133880241172504
-0.4862522768137134