1.487468378425533
0.39214716226644525
0.14066433947028054
0.6833925487919602
1.584586474539536
-0.1360286523047752
0.4101263239256786
-0.6003157820771317
2.461160872471687
1.826811486776517
0.19630416752406035
-0.5443484373284232
0.40424828834034787
-0.6022943081775081
-2.4954627394149878
0.9128750192594725
-0.87060080935603
-0.9414035486551203
1.4268012263631011
0.4250951077631862
0.8067220087209612
-1.6809483785931076
-0.4946017185257616
-1.2956588044975965
-0.6343565914863161
1.3539790552765827
-0.5163791420804462
1.3662970775630081
0.5079712115035343
-0.19755662191802068
-0.9470748518407748
-0.8708720027803523
-0.7813981531260444
-1.218188541900655
-0.05985091269554323
-0.5759397943930096
-0.03578552159128277
-0.7216410175892124
-0.47700494042540925
0.7030738048725663
1.645044856020548
-0.06217717408327851
2.5889922326748027
0.8506424602851029
0.08371078961506101
-1.405196970423027
-0.7162788679328631
-1.6696818942156677
0.8409104025495152
1.5397957905887631
-0.2445505632139071
-0.16958347342690858
-0.7473187057155338
1.2381709492872222
0.6294862613865871
0.1229100844131165
-0.9477088364418476
0.8375361856694535
0.2884102453368239
1.264394632803495
-0.23425802714135158
0.4137113796958468
-1.4575368558245787
-0.6412620033480898
1.4869681369015237
-1.7308300431366865
0.8961320897311852
1.1634914868835884
0.24370750188223494
-2.1079352714940547
-1.8479942696226064
0.8047916327219012
-0.5887764373263054
-1.1420876096636132
0.023146400792509163
0.824359388749348
-0.8381105779804553
-0.09863696856595298
0.24037360697779483
0.9781561203307159
-1.2580817739917953
-0.28850280951335494
-0.1329249827200078
-0.4066562916381422
2.1057725719976417
0.5064291858590471
-0.3858839427118346
0.9468870681025938
-0.7027472808243919
-1.0280471301263594
0.06327044984879587
0.5225020786746092
-0.12958539736430066
1.0816790699001602
-0.6813037071190624
0.1812872504730893
0.15011667221618816
0.38821293317794914
-1.1412950705855347
1.6942623094874765
